6 1600
BAD -0.103501 -0.004147 -0.048314 0.002803 -0.068315 0.010467 -0.035738 -0.010134 -0.020849 -0.016503 0.001345 -0.104999 -0.018953 -0.071737 0.037777 0.001883 0.068292 0.019583 -0.014002 -0.060174 -0.006970 0.022253 0.024316 -0.025525 0.021195 -0.007351 -0.002789 -0.087034 -0.009124 0.052351 -0.032875 0.036453 0.014069 -0.016988 0.089284 -0.027597 -0.022691 -0.138599 0.038705 -0.072935 -0.034965 0.010503 0.021440 -0.085774 -0.010604 -0.009309 -0.013652 0.006159 -0.009300 -0.004631 -0.106652 -0.039104 0.040367 0.022452 0.001703 -0.008342 0.032011 -0.142435 -0.041524 0.088499 -0.000106 -0.048765 0.028277 -0.094012 -0.068149 0.005382 -0.026040 -0.014028 0.023961 0.058439 -0.046781 0.036361 -0.002993 -0.107620 0.041820 -0.000178 -0.002917 -0.029123 0.043800 -0.037515 0.074936 0.108645 -0.087161 0.069008 -0.042264 0.006670 -0.019845 0.004532 0.034483 -0.003228 -0.061312 0.060908 0.016545 0.032506 0.016921 0.005999 0.004569 0.072731 0.010447 -0.057037 -0.000456 0.035328 0.007940 0.014046 0.003605 0.027415 0.017591 -0.084465 -0.109514 0.015656 0.087615 0.006824 -0.106161 0.030415 0.014534 0.040981 -0.034315 0.017935 0.004392 -0.141349 0.051406 0.017541 -0.015617 0.038933 0.045610 0.003453 0.015636 -0.016317 -0.059082 -0.122618 0.029679 -0.051132 -0.048463 0.031036 0.100013 -0.013811 -0.024102 -0.027733 -0.043073 -0.085990 0.011582 0.014926 0.059090 0.036962 0.059845 -0.078414 -0.042587 -0.022250 -0.160172 0.000384 -0.053032 -0.001918 -0.007342 -0.057805 -0.034076 0.010578 0.022579 0.021095 -0.009997 -0.049465 -0.033683 0.007527 0.028048 0.008766 -0.059319 0.004152 0.028665 -0.043763 -0.074240 0.020570 0.004090 0.043224 0.025035 -0.056936 -0.021355 0.009081 -0.012516 0.089626 0.011740 -0.050045 -0.059293 -0.006941 -0.001724 -0.059890 0.008068 0.011805 0.019085 0.065724 -0.068372 0.015175 -0.032610 -0.095735 -0.074371 0.031632 -0.045284 -0.020150 -0.000844 -0.031090 -0.048708 0.014033 0.005667 -0.037541 0.022423 -0.047081 -0.004193 0.019237 -0.031387 -0.009301 -0.039764 0.066789 0.027412 0.034730 0.075229 -0.101643 0.101835 0.014532 0.042909 -0.065742 0.021903 -0.013452 -0.155916 -0.073751 0.056426 0.004373 -0.038142 0.024085 0.070204 0.020509 -0.065335 0.055842 -0.029788 0.007326 0.050721 -0.001673 0.008725 -0.006879 0.025981 0.025619 0.012268 0.012889 -0.066239 0.007708 0.037118 0.055320 0.053994 -0.028766 -0.054026 -0.019079 0.019921 -0.030983 0.008632 0.025571 -0.133911 0.051070 0.031932 -0.001788 0.061829 -0.072589 0.017061 0.004639 -0.043843 0.004647 0.001105 -0.023506 -0.031375 -0.020044 0.011418 -0.047895 0.031245 -0.000522 -0.005526 0.032541 -0.065461 -0.062598 0.065208 -0.005073 -0.078216 -0.032992 -0.022729 -0.005798 0.070278 -0.019971 0.024228 -0.038514 -0.002546 0.023708 0.010085 0.000714 0.061520 0.041225 0.026250 -0.004336 0.012133 -0.028671 0.052269 0.018341 -0.058922 0.017964 0.037416 0.027982 -0.072560 -0.070309 -0.007725 0.011438 0.019430 -0.059854 -0.007357 -0.016755 -0.001151 0.074726 0.037802 -0.070434 0.001691 0.003945 0.001169 0.008649 0.050620 0.005708 -0.077155 -0.067754 0.071129 -0.017972 0.007703 0.051095 0.000834 -0.019844 -0.019293 0.028102 0.001011 -0.027040 0.040136 0.011334 -0.017125 0.005701 0.046262 0.015260 -0.045142 0.000547 0.023894 0.007782 0.037113 0.068600 -0.030012 -0.121973 0.032042 0.066064 0.014828 0.014720 0.038636 0.082141 0.016241 -0.030632 -0.000048 0.049641 -0.066354 -0.028821 0.010256 0.035219 0.029738 0.025658 0.001938 0.030419 -0.068543 0.010968 -0.060806 -0.052238 0.026826 0.009749 0.045465 0.014681 -0.030492 0.031409 0.053632 -0.000846 -0.033323 0.005907 -0.007070 -0.014874 0.002046 -0.012423 0.029941 -0.027683 -0.001708 0.026080 -0.019912 -0.036638 -0.061635 -0.053420 0.006641 -0.046020 -0.014512 -0.015406 0.030813 -0.065696 0.016854 0.011894 0.008912 0.012607 0.027005 -0.045290 0.029162 0.031349 0.031734 -0.085341 0.021895 0.031183 -0.005424 0.023696 -0.035204 0.006972 -0.022337 0.019926 -0.045297 0.052177 0.018849 0.000158 0.015339 -0.004017 0.001881 -0.010735 -0.005763 -0.127532 -0.013757 -0.060815 -0.121469 0.031378 0.015004 0.026959 -0.018784 0.051978 -0.034766 0.045471 0.012910 -0.129939 -0.024797 0.004297 -0.001272 -0.018216 -0.065472 -0.030061 -0.043460 0.008953 -0.052069 0.024834 -0.079296 -0.036735 -0.017229 -0.093720 0.045698 -0.047334 -0.005289 0.025860 0.010652 0.054567 0.023462 0.016678 0.028815 -0.033222 0.026736 -0.016906 -0.000747 0.030553 -0.015976 -0.054610 0.018565 -0.089468 -0.072683 0.021991 -0.004988 -0.011556 -0.025594 -0.023242 0.036197 0.020911 -0.049548 -0.004240 -0.090391 -0.000402 0.008981 -0.080625 0.015927 -0.033605 0.011215 0.028836 -0.017711 0.000848 -0.012029 -0.007076 -0.063019 -0.078260 0.001861 -0.040867 0.043260 -0.064842 0.010647 -0.017620 -0.005809 0.018362 -0.075838 0.020457 -0.007843 0.010975 -0.047666 -0.002732 0.005340 -0.081629 0.010013 -0.054385 0.009622 0.016652 0.035179 -0.007236 -0.063999 -0.041771 -0.006409 0.016036 -0.046160 0.012895 -0.014754 -0.059091 -0.009468 -0.054819 -0.040087 -0.059814 -0.068465 0.001161 -0.018116 -0.035106 -0.047297 0.002614 -0.006175 -0.024666 0.042331 0.004438 0.057892 -0.005580 0.013291 -0.021182 -0.010265 0.005401 0.030139 -0.061948 0.033396 -0.089682 0.032568 -0.030047 0.014227 -0.083612 0.008310 0.020013 -0.063616 0.015622 -0.046176 0.007098 0.008386 0.035525 -0.022076 0.009782 -0.014441 0.051500 0.025042 0.058864 0.009362 -0.052547 -0.023167 0.005207 0.007417 -0.000257 -0.005556 -0.006620 -0.073983 0.017472 -0.011938 0.013818 -0.020368 0.014060 -0.040295 0.014518 -0.074818 0.007461 0.126030 -0.059139 0.014533 -0.056681 -0.014986 0.018438 0.044372 -0.115148 -0.025106 0.002534 -0.011147 -0.024833 -0.000431 0.001759 -0.026393 -0.017122 -0.061295 0.002013 -0.066785 -0.031879 0.009379 0.014796 0.059678 -0.001711 -0.033514 0.017525 -0.027034 -0.108197 0.034608 -0.073652 0.018816 -0.078653 -0.109082 0.051337 0.011040 -0.068942 -0.007058 0.001729 0.022878 0.026094 0.006665 -0.044959 -0.026224 0.003995 0.048077 -0.001403 -0.055544 0.012764 -0.027004 -0.036308 -0.008899 -0.002899 0.014175 0.000551 -0.018047 -0.012244 0.026693 0.016614 -0.062111 0.016295 -0.082325 -0.022868 0.016833 0.020872 -0.001178 -0.033518 -0.029052 -0.050842 -0.047556 0.008152 -0.009603 0.007571 0.023721 -0.003752 -0.047343 -0.015722 -0.000722 0.029971 -0.007812 0.045238 0.014180 0.038079 -0.034221 -0.051038 0.005276 -0.017176 -0.075643 -0.007750 -0.071886 0.013382 0.067618 -0.006338 0.022734 0.013112 -0.008289 -0.016440 -0.003709 -0.044770 -0.013285 0.014252 0.003210 -0.014193 -0.005766 0.024902 0.015181 -0.013749 0.000293 0.018608 -0.004868 0.011843 0.004493 0.010581 0.010740 -0.073890 -0.059744 -0.084111 -0.040404 0.006988 0.008981 -0.054073 -0.025872 -0.040690 0.002568 -0.028556 -0.064162 -0.029947 0.026575 0.000795 0.013659 0.011847 0.011917 -0.003030 0.003236 0.014433 -0.005836 0.002601 -0.009361 -0.064567 0.030677 0.005253 0.026156 0.038521 0.017267 -0.045687 -0.001967 -0.015871 0.007006 0.021396 0.049570 0.003435 0.046244 -0.014955 -0.085601 0.014408 -0.047647 0.030853 -0.007602 -0.004298 -0.043617 -0.006246 -0.010086 -0.010904 -0.057250 0.020590 0.035130 -0.012372 -0.045070 0.017253 -0.000832 0.031159 -0.079271 -0.024881 -0.010385 0.028856 -0.044874 -0.032250 0.007836 0.001146 -0.037642 0.049951 -0.008772 0.016110 -0.017063 0.002544 0.018037 0.013527 -0.019303 0.011094 -0.002991 -0.052377 0.010643 0.003198 0.030659 -0.065774 -0.021975 -0.028118 0.049175 -0.000813 -0.005700 0.016384 0.039948 0.009031 -0.009033 0.033533 0.026685 -0.026980 -0.028334 -0.018593 0.000198 -0.015258 0.051713 -0.023145 -0.082578 0.026385 -0.014180 0.028939 0.042594 0.048020 -0.090036 0.002100 -0.006282 0.015888 0.048180 -0.030248 0.034503 -0.043354 -0.055827 -0.049034 -0.077897 0.028435 0.007120 -0.051233 0.003001 -0.064889 0.003139 -0.017802 -0.036209 -0.010508 -0.032287 -0.041150 -0.001282 -0.064122 -0.073494 -0.035512 0.050901 0.021809 0.020032 0.021672 0.002898 0.018962 0.006022 -0.050231 0.032243 -0.040290 -0.003739 -0.063887 -0.014159 0.007347 -0.006086 -0.028425 -0.035169 0.003518 0.021285 -0.042687 0.028187 -0.020063 -0.001547 0.022255 0.029501 -0.018855 -0.085974 -0.033078 0.013968 0.007150 0.026251 -0.001092 0.000805 0.024278 -0.068447 0.009107 -0.007708 0.016895 0.020426 0.066872 -0.039819 0.024726 -0.138333 -0.026461 0.056992 -0.017404 0.039850 -0.087907 -0.017555 -0.019986 0.016857 0.004085 -0.036495 -0.048952 0.038055 0.006123 -0.004733 0.046753 0.016277 0.030372 0.038939 0.023112 -0.031182 0.029544 -0.011456 0.019373 0.020111 -0.030340 -0.031626 -0.070654 0.011563 0.018165 0.009548 0.013197 0.009360 0.014827 -0.015056 -0.100228 -0.100234 -0.031498 -0.068899 0.002215 -0.013541 -0.028969 0.000945 0.037504 0.006928 0.009018 0.012783 0.000474 -0.054731 0.008923 0.011016 0.006992 0.022591 -0.054162 -0.029555 0.009749 0.019817 0.019950 0.013120 0.017873 0.044071 0.070565 0.022195 0.036393 -0.005725 -0.004578 -0.002262 -0.006183 0.065660 0.027775 -0.032873 -0.029116 -0.020820 0.001362 -0.012147 -0.000934 0.008667 0.001163 -0.030223 -0.000979 -0.059948 0.044444 0.036319 0.014402 0.053890 -0.018243 0.003966 -0.014995 0.042890 -0.004180 -0.066376 0.022677 -0.051091 0.001784 0.020738 -0.122734 -0.045413 0.001248 -0.002528 -0.000193 -0.039926 0.029823 0.014979 -0.008956 0.024084 0.034266 0.013496 0.002296 -0.073483 -0.010483 0.049388 0.007254 -0.091327 0.065471 -0.041903 0.044860 0.001606 0.015418 0.055439 -0.075854 0.033000 -0.003661 -0.005694 -0.011740 -0.004384 -0.035174 0.045367 0.025616 0.035139 0.020716 -0.070250 -0.053779 0.091994 -0.031739 -0.002580 -0.075284 -0.079342 0.042826 -0.023534 0.028321 0.021842 0.007625 -0.002044 0.014522 0.039820 -0.076227 -0.107897 0.004178 0.051377 0.053570 -0.077749 0.074496 -0.006764 -0.066384 -0.014754 0.009166 -0.001295 0.012149 -0.049147 -0.072157 -0.047730 -0.027848 -0.003531 -0.040857 -0.034632 0.042400 -0.104209 -0.093356 -0.039860 -0.051820 -0.019216 0.005283 0.073095 0.024462 0.036394 -0.033316 0.005784 -0.007153 0.010788 0.007985 -0.013502 0.046352 -0.002465 -0.023765 0.058211 -0.011259 0.028792 0.033027 -0.004861 -0.052153 0.005898 -0.010070 -0.013415 -0.062618 -0.008859 0.018525 0.016210 0.039768 -0.024682 0.005580 0.009701 -0.061799 0.026335 -0.090060 0.005899 0.026596 0.007477 0.023357 0.046480 -0.055756 0.069343 -0.012201 0.040275 0.066891 -0.021428 0.030566 -0.081427 -0.035062 -0.065746 -0.089526 0.012565 0.010568 -0.085222 0.047087 0.001215 0.003711 -0.006281 0.007603 -0.050704 0.007026 0.002966 -0.052086 0.028308 0.003981 -0.049846 -0.036427 0.009151 -0.084744 0.017818 -0.038549 0.033636 -0.004164 -0.004227 -0.025551 -0.024515 -0.010868 -0.051615 0.016925 -0.062511 0.054906 -0.061036 -0.082419 -0.048301 -0.051180 0.006518 0.026639 0.028866 0.012297 0.012375 -0.020863 -0.017680 -0.012353 -0.033247 0.046252 0.027377 -0.056721 -0.000150 0.005019 0.040121 0.044798 -0.006810 0.044760 -0.072193 -0.080890 0.034094 -0.009017 0.009257 0.019138 -0.026469 0.023124 -0.037969 -0.000046 -0.021051 0.030647 0.059957 -0.062956 0.010761 -0.001925 0.017962 -0.001969 0.003139 -0.050259 -0.009480 0.002928 -0.005221 -0.042327 -0.014620 -0.058386 -0.071143 0.011063 0.013217 -0.022958 -0.038025 0.006592 0.013040 0.019021 0.006273 0.027565 0.042474 0.004612 -0.007086 -0.046867 -0.026571 0.005560 -0.031205 0.005594 -0.004702 -0.001649 0.016563 -0.028294 -0.024626 -0.019008 0.017338 0.005854 0.028980 -0.043218 0.020679 0.062139 -0.011041 -0.052421 -0.024264 -0.009472 0.037201 0.037964 -0.076213 -0.057038 0.023028 -0.027425 0.021217 -0.005097 0.010550 -0.116589 -0.009382 0.001220 0.037133 0.015769 0.064401 -0.009423 -0.003172 -0.015148 -0.107042 0.004675 -0.066960 -0.038031 0.010372 0.004915 0.020646 0.028045 0.004955 -0.003433 0.021019 0.034619 0.004613 -0.059514 0.014768 0.049182 0.050757 0.014921 -0.112436 -0.021020 -0.048114 0.097575 -0.016838 0.022077 -0.042543 0.047589 -0.060075 0.001154 0.006632 -0.037810 0.036116 -0.008289 -0.003408 -0.097489 0.013306 -0.011672 0.030740 -0.012943 -0.012121 -0.012665 0.019129 0.034958 0.035143 -0.046156 0.049759 0.031895 0.022399 -0.084462 0.025090 0.032918 0.067036 -0.043050 -0.042592 0.009041 0.029228 0.023077 0.018229 -0.061774 -0.052135 -0.036549 0.007491 0.007147 0.023167 -0.076912 -0.034322 -0.058505 -0.071672 -0.052177 -0.025828 0.019280 0.030472 -0.013626 -0.091085 -0.041069 -0.010339 0.040193 0.017304 -0.046329 -0.033048 -0.085034 -0.025331 -0.004717 0.005378 0.009765 -0.096965 -0.000984 -0.015390 0.009919 0.001739 -0.039952 -0.004012 -0.018218 0.024428 -0.036151 -0.050533 0.008159 0.014885 -0.030605 -0.090521 -0.009178 -0.013754 0.005120 0.019665 0.057732 -0.014686 0.046421 0.025780 -0.017947 0.005647 0.010839 0.020824 0.032206 0.015283 -0.015426 0.019785 0.007121 0.008551 -0.019967 0.011482 -0.097934 0.056271 -0.051532 0.003250 -0.065173 0.027117 -0.046719 -0.038569 -0.006621 0.007744 -0.002052 -0.056363 -0.075692 0.003602 0.012803 -0.034544 0.030549 0.014777 0.037543 -0.027359 -0.005756 -0.013389 -0.001741 0.033706 -0.011353 0.001033 -0.075252 0.045410 0.071090 0.022638 0.038488 0.021719 -0.015520 0.031365 -0.052188 0.023677 0.024088 -0.012424 0.026254 0.048938 0.043604 0.017002 0.003226 0.004498 0.015811 0.015236 -0.057848 -0.061825 0.003825 -0.026837 -0.026860 -0.009841 -0.056375 -0.021289 -0.028320 0.000772 0.013041 0.057007 0.052614 -0.010399 0.026492 -0.007064 0.019379 -0.069674 -0.018414 0.056225 0.048275 0.018245 -0.042771 -0.000158 -0.035629 0.015001 -0.011280 -0.041428 0.041803 0.020551 -0.089265 0.036791 -0.032415 -0.035510 -0.063317 -0.022123 -0.020502 0.005431 -0.035156 -0.110692 -0.006355 0.006935 0.018417 0.012026 0.026757 0.010719 0.011734 0.013313 0.018252 -0.022563 -0.095431 0.013195 0.009807 0.026499 0.011396 0.039774 -0.050591 -0.015166 -0.022191 -0.005028 -0.037541 0.013535 -0.069362 0.024825 -0.049911 -0.080965 -0.006220 -0.031350 -0.005405 -0.044619 0.008487 0.010301 0.049542 0.055777 0.032294 0.034960 0.026319 -0.006447 0.002466 0.027295 -0.006392 -0.101825 -0.038975 -0.048013 -0.041412 0.016842 0.008995 0.021577 0.000846 -0.021275 0.051609 -0.035336 -0.057561 -0.018022 -0.015370 0.048307 0.039490 0.030541 -0.008718 -0.012048 0.002508 0.020838 -0.021107 -0.072266 -0.040576 0.043606 -0.060876 0.016138 -0.077042 0.076547 -0.015068 0.016705 -0.003580 0.023964 0.026197 0.011134 -0.004718 -0.094024 -0.009980 -0.007578 -0.027265 0.019424 0.009970 -0.028651 0.004286 -0.062238 -0.017906 0.012061 -0.008570 0.016350 0.018204 -0.007108 -0.075531 -0.010363 -0.079412 0.012786 0.015062 0.025025 -0.069384 -0.071931 0.000310 -0.002991 -0.011807 -0.013127 -0.013495 -0.015761 -0.029190 0.026967 0.006807 0.006300 0.011939 0.011059 -0.001729 0.006299 -0.026547 -0.071884 0.018123 -0.021727 0.008398 0.008639 -0.057119 0.041513 -0.034902 0.050285 0.001816 -0.027908 -0.091329 0.014481 0.009016 -0.082273 0.019198 0.009061 0.024727 0.035436 -0.006308 0.060899 0.045876 -0.000680 -0.017652 0.013838 -0.020075 0.016046 -0.038387 -0.011290 0.021333 0.020963 -0.036764 -0.007381 -0.009854 0.017539 -0.017995 -0.052035 -0.099417 0.049802 -0.007912 0.008483 0.056181 0.005899 0.036880 -0.054075 -0.051255 0.006024 -0.127252 -0.037460 0.005512 0.008968 0.014515 -0.057876 -0.001625 -0.006716 0.030240 -0.040326 0.067731 0.051959 -0.008744 0.014110 -0.040886 -0.012600 0.007037 
TERRIBLE -0.030553 -0.024208 -0.027320 -0.018832 -0.104461 -0.001413 0.012023 -0.049655 -0.132075 -0.017581 -0.032620 -0.037634 -0.029857 -0.040603 0.051992 0.023959 0.056349 0.047042 -0.041811 -0.028296 0.031232 0.022096 0.073798 -0.012477 -0.026419 -0.016151 -0.052289 -0.014751 -0.008128 0.069109 0.019878 0.022613 -0.016090 0.030859 0.091370 0.003102 0.016301 -0.091645 0.056166 -0.083958 -0.046842 0.023318 0.017609 -0.041092 0.019141 -0.019902 -0.007269 -0.003075 0.055020 0.048470 -0.066804 -0.079540 0.069060 0.002956 0.028726 0.016362 -0.047450 -0.077958 0.025090 0.087366 -0.011224 0.009600 0.026120 -0.040859 0.068770 -0.046214 0.021329 -0.057488 0.014950 0.087258 -0.025645 0.001435 0.031072 -0.105185 0.040281 -0.030156 -0.011441 -0.013303 0.009776 -0.095592 0.116006 0.019625 -0.014473 -0.016180 -0.007202 -0.004284 -0.034322 0.015360 0.050881 0.008484 -0.026957 0.083352 0.029025 0.038483 -0.002363 0.120274 -0.018371 0.029070 0.066944 -0.045687 0.159479 -0.062987 -0.071357 0.005583 0.010240 0.004710 0.007421 -0.132612 -0.097565 -0.011463 0.136924 -0.024458 -0.086308 -0.036573 -0.042505 0.071050 0.009624 0.010070 0.020042 -0.142333 0.017847 0.055398 -0.042979 0.078847 0.019185 0.033998 0.060836 -0.022342 -0.020093 -0.095907 -0.002381 -0.034008 -0.004479 0.010573 0.121078 0.020959 -0.048816 -0.126431 -0.057230 0.070679 -0.023896 -0.034484 0.051756 0.032404 0.106170 -0.093255 -0.013553 0.014284 -0.127237 -0.012347 0.033997 0.033138 0.036653 -0.009064 -0.025241 -0.005656 -0.001455 0.057587 -0.017207 -0.014197 -0.184305 0.013835 -0.039095 0.037849 -0.007967 -0.038954 0.036923 -0.024435 -0.029274 0.037417 -0.043532 0.049637 -0.007075 -0.006436 -0.002878 0.034083 -0.005960 -0.037183 -0.036699 -0.025731 -0.052784 -0.021799 -0.011882 0.021118 0.007597 -0.028588 0.058087 0.003898 0.002406 0.021788 -0.017693 -0.048385 -0.003561 0.023315 -0.002248 -0.025892 -0.034975 -0.024474 -0.000534 0.013675 0.022469 -0.015557 0.051706 -0.047036 0.064336 0.045012 -0.012248 0.019776 -0.035339 0.026697 0.036686 -0.058459 0.042089 -0.082897 0.008672 0.002174 0.047364 -0.034380 -0.074757 0.005600 -0.114152 -0.010969 -0.036624 0.030755 -0.035748 -0.018224 -0.031672 0.009477 -0.034029 -0.001958 -0.063474 -0.007781 0.101410 -0.019884 -0.000374 -0.047961 0.010979 0.011020 -0.004610 0.014722 -0.032625 -0.015875 -0.021740 0.068916 0.019814 0.009622 -0.031474 0.002954 0.071284 -0.035405 0.036389 0.030398 -0.088822 -0.027818 0.043669 0.028219 0.103172 -0.024331 -0.002674 0.006352 -0.012277 0.002391 -0.009554 -0.020631 -0.019167 0.003234 -0.026100 0.042733 -0.005125 -0.008871 -0.016996 -0.035442 -0.055409 -0.006623 0.043078 -0.014067 -0.116537 0.051362 -0.036313 -0.051959 0.011479 -0.041398 -0.030494 -0.020611 -0.008293 0.051950 0.055660 0.013053 0.008848 0.062182 -0.046572 0.018385 -0.069792 -0.071324 0.068431 0.023702 -0.031341 0.044347 -0.004614 0.002215 0.010972 -0.023354 0.009192 -0.029246 -0.043728 -0.060427 0.018313 -0.003642 0.038573 -0.009626 0.012463 0.001818 -0.035913 -0.019331 -0.024682 -0.012352 0.038169 0.002866 -0.016678 -0.056060 -0.009373 -0.010713 -0.014970 0.065837 -0.000673 -0.043226 0.080772 0.043129 0.028073 -0.034995 -0.050903 -0.011620 -0.103228 0.032022 0.038340 0.032455 0.016966 -0.068765 0.035625 0.035302 -0.014445 0.100124 -0.065578 -0.045146 0.046566 0.066712 -0.000008 0.000983 -0.016832 0.009378 -0.021917 -0.008782 0.001013 0.081655 -0.012866 -0.009464 -0.014507 0.031559 0.084111 0.004401 -0.048307 0.038915 -0.078564 -0.075382 -0.088728 -0.018619 0.025358 0.045460 0.077089 0.002543 0.022131 0.037985 -0.018662 0.048603 -0.024919 0.001377 0.008056 -0.030037 0.000410 -0.037200 0.027203 -0.007601 -0.053018 0.049223 -0.067074 -0.013714 -0.113285 -0.027248 -0.012786 0.004152 -0.016932 -0.026109 -0.067988 -0.039635 0.004092 -0.003688 0.020915 -0.013320 0.047433 -0.037834 -0.024027 -0.043542 0.055263 -0.042812 0.033780 0.051307 -0.007300 -0.010482 0.025009 -0.007692 -0.005288 -0.035358 0.002461 0.025109 0.012906 -0.062962 0.023149 -0.003154 -0.015249 -0.002584 -0.016621 -0.100366 0.009993 -0.040942 -0.053288 0.022925 -0.012367 0.026137 -0.044033 0.072686 0.012703 0.016955 -0.033717 -0.106853 -0.007292 0.000048 -0.017220 -0.016657 -0.017156 0.008998 -0.076213 -0.014412 0.001638 -0.000888 -0.052116 0.006050 0.008018 0.036457 -0.058334 0.013558 -0.023103 -0.018036 0.011615 0.004426 0.017075 -0.014911 0.016884 -0.020097 0.041166 -0.038825 0.016109 -0.049378 -0.053577 -0.044575 -0.009439 -0.010558 0.005951 -0.043364 0.037662 -0.026139 -0.045230 -0.068997 0.040157 -0.000556 -0.058295 -0.025154 0.006052 -0.000804 -0.066244 -0.066866 0.001709 -0.036762 0.007157 0.029448 0.002985 -0.000662 0.005956 -0.051668 -0.033420 -0.076766 0.000988 -0.065036 0.066431 -0.022128 0.003789 -0.033179 -0.003829 -0.021840 -0.050032 0.040171 -0.085485 -0.019263 0.004956 0.001658 0.028851 -0.020416 0.003564 -0.025861 0.017824 0.016340 0.039810 0.015068 -0.008154 0.012366 0.004975 0.006589 -0.048742 -0.001283 0.009470 -0.049378 -0.007940 -0.039273 0.005882 -0.000116 0.005577 0.004033 -0.010307 -0.057720 -0.052839 -0.012380 0.014651 -0.064100 0.073469 0.000752 0.010963 -0.009856 0.028034 0.007888 0.012418 0.011000 0.025586 0.008315 0.050348 -0.049990 0.053140 0.018735 0.026337 -0.047133 0.028388 0.030538 0.016300 0.031019 -0.003250 -0.013726 0.019021 0.021892 -0.048371 0.058231 0.007352 0.062053 -0.012379 0.071448 0.009892 -0.040029 -0.030283 0.008463 0.018873 0.009629 0.013883 -0.013861 0.015213 -0.007511 -0.029370 0.024908 -0.001956 0.039626 -0.029214 0.019395 0.003684 0.006745 0.154885 -0.065162 -0.006832 -0.025770 -0.020341 0.026439 0.005043 -0.110784 -0.086085 0.013689 0.018080 -0.092659 -0.028093 0.004910 -0.012001 -0.006882 -0.050243 -0.008617 -0.017270 -0.005738 -0.023246 0.020864 0.034567 -0.009875 -0.041679 -0.017748 -0.063048 -0.106980 0.036379 -0.036854 0.056185 -0.037630 -0.100848 -0.013685 0.022641 -0.059303 -0.027517 0.067702 -0.024192 0.032381 0.007683 0.020199 -0.052673 -0.007523 0.071080 0.003018 0.020524 -0.028572 -0.082172 -0.028529 -0.005342 -0.009401 0.014603 0.004355 0.005072 -0.017838 -0.006728 -0.010305 -0.014826 0.052110 -0.140014 -0.013416 -0.019422 -0.051772 0.021380 -0.017228 -0.004728 -0.003529 -0.033879 0.031647 -0.003742 -0.015868 -0.011627 0.058091 -0.069772 0.000957 -0.006859 0.036292 -0.024283 0.037931 -0.021413 -0.004924 -0.007383 0.010429 -0.039195 -0.018479 -0.084807 -0.002368 -0.004337 0.003976 0.075489 -0.023013 0.018776 0.017433 -0.078864 0.005375 -0.001508 0.023663 0.035331 0.047446 0.010046 -0.014665 -0.048125 0.057091 0.038315 -0.001201 -0.009321 -0.010251 -0.025969 0.033892 -0.043255 0.020617 0.038793 -0.031615 -0.029893 -0.053602 0.000355 -0.029098 -0.008517 0.028557 -0.029703 0.018530 -0.003465 -0.062645 -0.024419 -0.043154 0.029156 0.000343 0.010758 0.032461 0.018244 -0.017236 0.016162 -0.003147 -0.008897 -0.039512 -0.035350 -0.064037 -0.013006 -0.048908 -0.007180 0.006028 -0.037476 -0.022176 -0.021185 0.000093 0.020589 -0.015533 0.049325 -0.006493 -0.014968 -0.062972 -0.018937 -0.049808 -0.028777 0.030571 -0.038929 -0.000300 -0.101125 0.004619 0.003718 -0.042360 0.018695 -0.045682 0.016569 -0.047321 -0.026806 0.024619 -0.005438 0.047067 -0.063873 -0.007934 -0.023213 -0.031550 0.010482 -0.043171 0.007675 0.020006 -0.045655 0.058854 -0.049433 0.017040 0.014639 -0.030563 0.021608 -0.000302 -0.007880 0.010075 -0.011245 -0.032846 -0.008618 0.008092 0.037209 -0.023308 -0.024777 0.015483 0.028602 -0.075611 -0.001740 0.028026 0.031470 0.004031 0.002991 0.006965 -0.045160 -0.030081 0.035405 0.010833 -0.003521 -0.015590 0.066077 -0.044255 -0.045748 0.037445 -0.036347 0.018258 0.041083 0.066019 -0.055236 -0.052097 0.015626 -0.051153 0.047351 -0.054642 0.011995 -0.029458 -0.027461 0.005416 -0.077877 -0.006046 0.032926 0.052460 -0.003029 -0.017835 0.017572 -0.025475 -0.010392 -0.058741 -0.032445 -0.008889 0.033062 -0.059607 0.000309 -0.026074 0.070483 0.003304 -0.032194 -0.018636 -0.014464 0.037621 0.010021 -0.013546 0.049218 -0.025421 0.034041 -0.000005 -0.003727 -0.039774 -0.000701 -0.003632 -0.040053 -0.043611 0.048988 0.032784 0.049427 0.008382 0.022064 0.028938 0.025500 0.043932 0.035498 -0.070185 0.015738 0.005316 0.012727 0.004632 -0.016267 -0.036653 -0.040751 0.022723 0.024058 0.014133 -0.025836 0.058178 -0.069870 0.019074 -0.166960 0.003998 0.014843 -0.020392 -0.025888 0.018614 -0.004199 -0.002657 -0.016524 0.026673 -0.069100 0.006603 -0.065706 -0.063481 0.014359 -0.006772 0.004757 -0.020265 0.057906 -0.052419 -0.056688 0.015979 0.000349 -0.020182 0.029514 0.037898 0.002237 0.012279 -0.012000 0.003207 0.034006 -0.027956 0.008806 0.001728 -0.067695 -0.122241 -0.006095 -0.024117 -0.057818 0.006631 0.016987 -0.017627 -0.047028 0.047460 -0.024168 0.019594 0.015537 -0.040210 -0.052499 -0.004989 -0.023853 -0.012819 0.026576 -0.034403 0.001465 -0.008962 -0.034438 0.030587 0.029175 0.029102 -0.015871 0.075448 0.022252 0.017336 0.020073 0.007262 -0.032097 -0.026560 0.048105 -0.002481 -0.046907 -0.011348 0.015765 -0.006358 -0.024693 -0.019467 -0.013918 0.010646 -0.002299 -0.014189 -0.036252 0.015756 -0.000665 0.006157 0.037382 -0.056921 0.011554 0.021787 0.035190 0.017286 -0.051418 0.021406 -0.021868 0.005504 -0.050898 0.002496 0.039438 -0.076865 0.002943 0.019624 0.002885 0.026202 0.028117 -0.053734 0.015605 0.008623 0.026577 0.059277 0.016343 -0.001625 0.028766 -0.046235 -0.061938 0.006205 -0.035977 0.057333 -0.028525 -0.015272 0.076818 -0.008858 -0.007511 -0.066805 -0.006498 0.026148 -0.050705 0.027503 0.016948 0.007572 0.035237 -0.019853 0.012988 -0.012174 0.116601 0.015719 0.022124 0.022642 -0.060879 0.037457 -0.012338 0.017139 -0.011239 -0.015007 0.027774 0.021479 -0.000423 -0.017263 0.009401 0.013095 -0.035839 0.068095 -0.052771 0.028092 0.000991 -0.049095 0.051227 0.011153 0.004561 0.004448 -0.008104 -0.051018 0.018262 -0.048237 0.014672 -0.012499 -0.006298 -0.047887 -0.030575 -0.036150 -0.070497 -0.073374 -0.006387 0.008553 0.047827 0.028251 0.035701 -0.008910 -0.008208 -0.037501 0.014537 -0.068833 0.007058 -0.008779 0.003653 -0.069792 0.142711 -0.019656 0.068616 -0.012857 0.036016 0.028376 0.050445 -0.016218 -0.044989 -0.031305 -0.021064 0.030107 0.009962 0.025388 -0.029493 0.023037 -0.022969 -0.028265 -0.003809 -0.041767 0.015203 0.049140 0.058628 0.024910 0.070030 -0.042209 0.030605 0.051184 0.043648 0.079790 -0.038787 0.032413 -0.094663 0.021407 0.017151 -0.111163 -0.017207 -0.028776 -0.016095 0.071646 -0.015503 0.003820 -0.009448 -0.005279 -0.028995 0.007415 0.032994 -0.022157 0.002228 -0.015897 0.008419 -0.076306 0.009426 -0.044734 -0.018771 -0.033314 0.035871 0.000031 0.002628 -0.000569 -0.048774 -0.055266 -0.070584 -0.097285 -0.050488 0.051732 -0.040945 -0.049172 -0.014099 -0.012577 0.009672 0.005712 0.045259 0.004178 -0.041532 -0.082894 -0.001099 0.005545 -0.063307 0.036476 -0.021134 -0.013018 -0.010141 -0.041355 0.027709 0.012102 0.021643 0.025718 -0.049321 -0.117846 0.011921 0.043121 0.000575 0.025281 0.055312 0.024230 -0.024805 0.003848 0.002221 0.034005 0.055037 0.017336 -0.019445 -0.034951 -0.062176 -0.064464 -0.005752 0.004122 -0.045918 -0.020608 -0.057604 -0.004092 0.031262 -0.024241 -0.107535 -0.003766 -0.074134 -0.005399 -0.042341 0.011047 -0.003389 0.036717 -0.012824 -0.050443 0.041396 -0.003568 -0.023040 0.005176 0.025844 -0.013974 0.017525 0.014237 -0.048765 0.007994 -0.022620 -0.056221 0.003854 -0.009109 0.019298 -0.019922 0.014806 -0.000804 -0.038609 0.037154 0.043316 0.002356 -0.026026 -0.006267 -0.012379 0.033089 0.014732 -0.036735 0.023516 -0.064892 -0.011969 0.050609 0.013434 -0.105316 -0.001808 -0.011368 0.016465 0.019669 0.049934 0.009667 -0.007831 0.003549 -0.012687 0.012981 0.004244 -0.001124 0.025694 0.030675 -0.051142 0.024900 -0.016682 0.045961 0.010965 0.051035 0.004099 -0.005409 -0.020398 -0.009645 0.053809 0.001543 -0.031676 -0.003176 -0.025840 0.046690 -0.019968 0.007150 -0.007670 0.046270 -0.030310 0.013182 0.003685 0.009097 0.047965 -0.004453 0.005301 -0.048723 0.023500 0.014146 0.011525 -0.000796 0.053479 0.017683 0.005994 0.044984 0.058480 -0.019415 0.000437 0.049061 0.005601 0.006472 0.027394 0.050694 0.013845 0.011220 -0.020280 -0.041060 0.026879 0.007257 -0.015079 0.033941 -0.036339 -0.021052 0.015950 -0.055478 -0.057213 0.013828 0.007261 -0.037754 -0.042138 -0.053536 -0.007076 0.024660 -0.015777 -0.027061 -0.030116 -0.054940 0.007738 -0.003243 0.003626 -0.001236 -0.041068 -0.039472 -0.039875 -0.067895 0.015039 0.031324 0.026506 -0.031594 -0.027308 -0.017400 0.039680 -0.000845 0.016460 -0.031917 0.023463 0.008151 0.003261 -0.008998 -0.016981 -0.022166 -0.000484 0.021297 -0.025421 0.000140 0.016940 -0.001669 -0.005475 -0.063206 0.026988 -0.040537 0.010161 -0.002330 0.012659 -0.026329 0.048405 -0.016280 0.026805 0.011651 0.011360 -0.009561 -0.022932 -0.000589 0.078064 -0.023196 0.015870 0.019859 0.031486 -0.025270 0.002233 -0.042643 -0.012688 0.022846 -0.014603 -0.012639 0.049993 0.017026 -0.007418 0.047037 -0.046976 0.059807 -0.034393 0.009324 -0.013523 0.225643 0.056078 -0.025786 0.005926 -0.075741 -0.011296 0.066372 0.053412 -0.055085 0.056466 -0.034724 0.089728 -0.017184 0.072879 -0.015131 0.002654 0.016234 0.038166 0.011910 -0.048126 -0.059114 0.018000 0.054888 0.011338 -0.074634 -0.048509 -0.070764 0.030436 0.019945 -0.005221 -0.001191 -0.051375 -0.078240 -0.001945 0.037319 0.021780 0.089764 -0.043171 -0.016261 -0.012288 -0.000628 -0.051299 0.009610 0.060092 0.068868 0.010498 -0.051219 -0.040019 0.022814 -0.031756 -0.001045 -0.004047 0.085066 -0.022018 -0.078561 -0.004155 0.045724 0.000673 -0.006783 -0.001189 0.007100 0.014534 0.020241 -0.060144 0.028542 0.018384 0.006008 0.025602 -0.006920 -0.038368 -0.002353 0.017302 0.046444 -0.005807 -0.058743 0.045387 0.035324 0.018717 -0.104008 0.033234 -0.047715 -0.001743 -0.026292 0.006892 0.006224 0.004001 -0.025204 -0.008595 -0.067215 0.000754 0.051236 -0.002502 -0.065026 0.002146 -0.036362 0.011066 -0.028770 0.061835 0.057347 -0.000788 -0.004636 0.006770 -0.006617 0.049822 0.004158 -0.028665 -0.040105 -0.026398 -0.005181 0.020581 -0.091741 -0.035870 0.024401 -0.026251 -0.002786 0.032778 -0.027751 -0.009482 -0.028155 0.028138 0.022361 0.073421 -0.010234 -0.017309 0.005981 0.047687 0.024820 0.006559 -0.017865 0.064730 -0.065481 0.017129 -0.019314 -0.004532 -0.075073 -0.011593 0.007615 0.126519 -0.007735 -0.009095 -0.000720 -0.032784 -0.003376 0.026338 0.001795 0.031374 -0.034256 -0.059488 -0.048287 -0.046066 -0.070799 0.003357 0.017729 0.050345 0.023180 -0.055594 -0.036323 -0.066405 -0.041732 0.007773 0.038989 -0.004218 0.012466 -0.060907 0.003406 -0.036443 0.001295 0.018692 0.002149 -0.005264 -0.025731 -0.026598 0.028533 -0.014327 -0.275998 0.016164 -0.033396 -0.051355 -0.059193 0.004059 0.026512 0.009098 -0.010092 -0.029102 -0.008324 0.028881 0.029711 0.077692 0.002835 0.007929 -0.010365 -0.022782 -0.031978 -0.055222 -0.035626 0.022562 -0.012570 0.008599 0.021492 0.051143 0.046148 -0.003038 -0.096895 0.003426 -0.079719 0.032416 0.014426 -0.069984 0.003626 -0.007188 0.014532 -0.039367 0.015905 0.004524 0.018478 -0.000402 -0.077552 0.068705 -0.027485 0.009844 0.003376 0.001159 -0.011198 -0.095944 -0.011289 -0.014788 -0.026587 -0.004892 -0.050429 0.001312 -0.008402 0.012062 0.014902 0.004954 0.030547 -0.044596 0.007341 0.012012 -0.001930 0.017820 -0.055917 -0.003499 -0.019849 
GREAT 0.055599 0.002578 0.005807 -0.006016 -0.106931 -0.056066 0.023828 0.003147 -0.093703 -0.005429 -0.033288 0.009250 -0.016614 -0.029431 0.043438 0.007994 0.041280 0.009614 0.004833 -0.068452 -0.014923 0.002465 0.032872 -0.045497 0.010359 -0.025350 -0.043620 0.018425 0.029070 0.038051 0.055069 0.039704 0.008573 0.035630 0.048698 -0.021807 -0.107903 -0.079628 0.045159 0.012249 -0.024388 0.016870 0.041799 0.009432 0.001767 -0.013406 -0.045682 0.014438 0.024581 0.001125 -0.016938 -0.066152 0.079204 -0.014688 -0.071844 0.009905 -0.084852 0.000463 -0.033335 0.052645 -0.015727 -0.012112 0.020017 -0.088972 0.011633 -0.002577 0.015284 -0.004186 -0.008740 0.040128 -0.034793 -0.085845 0.046631 -0.060958 0.045740 0.005253 -0.043598 -0.043810 0.020205 -0.112582 0.070041 0.063110 0.034280 -0.042736 0.024023 -0.039240 -0.092823 0.007042 0.029016 -0.013354 -0.012391 0.059220 0.048900 0.035606 0.047087 0.032754 -0.002867 0.026344 0.013233 -0.042586 0.120994 -0.008814 0.003461 0.011296 -0.011126 -0.068125 0.011299 -0.048513 -0.030746 0.015374 0.100006 0.018714 -0.053016 -0.043194 -0.019168 0.038638 0.021018 -0.007709 -0.011559 -0.009791 0.031963 0.051831 -0.143509 0.016155 -0.008319 -0.005158 -0.016169 -0.012120 -0.097442 -0.176454 -0.032281 -0.065941 0.034922 0.000636 0.075980 0.011675 -0.003113 -0.124050 -0.024647 0.012748 0.035548 -0.001556 0.054956 -0.008735 0.074503 -0.080203 -0.013140 -0.072472 -0.140274 -0.004799 -0.001290 0.000477 0.003054 -0.094654 -0.034151 -0.006328 -0.013736 0.000797 -0.023240 0.020780 -0.145173 -0.061926 0.021110 0.023847 0.003206 -0.055894 -0.039701 0.017641 -0.118384 0.019129 0.014378 0.025412 -0.003017 -0.061581 0.021419 0.007705 0.032030 0.060790 -0.046152 -0.072239 -0.065430 0.006935 0.018930 -0.099549 -0.098805 0.014249 0.019525 0.063950 -0.059997 0.003367 -0.051940 0.039769 -0.027513 0.040890 -0.065513 -0.035098 -0.041415 0.005933 0.028771 -0.003957 0.011822 -0.024078 0.035375 0.003688 0.024233 -0.002727 -0.009938 -0.031441 -0.092413 0.055187 0.018574 -0.001939 0.010994 -0.062423 -0.004648 0.015132 0.054046 -0.011140 -0.015644 0.015871 -0.016713 0.003368 0.004561 0.031188 -0.072024 0.004345 -0.018286 0.014520 -0.068618 0.020516 -0.022205 -0.022338 0.053396 0.039394 -0.024178 0.034985 0.018254 -0.051977 -0.030818 -0.098330 -0.063809 0.004770 -0.045899 0.019596 0.042151 0.034565 -0.017831 0.007805 0.009343 -0.061693 -0.030350 0.036070 -0.078685 -0.031650 -0.070804 0.047919 -0.068659 0.011022 -0.028664 0.077943 -0.064859 -0.016163 -0.085841 -0.014417 -0.046925 -0.071297 -0.009703 0.039670 0.047165 -0.028285 -0.015675 -0.064966 -0.025254 -0.062698 0.010544 -0.055409 -0.079521 0.009399 -0.016385 -0.010393 0.071532 0.008319 -0.007060 0.016202 -0.026962 0.023786 0.010232 0.008098 0.024592 0.043623 -0.078458 -0.038182 -0.007294 -0.034166 0.066529 -0.000127 -0.007359 -0.012826 0.011381 0.017611 -0.005850 0.041523 -0.087955 -0.010329 -0.026030 -0.125233 -0.007906 -0.034107 -0.008025 0.017903 0.008802 -0.029301 -0.010492 -0.002838 -0.032389 0.013604 0.063987 -0.001952 -0.035107 -0.071692 -0.061841 0.012446 0.001805 0.048387 -0.022803 -0.016078 -0.045982 0.018800 0.019704 -0.089913 -0.089333 0.049498 0.012153 0.050540 0.024107 0.002434 -0.052595 0.027970 0.020237 0.005907 -0.011500 0.072645 -0.097902 -0.037218 0.021691 0.004609 -0.002517 -0.118705 -0.091788 -0.053831 -0.029479 -0.006425 -0.021313 0.058549 -0.059550 -0.028046 -0.015268 -0.024181 0.077739 -0.006177 -0.048413 -0.029299 -0.130423 0.025769 -0.039668 -0.113213 0.010223 0.039565 0.049485 0.002238 0.043523 0.032769 -0.068998 -0.002421 -0.105221 -0.021766 -0.010954 -0.053485 0.020365 -0.017187 0.031823 0.040054 0.004620 0.026573 0.022129 -0.077406 -0.044079 -0.069915 -0.030459 -0.024170 0.007635 0.023117 0.033299 0.024940 0.027848 0.001747 0.000060 -0.018320 -0.016627 -0.038718 -0.106529 0.000260 0.026412 -0.012544 0.000452 -0.026931 0.015656 0.010448 -0.014764 0.023296 -0.052921 0.012192 0.024889 -0.004977 0.013948 0.017750 0.033637 0.003446 -0.053856 0.037166 -0.030043 -0.062308 -0.015035 -0.046166 0.017596 -0.028082 -0.023346 0.043292 -0.014723 0.031340 -0.067117 0.000651 -0.059416 -0.062096 -0.082010 0.020573 -0.022957 -0.119449 -0.042476 -0.045223 -0.005054 -0.037502 0.053047 -0.032765 -0.071708 -0.093764 -0.030266 0.004687 -0.002272 0.073269 -0.007980 0.083116 0.013003 -0.004498 0.000596 0.034739 -0.090052 0.001769 0.038183 0.016018 -0.001455 -0.029092 -0.014189 0.002938 0.024689 0.042364 0.025469 0.007257 0.009305 -0.048928 -0.018174 0.005041 0.016517 -0.045240 -0.005708 -0.011464 -0.002630 0.003632 -0.008283 0.001822 -0.006428 -0.025580 0.000554 -0.045102 0.008762 0.112218 -0.007838 0.014486 -0.057541 -0.069412 0.011657 -0.079317 0.014158 -0.032473 -0.015596 -0.000246 0.026675 0.008385 -0.036707 0.022000 -0.042561 -0.010200 -0.035929 -0.008613 0.008691 -0.026326 -0.009174 -0.037649 0.008903 0.019708 0.042936 -0.093325 -0.086960 -0.061678 -0.018324 0.013685 -0.009521 -0.004867 -0.023641 -0.045679 -0.038853 -0.001820 -0.025118 0.008520 0.023125 -0.005781 0.013391 0.003001 0.011038 -0.016343 0.018143 -0.075610 0.048111 0.002103 -0.030944 0.024995 0.006204 -0.067278 -0.011256 0.007763 0.030314 0.005297 0.030716 -0.027134 0.003371 0.012213 0.007623 -0.065515 0.029765 0.021424 -0.057348 0.007934 -0.053122 -0.000913 0.023740 0.010265 -0.057528 0.003514 0.019391 0.046594 0.017501 0.017729 0.021256 0.023770 -0.064270 -0.002919 -0.002798 -0.008332 0.003125 -0.035188 0.003613 -0.036301 0.018461 -0.022703 0.005931 -0.036488 -0.005869 -0.005903 -0.053311 -0.070860 0.111292 -0.077642 -0.011686 -0.090460 -0.091673 0.008361 0.045629 -0.090621 -0.062104 0.018773 -0.062046 -0.091752 0.015947 -0.019629 -0.033083 -0.007666 0.008142 -0.006724 0.007702 -0.011414 0.000752 0.008897 0.033763 -0.024602 -0.013993 -0.013829 -0.106983 -0.026812 0.012447 -0.056047 -0.020222 -0.003458 -0.066368 0.032127 0.019205 -0.103246 -0.034578 0.041959 -0.068001 0.011102 -0.015212 0.028763 -0.012652 0.000846 0.045384 0.003154 0.003944 -0.014949 -0.016251 -0.000035 -0.000680 0.007640 0.010871 -0.003437 -0.002691 -0.009640 -0.046245 -0.034189 -0.041795 0.026616 -0.118274 -0.003177 0.011174 0.008755 0.009399 -0.005240 -0.029853 -0.081100 0.003668 0.008840 -0.003710 0.008289 0.000135 -0.001204 -0.014258 -0.024990 -0.011435 0.005303 -0.069488 -0.025014 0.019426 -0.010521 -0.064586 -0.026365 -0.013415 -0.035220 -0.057239 0.034754 -0.023423 -0.053368 0.052472 0.010351 0.015698 -0.016867 -0.000972 0.031848 -0.004378 0.011973 0.030855 0.041457 -0.010630 0.001118 0.001878 0.042752 0.024044 -0.042731 0.006931 0.018579 -0.072708 0.021874 -0.011048 0.002980 0.019518 -0.024309 0.014944 -0.060676 0.008444 0.011747 -0.007313 -0.043595 -0.051926 0.027623 -0.007848 -0.083939 0.024295 0.010544 0.008152 -0.025194 0.022276 0.012211 -0.067688 0.015470 -0.056624 -0.001369 -0.011976 -0.025086 0.011853 0.020833 0.029967 -0.004223 0.029647 0.038277 -0.005829 -0.005547 0.004962 -0.001252 0.017584 0.006306 0.025739 -0.000808 -0.001061 0.003514 -0.019599 -0.015979 0.030410 0.040354 -0.000928 -0.017211 -0.106121 0.013093 -0.084574 0.007617 -0.040283 -0.025073 -0.020322 0.008010 -0.064571 0.019241 0.004808 0.008919 0.006088 0.006564 0.063596 0.008605 0.007613 -0.017257 0.002601 -0.003989 -0.009232 0.041294 -0.021369 -0.017609 -0.061514 0.023652 0.033153 0.010577 -0.048772 0.013642 -0.018412 -0.013978 -0.010662 -0.003413 0.005776 -0.072843 -0.047574 0.003846 -0.003645 -0.039059 -0.004098 0.022536 -0.035835 -0.006631 -0.002455 0.079310 -0.013792 -0.015449 -0.048407 -0.013862 0.003770 -0.018930 0.046040 -0.050982 -0.026198 0.013166 -0.043712 0.024168 0.010218 0.041146 -0.086780 -0.088194 0.031427 -0.022547 0.037601 -0.047054 0.028543 -0.071399 0.028183 0.007664 -0.072882 0.015714 0.007544 -0.040072 -0.010604 -0.028377 0.023460 -0.018547 0.049969 -0.047704 -0.055626 -0.042890 0.016747 -0.002540 -0.106745 -0.048695 0.047678 0.018230 -0.067806 0.050882 0.003710 0.019393 0.007865 0.008992 0.023919 -0.074748 -0.092133 -0.004594 0.046194 -0.014935 -0.026007 -0.050542 -0.071443 0.005603 0.021990 -0.003813 0.022652 -0.012756 -0.005070 0.020225 0.028336 0.013129 0.024659 -0.011671 0.007600 -0.002518 0.026853 -0.004649 0.003573 0.031433 0.012793 -0.006683 -0.020184 -0.102744 0.014484 0.050675 -0.074716 0.006927 -0.133399 -0.009804 0.007372 0.021229 -0.038052 0.011787 -0.090254 -0.049743 -0.009917 -0.009880 0.020456 -0.000165 -0.067120 -0.033367 -0.004459 -0.036278 0.020691 -0.016886 0.042223 0.023958 -0.032517 0.048840 0.006162 0.001900 0.003811 -0.038718 -0.010287 0.042963 0.029571 -0.012197 0.024189 -0.005461 -0.073535 -0.022335 0.003910 -0.081340 0.008290 -0.046905 -0.085183 -0.008538 0.004899 0.024007 -0.026342 -0.015704 0.002098 0.004523 -0.013392 -0.003281 0.007646 0.008341 0.022183 0.007241 0.007513 -0.060662 0.030281 -0.027786 -0.002360 0.041761 0.020971 -0.017795 0.031901 0.050087 0.004257 -0.000216 0.007169 0.018957 0.020939 -0.046284 -0.042288 -0.053039 -0.032944 -0.036684 0.013451 -0.054192 -0.003965 0.003705 0.001033 0.000447 -0.025070 -0.050787 -0.008688 0.018985 -0.073620 0.011297 -0.008574 0.003687 -0.005096 -0.002663 0.017227 0.012071 -0.011200 0.010977 -0.025680 0.004216 -0.044071 0.020408 0.024676 -0.031347 -0.019080 0.016345 -0.060503 -0.031923 0.028039 -0.015749 -0.041747 0.033287 0.014960 0.019566 -0.013890 -0.054850 0.035222 -0.039992 0.006046 -0.040369 -0.031621 -0.046923 -0.003956 -0.050082 0.035332 0.042346 -0.105006 0.003928 -0.017021 -0.035150 0.022373 0.024606 0.027190 -0.000132 0.048949 0.022087 0.009350 -0.045891 0.066475 0.022947 0.011352 -0.009096 -0.093400 0.023411 -0.004687 -0.004780 0.014882 0.005722 0.005382 -0.009739 0.033708 -0.004838 -0.001838 0.017679 -0.002258 0.045814 -0.078082 0.029572 0.040311 -0.059842 0.018918 0.009018 0.011308 -0.005824 -0.031761 -0.059499 0.022420 -0.048609 0.006783 -0.018159 0.078240 0.012387 -0.083527 -0.070618 -0.024570 -0.020741 -0.007135 -0.020259 0.019465 0.034603 -0.007810 -0.042889 -0.088921 -0.019043 0.021496 -0.051201 0.068181 0.041321 -0.025410 -0.029560 0.039615 -0.071404 0.073215 0.015904 0.001250 0.000201 -0.050163 0.007979 -0.001777 0.007244 0.033023 0.009894 -0.076165 0.031337 0.030428 0.001411 -0.088280 -0.001201 0.002008 0.015057 0.006146 -0.010021 0.046190 -0.017614 0.055650 -0.096663 -0.028126 -0.027508 0.025394 0.050295 -0.047041 -0.053889 -0.048890 -0.007860 -0.081514 -0.036205 0.017242 -0.016954 -0.094119 0.013384 0.000796 -0.004742 -0.000666 -0.028652 -0.013490 0.017977 0.020335 -0.011670 0.030389 0.001227 -0.024771 -0.093280 0.044421 -0.083186 0.029099 -0.044622 0.017108 -0.018096 -0.010712 0.019685 -0.011090 0.029674 -0.006604 -0.006530 -0.082804 0.060272 -0.047573 -0.041333 -0.079461 -0.064286 0.019835 0.011535 0.026268 -0.055356 0.027879 -0.059074 0.019134 0.030186 0.018738 0.024485 -0.038713 0.018197 0.054149 -0.034142 0.016990 -0.040897 0.022080 -0.023696 -0.009656 -0.091522 0.016217 0.048468 -0.045866 -0.001925 -0.038264 -0.006551 -0.025095 -0.074741 -0.013582 0.043381 0.011410 -0.074884 0.023525 0.001037 -0.010478 -0.001838 -0.044246 0.009941 -0.030709 -0.066658 -0.115742 -0.053452 0.007629 0.026804 -0.088153 -0.069068 0.001806 0.067900 -0.028568 0.019684 0.014050 0.037006 -0.026771 0.022764 0.045090 0.007854 -0.038942 -0.092986 0.018235 -0.028088 -0.040438 -0.018624 0.017825 0.001247 0.015974 -0.020643 0.020271 -0.015346 -0.023772 -0.057689 0.023735 -0.041059 0.035346 0.042273 0.045027 -0.048868 -0.012575 -0.005535 -0.017732 0.035492 -0.011097 -0.008669 -0.014277 0.014180 0.005673 0.025530 0.002563 -0.081224 0.005640 0.038328 0.046715 -0.051840 0.006798 -0.011830 -0.037006 -0.063465 -0.092660 0.003471 0.019407 0.022496 0.022251 0.006355 -0.017922 0.016988 -0.002771 0.037346 0.020091 0.036543 -0.012511 -0.082814 -0.036943 -0.007739 0.043012 0.023999 0.011335 0.014624 -0.044659 0.016644 0.024012 0.007420 0.011132 0.009969 -0.081133 -0.009683 -0.004590 -0.009004 -0.019214 -0.036207 0.004420 -0.081478 -0.047551 0.039452 -0.044251 -0.025087 0.010596 -0.017271 -0.100003 0.016570 0.035135 0.004284 0.001928 0.034747 -0.017446 -0.023418 0.035649 0.022161 0.007670 -0.047820 -0.062048 -0.084686 0.053030 0.018805 -0.036116 0.008032 0.022986 -0.002083 -0.098113 -0.038139 -0.023026 0.034576 -0.001202 -0.013982 -0.012904 -0.080690 -0.015727 -0.019689 0.016015 -0.029341 -0.005863 -0.014923 -0.041858 -0.031871 0.041248 0.026938 -0.091906 0.001397 -0.024267 -0.023663 0.004081 0.023044 0.047075 0.003750 -0.005907 0.004490 0.041495 0.021191 -0.002988 -0.030372 -0.016941 -0.021419 0.048360 0.005815 -0.002419 0.022666 -0.076643 0.013361 -0.002271 0.004142 0.027810 -0.025570 0.001816 -0.041803 -0.002826 -0.005534 -0.055171 0.022999 -0.009736 0.026613 0.009374 0.015834 0.012705 0.000191 -0.019182 -0.030748 0.019246 -0.083094 0.044494 0.013050 0.011447 -0.021619 0.011898 -0.000173 0.002547 -0.012922 0.002591 0.004099 -0.013287 0.017632 -0.050452 0.009050 -0.014440 -0.034375 0.088329 -0.035826 -0.013797 -0.006638 0.007907 0.146112 0.013845 0.001468 0.000980 -0.074990 -0.027350 0.047295 0.041815 -0.084033 -0.019748 -0.020651 0.058295 -0.058328 0.017721 -0.018297 -0.014207 -0.037541 0.054099 0.032757 0.006024 -0.057952 -0.011043 0.027872 -0.006144 -0.068838 -0.065101 -0.108925 -0.023323 0.011970 -0.048874 0.058123 -0.057640 -0.030270 0.002957 0.018834 0.039131 0.028941 -0.017156 -0.057696 -0.096044 0.018916 -0.023918 0.044359 0.041192 -0.016846 0.001433 0.003396 -0.068138 -0.033925 0.008848 -0.007591 0.005867 0.052337 -0.061863 -0.096065 0.040503 0.032221 -0.020321 -0.086049 -0.028406 0.065214 0.017382 -0.015898 -0.106090 0.011398 -0.000283 0.011379 -0.030783 0.014676 0.028475 0.005633 0.008487 0.039317 -0.014828 -0.050180 0.021815 0.009191 -0.003871 -0.072639 0.004327 -0.065783 -0.020836 -0.003767 0.002140 -0.042530 0.009605 -0.018471 -0.002544 -0.060386 0.030235 0.023857 -0.059114 0.003661 0.023156 0.002802 0.011173 -0.030407 -0.060598 0.062376 0.043230 0.063078 0.014405 -0.006821 -0.009944 0.005169 -0.002013 -0.005123 -0.021265 -0.008199 0.026185 -0.128398 0.011857 0.019629 -0.001259 0.039784 0.013200 -0.030236 -0.018522 -0.065266 0.013025 0.016930 0.050515 -0.026193 0.010999 0.034638 0.001198 -0.091473 -0.056818 0.014110 0.041802 0.016232 -0.010997 -0.064848 -0.000062 -0.060765 -0.005362 0.034788 0.080403 -0.023828 -0.009428 0.002447 -0.028784 -0.014224 0.010112 0.009921 -0.007666 0.007775 -0.025886 -0.029338 0.010324 -0.061349 0.021614 0.027352 0.033064 0.006370 0.000703 0.011384 -0.000847 -0.074523 0.012571 0.007073 0.014528 -0.045327 -0.009457 -0.012430 -0.052128 -0.015335 0.004034 -0.065551 0.005050 0.002049 -0.013861 0.009550 0.001367 -0.185806 0.028058 -0.048668 0.012509 -0.028948 -0.078414 -0.009400 0.040532 0.038242 -0.065912 -0.029770 -0.003579 -0.023689 0.058273 -0.017504 -0.004561 0.028157 0.017984 -0.017215 -0.027460 -0.005050 0.006163 -0.020268 0.016507 -0.024222 0.060417 0.027301 -0.008003 -0.116292 -0.028339 -0.075788 0.010562 -0.010107 -0.009138 0.001016 -0.012119 0.019805 -0.009383 -0.017067 -0.000805 0.013424 -0.022809 -0.030534 0.079033 -0.009539 0.033078 0.038493 -0.017315 0.008968 -0.025978 -0.004467 0.028086 -0.071853 0.031924 0.005098 0.029205 -0.044427 -0.098088 0.035796 -0.019153 0.002780 -0.060415 0.030993 0.045980 -0.013344 0.019377 -0.069351 -0.045229 -0.057168 
HORRIBLE -0.023275 0.003091 -0.010349 0.025180 -0.081669 -0.005488 0.045527 -0.119834 -0.107743 0.046305 -0.002983 0.053627 -0.031719 -0.013036 0.056961 0.032461 -0.012563 -0.010016 -0.030053 -0.016808 -0.001907 0.043788 0.001883 0.005481 -0.007708 -0.070869 -0.034552 -0.046464 -0.016418 0.066700 0.022365 -0.010374 -0.028800 0.041465 0.087624 -0.035985 0.047273 -0.068724 0.024728 -0.067853 -0.019171 -0.011561 0.009863 -0.049750 0.062860 -0.008741 0.031598 0.018937 0.077467 -0.011123 -0.047909 -0.097773 0.021422 -0.003328 -0.013491 -0.051288 -0.034681 -0.004001 0.034514 0.118607 -0.009691 -0.005546 -0.008295 -0.060049 0.003360 -0.049746 0.028975 -0.018254 0.028111 0.092395 -0.007583 -0.018040 -0.017997 -0.032815 0.052546 -0.000161 -0.072944 0.001421 -0.017134 -0.123951 0.006476 0.014371 -0.046256 -0.014022 -0.001951 -0.022956 -0.056951 -0.019810 0.040774 0.014413 -0.017971 0.026655 0.001023 0.051648 -0.013091 0.131449 0.019610 0.021987 0.097016 -0.059223 0.093361 -0.082980 -0.056409 -0.030570 -0.006956 0.001556 -0.020470 -0.074816 -0.076054 -0.000449 0.148943 -0.009580 -0.067269 -0.037377 -0.024007 0.090169 0.002676 0.039158 -0.019869 -0.148370 0.008361 0.075933 -0.035969 0.095399 -0.029961 0.020083 0.009578 -0.055214 -0.043224 -0.152540 -0.062599 -0.034970 -0.012571 0.034101 0.013906 0.010545 -0.033562 -0.027218 -0.077397 0.007245 0.001411 -0.040539 0.002632 0.021727 0.072190 -0.084122 -0.016052 0.001938 -0.175778 -0.017493 0.041647 0.023202 0.024975 0.019015 -0.015971 -0.018668 0.009528 0.065961 -0.033485 0.012389 -0.138147 0.067181 -0.040086 0.022636 -0.024062 -0.013915 -0.030132 0.018455 -0.040399 0.017917 0.005860 0.034261 -0.033807 -0.005518 -0.043652 0.037044 -0.020328 -0.025383 -0.093788 -0.003173 -0.053667 -0.014856 -0.011661 0.052040 0.018727 -0.040381 0.062414 0.010479 -0.003693 0.038159 -0.024402 -0.043460 -0.063369 0.012234 -0.051828 0.042281 -0.002840 -0.011050 -0.012637 -0.045300 0.003056 -0.006174 0.021680 -0.032780 0.014455 0.052057 -0.032976 0.005301 -0.029590 -0.008805 0.060665 -0.040325 0.022113 -0.066772 0.022309 -0.019282 -0.011286 -0.042897 0.044407 -0.070488 -0.089973 -0.001980 -0.048565 0.030190 -0.003678 -0.069493 -0.037430 0.031779 -0.024820 -0.004218 -0.041962 -0.016704 0.102790 -0.048766 -0.041989 -0.058559 0.059803 -0.014945 0.005382 0.068277 -0.044324 -0.018340 -0.040377 0.067492 0.000747 0.004400 -0.023099 0.014839 0.075265 -0.000298 0.032934 0.037048 -0.098234 -0.006695 0.082811 0.017099 0.080336 -0.053858 0.002774 -0.004002 -0.029038 -0.007040 -0.002312 0.015810 -0.015167 -0.020774 -0.021941 0.003949 -0.014081 0.017835 -0.034253 0.005163 -0.025991 -0.019296 0.020749 -0.028683 -0.038220 0.002912 -0.001434 -0.027955 -0.018150 -0.081876 -0.068929 0.007484 0.024983 0.036918 0.033638 -0.019018 -0.040573 0.075086 0.002782 -0.005009 -0.060194 -0.039848 0.001790 -0.014343 0.036330 0.064005 0.005805 0.003699 0.079634 -0.008597 -0.012509 -0.012340 -0.007207 -0.021489 -0.026556 0.034964 0.070663 0.017310 0.013999 -0.002086 0.041954 -0.014676 -0.071057 -0.005733 -0.016602 0.006829 -0.000914 0.012638 -0.003734 -0.004495 -0.007012 0.095721 -0.022044 -0.020951 -0.037130 0.055367 0.021921 -0.013212 -0.051198 0.000576 -0.150763 0.000342 0.014578 0.024950 0.047037 0.031839 0.013878 -0.012961 -0.031794 0.099145 -0.008795 -0.004728 0.065300 0.062177 -0.032552 -0.013092 -0.037626 0.026338 -0.012258 -0.078789 -0.045648 0.119619 -0.027714 0.003971 -0.004860 -0.000461 0.013679 0.005269 -0.062861 0.039512 -0.057094 -0.043238 -0.107248 -0.007312 0.012174 0.077900 0.072568 -0.033496 0.014870 0.015133 -0.009750 0.058176 -0.005176 0.013610 0.022680 0.032351 0.004476 0.009575 0.029781 0.026988 -0.032832 0.053135 -0.071984 0.001965 -0.140296 -0.005810 -0.007218 0.035425 -0.010736 -0.010697 -0.027690 -0.028954 -0.059847 0.037906 0.020558 -0.030990 0.027347 -0.006932 -0.038234 -0.019426 0.096630 -0.039105 0.037610 -0.001355 -0.049779 0.008000 -0.013664 -0.004414 -0.003879 -0.021479 -0.011971 0.070937 0.011888 -0.070183 -0.016716 0.005888 -0.025958 0.003985 0.013340 -0.119678 -0.039762 -0.015774 -0.086495 -0.025872 0.029834 0.048707 -0.041882 0.090757 0.002659 -0.005292 -0.049429 -0.137752 -0.020046 0.001655 -0.008992 -0.056968 -0.010395 0.021120 -0.058637 -0.017610 0.006497 0.010472 -0.058683 -0.010320 -0.035869 0.064544 -0.048241 0.006829 -0.028535 0.003279 0.035671 0.005727 -0.043802 -0.021752 0.036807 0.008020 0.014731 -0.016466 0.018233 -0.005587 -0.025240 -0.035989 -0.024609 -0.035225 -0.027675 0.007911 0.066297 -0.054515 -0.025004 -0.040978 0.072390 -0.003693 -0.049553 -0.004051 0.021587 0.032817 -0.051632 -0.068600 -0.008490 -0.028996 0.013994 -0.008442 0.011228 0.000107 0.007283 -0.038197 -0.040794 -0.041332 -0.063641 0.001828 0.073436 -0.011671 0.028763 -0.015000 -0.024429 -0.028724 -0.071719 0.061762 -0.088192 -0.007922 0.003491 0.005818 0.031889 -0.031071 0.010820 -0.032584 0.027847 0.000843 0.009154 0.002871 -0.014347 -0.000463 0.023615 0.021742 -0.055145 0.007500 -0.004349 -0.025565 0.007199 -0.011534 0.019212 -0.005056 -0.013304 -0.016285 -0.042246 -0.064031 -0.059407 0.011061 0.012286 -0.042365 0.071868 -0.002252 0.003309 -0.047587 0.021705 -0.016493 -0.028690 0.036129 0.043312 0.020637 0.049773 -0.025131 0.002416 0.031820 0.024833 -0.055241 0.002065 0.046886 -0.003599 0.036702 -0.014041 0.024886 0.000200 -0.011717 -0.022000 0.073201 -0.002096 0.034516 -0.006096 0.079874 0.015236 -0.038060 -0.018230 0.006898 0.039733 0.019839 -0.018978 -0.010053 0.001082 -0.010249 -0.035592 0.017820 -0.001520 0.034938 -0.053997 0.016243 0.017143 0.006964 0.170216 -0.058297 -0.013902 -0.073613 -0.018397 0.016278 -0.004040 -0.092685 -0.028293 -0.010425 -0.016277 -0.095063 -0.010793 0.026469 0.001036 -0.031325 -0.035292 -0.000310 -0.008622 -0.022039 -0.025829 0.027377 -0.004712 -0.012271 -0.059101 -0.027670 -0.045891 -0.090111 0.002956 -0.044216 0.028216 -0.042878 -0.098388 -0.008582 0.051929 -0.054583 -0.031176 0.062045 -0.045979 0.003139 -0.019505 0.031910 -0.066712 -0.017829 0.072087 0.012693 0.027346 -0.027707 -0.062946 -0.027391 -0.008589 0.011976 0.011536 0.004085 0.043723 -0.024338 0.024366 0.002430 -0.028428 0.079137 -0.147338 -0.023318 -0.035855 0.001180 0.002936 -0.039830 -0.012266 -0.020134 -0.001249 0.016979 -0.002189 0.021098 -0.004557 0.083283 -0.048430 0.007977 0.008354 0.000696 -0.005224 0.024173 -0.014163 0.009722 -0.004241 0.028918 -0.031040 -0.016946 -0.069225 -0.002043 0.004327 0.033230 0.101526 -0.030930 0.013027 0.020517 -0.077594 0.022660 0.005179 0.038524 0.003279 0.023494 -0.011760 -0.003689 -0.035550 0.044013 0.010726 -0.001313 0.024147 0.007759 -0.031505 0.049194 -0.050586 0.031834 -0.001364 -0.027389 -0.014164 -0.079340 -0.011217 0.005868 0.026544 -0.017063 -0.003721 0.007055 -0.030237 -0.050382 0.014996 0.010326 0.033225 -0.028895 -0.016817 0.023621 0.011656 -0.000482 0.030786 -0.022218 0.020619 -0.056412 -0.033590 -0.053984 0.001537 -0.036944 0.050958 -0.011166 -0.014200 -0.040115 -0.003181 0.005745 0.038033 -0.020813 0.058611 0.023054 -0.010157 -0.054526 0.008946 -0.028925 -0.006793 0.019986 -0.024209 -0.002783 -0.084076 0.005192 -0.005483 -0.056176 0.028500 -0.049138 0.021048 -0.029930 -0.030437 0.021531 -0.035782 0.024825 -0.041298 0.013217 -0.019747 -0.045771 0.012107 -0.026304 0.003139 0.005880 -0.034225 0.029234 -0.053994 -0.001880 0.023404 -0.008856 0.035335 0.006748 0.007710 -0.006833 -0.002828 -0.024272 -0.021082 0.016639 0.035514 -0.020109 -0.023739 -0.000593 0.033042 -0.079235 0.001707 0.049765 0.033993 0.002596 0.022328 -0.005750 -0.028783 -0.040078 0.007968 0.007414 0.007705 -0.012889 0.091987 -0.035547 -0.047249 0.039813 -0.024548 0.037653 0.002815 0.053455 -0.046764 -0.053431 0.033016 0.002706 0.029210 -0.056686 -0.024805 -0.055818 -0.032744 0.015235 -0.069573 -0.005473 0.044155 0.000950 -0.004371 -0.015118 0.028691 -0.038031 0.002828 -0.079127 -0.029787 -0.013856 0.010361 -0.063594 -0.030387 -0.010938 0.082618 0.000387 -0.068269 -0.026090 -0.033516 0.028316 -0.010666 0.010174 0.041953 0.012623 0.030692 0.001797 -0.007970 -0.038516 -0.028772 -0.006441 -0.029278 -0.036482 0.049705 0.003867 0.057965 -0.010061 0.017216 0.039658 0.036653 0.013883 0.051020 -0.046090 0.030860 -0.007971 0.014178 0.004399 0.013137 0.015189 -0.013787 0.011751 0.033645 -0.009476 -0.009649 0.060426 -0.051288 -0.015136 -0.183882 -0.026671 -0.008476 -0.021929 -0.030375 -0.021527 -0.028271 -0.017812 -0.011041 0.040918 -0.039622 0.013853 -0.075364 -0.042144 -0.037683 -0.003702 0.013436 -0.008871 0.056865 -0.061052 -0.034121 0.037135 -0.012139 -0.006565 0.039330 -0.001974 -0.010265 -0.008516 -0.006806 -0.012522 0.034823 0.001519 0.025400 -0.019318 -0.046333 -0.114549 -0.004519 0.005010 -0.062178 -0.039533 0.010969 -0.057427 -0.026017 0.057903 -0.057116 0.017327 0.042335 -0.048218 -0.040236 -0.024078 -0.034798 0.032417 0.005808 -0.020116 -0.018311 0.026237 -0.009925 0.049507 0.020977 0.031290 -0.020600 0.066186 -0.006937 0.030388 0.010570 -0.038784 -0.019036 -0.019702 -0.001077 0.007846 -0.020810 -0.007491 0.008715 -0.045665 -0.008935 -0.000555 -0.015388 0.004276 0.033287 0.003499 -0.047641 0.016514 -0.001390 0.025512 0.026931 -0.049406 0.007892 0.022690 0.046197 0.008028 -0.035458 0.040034 -0.024470 0.005015 -0.047630 -0.035736 0.048115 -0.086524 0.001668 0.022655 0.032547 -0.013238 0.027431 -0.036732 0.021816 -0.014462 0.029782 0.089140 0.028198 -0.022444 0.064524 -0.037616 0.002738 -0.001726 -0.021126 0.019809 -0.016689 -0.018022 0.086385 0.002138 0.021444 -0.044387 -0.015757 0.028965 -0.046196 -0.006925 -0.001867 0.030165 0.084739 0.004544 0.026383 -0.010476 0.122697 -0.022539 0.006263 0.049900 -0.061341 0.051706 -0.032117 0.012075 0.015150 -0.018450 -0.010276 -0.017864 -0.000014 0.005448 -0.024146 -0.011636 -0.003633 -0.000286 -0.047627 0.001524 0.026706 -0.000579 0.061040 0.022720 -0.017392 -0.002257 -0.018447 -0.019445 0.002186 -0.021611 0.045578 0.004029 -0.014232 -0.034226 -0.026821 -0.051656 -0.027363 -0.054939 -0.002999 0.029882 -0.011070 0.019049 0.005145 -0.017381 -0.023354 -0.017972 0.026361 -0.046999 -0.017453 -0.016165 -0.002861 -0.054236 0.156686 -0.004764 0.033700 0.005455 0.066740 0.004609 0.064337 -0.023691 -0.053603 -0.015297 0.015722 -0.016611 0.054775 -0.015925 -0.013281 0.030051 -0.029991 -0.042261 -0.032223 0.023212 -0.030919 0.062562 0.009757 0.028578 0.054177 -0.045122 0.025948 0.007254 0.044636 0.053818 -0.010637 0.049400 -0.077903 0.013901 0.047684 -0.097960 -0.003324 -0.033006 -0.026077 0.035826 -0.015775 -0.004820 -0.002137 0.004269 -0.019392 -0.022100 -0.003030 -0.026968 -0.003319 -0.046185 -0.002420 -0.072392 0.002368 -0.028025 0.009182 -0.015127 0.032571 0.058850 -0.006577 -0.051298 0.008294 -0.039047 -0.058526 -0.080421 -0.017997 0.007569 0.011853 -0.061706 -0.003401 -0.024246 0.030648 0.001611 0.058093 -0.002994 -0.006047 -0.039766 0.000491 0.002880 -0.061386 0.014257 0.000240 -0.016446 -0.000276 -0.011379 0.026046 0.038762 0.011870 -0.003154 -0.051038 -0.062338 0.009837 -0.009222 -0.013391 0.029218 0.063599 0.035607 -0.001058 -0.014778 -0.003832 -0.020704 0.080629 0.030395 -0.023668 -0.035129 -0.082490 -0.020630 -0.006408 -0.007856 -0.022029 0.004078 -0.041475 -0.000439 0.024690 -0.015261 -0.043763 -0.009186 -0.042644 0.001025 -0.010854 0.063668 0.010739 0.043241 -0.000162 -0.018808 0.045308 -0.020478 -0.018969 -0.019142 0.032765 0.006912 -0.005318 -0.024196 -0.016032 -0.005595 -0.032387 -0.003940 -0.007492 -0.005028 0.013385 -0.058909 -0.002141 -0.020304 0.001829 0.004167 0.009930 -0.021019 0.014996 -0.001770 -0.029727 0.023293 0.047088 -0.026564 -0.020904 0.006803 0.022332 0.070020 0.048354 -0.104594 -0.011871 -0.024189 0.003766 0.024936 0.071415 0.021706 -0.005121 0.028086 -0.037784 -0.027027 -0.044192 -0.005286 -0.028857 0.009727 -0.010738 0.008078 0.011036 0.041006 -0.039830 -0.014424 -0.007050 -0.020606 0.007128 -0.067193 0.049444 -0.000894 -0.052681 0.000810 -0.011467 0.038017 -0.014511 0.011100 0.022325 0.077134 0.002160 0.013526 -0.018648 0.016860 0.003135 -0.021158 -0.050752 -0.046649 0.033275 -0.008025 0.015099 -0.005181 0.057701 -0.033617 -0.015172 0.060579 0.046242 0.011111 0.004231 0.052752 0.024096 -0.008852 0.028889 0.068337 -0.012121 -0.030217 -0.013079 -0.021687 -0.004720 -0.026401 -0.010063 0.020252 0.034339 -0.003418 0.028693 -0.042987 -0.049303 -0.015017 -0.012510 -0.061817 -0.040165 -0.045604 0.035896 -0.000823 0.017066 0.027412 -0.014677 -0.040677 0.036262 -0.017574 -0.058521 0.003326 0.030225 -0.031079 0.011988 -0.088526 -0.030188 0.057393 0.018254 -0.020207 -0.015040 -0.008266 0.017271 -0.010930 0.020979 -0.030168 0.032035 0.014564 -0.007258 -0.011705 -0.012330 -0.005912 0.035844 0.011359 -0.011752 0.023179 0.020857 0.028685 -0.027252 -0.061096 0.005254 -0.059140 0.001312 -0.035613 0.019563 0.006007 0.048740 -0.041190 0.023959 0.013875 -0.015122 -0.007179 -0.017687 -0.004749 0.002967 -0.011082 0.012376 -0.008948 0.020622 0.026946 0.034024 -0.043026 -0.003547 -0.031780 -0.027939 -0.024055 0.076333 0.034591 0.031840 0.055548 0.001748 0.012685 -0.003408 -0.001372 -0.036117 0.273762 0.047159 -0.043922 0.003051 -0.020763 0.000876 0.070871 0.021897 -0.040211 0.085207 -0.021977 0.102874 -0.011327 -0.006941 -0.022935 -0.036764 -0.015913 0.009022 -0.000545 0.005281 -0.034378 0.001929 -0.002504 0.008047 -0.025645 -0.012029 -0.086827 0.003038 0.008400 -0.015821 -0.038164 -0.046716 -0.081030 -0.002768 0.001153 0.000270 0.114254 -0.001166 -0.041405 -0.009441 0.031877 0.010780 0.003845 0.029959 0.072240 -0.000078 -0.002060 -0.032593 0.042479 -0.007804 -0.005309 0.046011 0.075610 0.005335 -0.042155 0.016341 0.018452 0.000550 -0.018937 0.003565 -0.003270 0.031292 -0.023115 -0.029103 0.016899 0.001985 0.058130 0.019435 -0.066397 -0.006789 0.013196 0.015957 0.056094 -0.048820 -0.041280 0.072562 0.010021 -0.019561 -0.077829 0.023701 -0.014525 -0.005210 -0.007445 0.012880 0.001145 0.028405 -0.014584 0.024447 -0.041778 -0.030095 -0.007823 0.065089 -0.038435 0.036304 -0.033450 0.026250 -0.010621 -0.002044 0.002350 -0.022151 -0.016805 -0.006770 0.018035 0.085371 0.009982 -0.073228 -0.059624 -0.003619 -0.011656 0.025431 -0.010711 -0.016814 0.043667 0.037481 -0.005019 0.034121 -0.024218 -0.014654 -0.018418 0.016319 0.036482 0.106391 -0.028856 -0.029796 0.023148 0.040296 0.043733 -0.043985 -0.020513 0.024323 -0.084292 0.033032 0.008285 -0.010476 -0.069187 -0.001362 0.016281 0.126342 0.021093 -0.036072 0.008636 -0.106681 0.001897 -0.013252 -0.017107 0.009365 -0.026432 -0.006794 -0.023964 -0.022479 -0.078910 -0.036302 -0.006268 0.059520 0.015695 -0.020895 -0.023721 -0.098809 -0.027807 0.024525 0.033649 0.071883 -0.050238 -0.083577 0.001045 -0.050476 -0.077780 0.005194 -0.007813 -0.032557 -0.023932 -0.022578 0.011982 -0.015561 -0.331144 0.004286 -0.023660 -0.014117 -0.015968 -0.035327 0.046232 -0.000543 -0.011558 -0.025250 0.030779 0.014571 -0.001328 0.076303 -0.039781 -0.012159 -0.023130 -0.012997 -0.025119 -0.061282 -0.014894 0.015606 -0.011079 0.058485 0.013844 0.046709 0.063098 -0.011859 -0.040859 -0.009014 -0.061210 0.022051 -0.038667 -0.027911 -0.062593 0.030461 -0.012447 -0.022064 0.013184 0.011580 0.008931 0.041465 -0.057712 0.026994 -0.021749 0.002173 -0.011407 -0.003710 -0.008949 -0.076301 0.008046 -0.042318 0.006212 0.018923 -0.069082 0.005217 -0.008408 -0.044256 0.028013 -0.024108 -0.017016 -0.039116 -0.011443 0.023545 0.000692 0.001015 -0.041189 -0.006790 -0.004065 
WORSE -0.047438 -0.013775 0.031787 -0.012304 0.049240 -0.015801 -0.044516 -0.028113 -0.004173 -0.019419 0.028020 -0.105509 0.001993 -0.111079 -0.030577 0.007739 0.046432 0.048614 -0.045610 -0.004048 -0.043911 0.023134 -0.013503 0.013553 0.007976 -0.066117 0.019584 -0.014372 -0.044705 0.002792 -0.049432 0.010548 0.022300 0.028992 -0.041954 -0.126099 0.003423 -0.113885 0.032496 -0.079311 -0.010633 -0.049795 -0.018235 -0.029120 0.019972 0.020145 -0.005348 0.036349 0.011341 -0.007511 -0.053545 -0.089134 0.041427 0.002989 -0.026918 -0.030383 0.025612 -0.048486 -0.006327 0.021089 -0.000031 0.028386 0.013785 -0.049596 -0.097384 -0.007463 -0.017523 -0.023274 -0.004719 0.039788 -0.046535 0.052197 0.016588 -0.080100 -0.009570 -0.022238 0.001219 -0.032090 0.031646 -0.117537 0.012258 -0.021429 -0.018399 -0.031299 -0.017303 -0.049235 -0.067328 -0.001658 -0.162082 0.000065 -0.035647 0.039940 -0.024616 0.020340 0.015247 0.037233 0.012260 -0.017887 0.010952 -0.054695 -0.043810 -0.031336 0.028103 -0.014443 -0.014899 -0.000810 -0.013599 -0.039237 -0.067811 0.000350 0.012099 -0.008552 -0.102507 -0.024497 -0.002573 -0.012224 0.038379 0.007572 -0.175504 -0.151277 -0.009676 0.020798 0.006451 0.054897 0.003789 0.008996 0.094802 0.018926 0.013658 -0.141048 -0.078855 -0.007275 -0.019845 -0.043368 0.008813 0.022307 -0.075907 0.014018 -0.038769 -0.070739 0.058864 0.022640 -0.022075 0.007086 0.037361 -0.014834 -0.086350 -0.028324 -0.154505 -0.022277 0.044500 0.035924 0.069914 -0.047049 0.010465 -0.055401 0.010359 -0.002630 -0.014007 -0.067438 -0.008583 -0.031007 0.048487 0.007149 0.089669 -0.006666 0.065289 -0.029161 -0.014914 -0.052029 -0.022867 0.022590 0.024269 -0.020860 -0.069405 0.015013 -0.013426 -0.006825 -0.068232 -0.034099 -0.074157 0.015546 -0.047539 -0.032337 0.003444 0.022914 -0.077528 -0.016903 -0.033439 -0.000925 -0.020238 -0.025976 -0.053487 0.007249 -0.003520 -0.048474 0.019974 -0.013271 0.035326 -0.007267 -0.021529 -0.031167 -0.052417 -0.060941 0.035714 0.051436 -0.006860 -0.020265 -0.003523 0.017617 0.042592 0.037749 -0.027413 -0.045902 0.014443 0.028916 0.033200 -0.034076 -0.056293 -0.033755 -0.056252 -0.033583 -0.100804 0.009950 -0.037591 -0.070708 -0.003894 -0.014402 -0.026301 -0.020317 0.006033 -0.009775 0.042226 -0.027756 -0.012534 -0.067856 0.029088 0.053093 -0.059202 0.027495 -0.026816 -0.061461 -0.019762 0.081230 0.012973 -0.007597 -0.048029 0.003832 -0.010166 0.045690 0.013267 0.018300 -0.149574 0.065282 0.051613 0.006093 -0.004273 -0.055392 0.050650 -0.002820 -0.025166 -0.000692 -0.012841 -0.004398 -0.035012 -0.001155 0.016080 -0.002537 0.019546 0.010321 -0.013614 0.005610 0.019959 -0.022076 0.023199 0.005537 0.031965 -0.065924 0.041195 -0.046028 -0.016339 -0.029725 0.017888 -0.006725 -0.048129 0.066032 0.014160 -0.002793 0.015317 -0.008986 0.020587 -0.029527 0.021053 -0.067362 -0.011339 -0.011609 -0.064410 0.021246 0.044063 0.018418 -0.042783 -0.042491 -0.042828 -0.050081 -0.017303 -0.034446 0.009405 -0.060657 0.024742 0.005354 -0.008317 -0.023049 0.005308 -0.018462 0.004221 0.003219 -0.039462 0.009195 0.045318 -0.031939 -0.007177 -0.025153 -0.002619 -0.002634 -0.014561 0.008552 -0.031941 0.040045 -0.042419 0.021233 -0.006549 0.011189 -0.032785 -0.008539 0.012591 0.037450 0.008823 -0.029289 -0.024114 -0.013333 0.008082 0.024706 -0.017210 -0.007123 -0.007393 0.048217 -0.000623 0.000289 -0.033686 -0.002699 -0.007344 -0.028026 -0.005672 0.044455 -0.042973 0.011161 -0.063762 -0.016931 -0.013748 -0.008178 -0.076930 -0.032763 -0.082377 -0.019314 -0.083804 -0.033161 0.017358 0.053597 0.023190 0.016943 -0.019592 0.025109 0.000012 -0.083460 -0.006713 -0.045480 0.012329 -0.031539 0.005487 0.004716 0.018636 0.018223 0.027067 0.063852 -0.078647 -0.369769 -0.130769 -0.028100 0.025325 0.012642 0.013498 -0.016870 -0.055564 -0.024713 -0.044217 0.002518 0.022554 0.003425 -0.086752 0.015751 -0.020975 -0.063143 0.019255 -0.031150 0.031680 0.024633 -0.082305 0.001867 -0.007413 0.008275 -0.000346 0.025905 0.018907 0.070464 -0.029306 -0.046489 -0.081274 -0.005047 -0.053717 -0.030986 0.036246 -0.094140 0.045888 0.000115 -0.082666 -0.021844 0.009837 -0.040277 0.003297 0.062237 -0.010087 0.001272 0.002644 -0.083072 0.006542 -0.002066 0.024083 -0.102163 -0.016373 -0.001299 -0.068763 -0.013030 0.026533 -0.005256 -0.012491 0.060449 -0.063361 0.001328 -0.000024 0.034573 -0.042887 -0.044518 0.029630 0.015873 0.029855 -0.007230 0.026322 -0.074638 0.059026 0.007891 -0.007342 -0.029505 -0.041507 0.027988 -0.025342 -0.058490 0.026333 -0.054019 -0.028400 -0.008409 -0.050094 -0.035956 0.047055 0.023065 -0.030259 0.003444 -0.073689 -0.025552 -0.015097 0.014167 -0.102358 0.007697 -0.011840 0.012220 -0.021344 -0.006371 0.016371 -0.051165 -0.028897 -0.049811 0.012676 -0.028778 -0.003360 0.017593 -0.039105 -0.127328 -0.009049 -0.082216 -0.061269 -0.030958 -0.046833 -0.048673 -0.023181 0.008393 -0.042406 -0.046564 -0.008840 -0.029607 -0.034677 -0.006218 -0.032325 -0.047719 -0.044161 -0.034297 -0.072092 -0.028731 -0.062902 0.012917 -0.017617 -0.043469 0.005098 0.011163 -0.021739 -0.029926 -0.047737 0.031836 -0.003131 -0.037937 -0.057271 -0.017228 -0.039644 -0.004313 0.022666 -0.000444 0.033082 -0.025858 -0.012999 0.028003 -0.003330 -0.060566 0.052704 -0.003529 0.005175 -0.000116 0.031266 0.009680 -0.024626 0.026120 -0.032009 0.021803 -0.027846 0.019112 0.020868 -0.016661 -0.018376 0.074464 -0.060023 0.023628 -0.023113 0.043936 -0.012071 -0.019147 -0.005166 -0.046988 -0.059115 -0.014542 -0.074452 -0.062493 -0.012598 0.053454 0.022039 -0.002298 0.000559 0.010754 -0.016621 -0.050525 -0.013166 0.021259 0.035833 0.027078 0.137549 -0.057886 -0.057265 -0.004009 -0.042847 0.019430 0.003174 -0.079912 -0.044932 0.023197 -0.044265 -0.036242 0.021025 0.018486 0.000803 -0.037409 0.004102 0.005036 -0.009637 -0.067544 0.033965 0.018893 -0.015035 -0.021611 -0.000081 -0.001034 -0.020658 -0.085416 -0.058960 0.006180 -0.017827 -0.064131 -0.073704 -0.038739 0.011895 -0.035461 0.014434 0.005511 -0.066083 0.002095 0.020798 0.007566 -0.049005 -0.005347 0.037719 0.016678 0.019230 -0.005191 -0.096481 -0.017814 0.005396 0.038130 0.059842 0.010317 -0.054443 -0.010840 0.015088 0.033017 0.005279 0.033444 -0.121495 -0.065374 0.008473 -0.043254 -0.002274 -0.062914 -0.012250 -0.026192 -0.008648 -0.017520 -0.002706 -0.040415 -0.000293 0.017483 0.012480 -0.041951 -0.007267 0.035466 -0.085850 0.005853 -0.024426 -0.028393 -0.010040 -0.056108 -0.055273 -0.028225 -0.072083 -0.003311 -0.050910 -0.019526 0.076025 -0.001416 0.034017 0.012528 -0.008505 -0.007716 -0.094944 -0.000182 -0.023114 -0.027561 0.003955 -0.017628 0.021999 0.044466 0.004936 -0.004660 -0.081537 0.006156 -0.052085 -0.006010 0.000145 0.024703 0.019976 -0.073035 -0.007383 0.009778 0.003786 0.014363 -0.003123 -0.022445 -0.005848 -0.071403 0.006588 0.018371 0.032882 -0.039591 0.024558 -0.013294 0.021487 0.015925 -0.027318 -0.001125 0.032793 -0.012844 -0.006425 0.020869 -0.007676 0.020911 0.005548 0.013284 0.020311 -0.058262 0.009181 -0.001232 -0.023079 0.004634 0.058049 -0.008024 -0.022890 -0.005881 0.015002 -0.019167 -0.089279 -0.018946 -0.005077 -0.055048 -0.050441 0.001282 -0.064546 0.003252 0.039791 -0.104852 0.002352 0.025235 0.044480 0.038461 -0.005380 0.018966 -0.041180 -0.037293 0.022972 -0.042027 -0.030960 -0.040320 -0.012508 -0.035313 0.013413 0.037495 0.029383 0.069156 0.049905 0.011783 -0.016857 -0.017803 0.023677 -0.019237 0.008627 -0.011586 0.017898 -0.002328 0.002519 0.023983 -0.047648 -0.001454 -0.025803 -0.003563 0.015000 -0.061569 0.037929 0.011306 0.029551 0.002235 0.006217 -0.016321 0.027061 -0.040202 -0.000111 -0.055111 0.002770 -0.007227 0.052876 -0.010020 -0.053025 -0.022819 0.008469 0.010102 0.038222 0.023946 -0.073334 -0.008704 0.057234 -0.020561 0.018521 -0.047966 -0.051356 0.032114 -0.072429 -0.015600 -0.007178 0.004294 0.013924 -0.032449 -0.012732 -0.033699 0.000902 -0.010594 -0.036931 0.019535 -0.022125 -0.015893 0.018447 -0.068889 -0.018776 0.011113 0.013214 -0.018526 -0.012721 -0.032188 -0.021516 0.041883 0.002906 0.075357 0.009205 0.014687 -0.004633 -0.026219 -0.038593 0.014817 -0.021282 -0.026042 -0.004964 -0.048979 0.009601 0.006670 0.001766 0.018853 -0.018825 -0.038301 -0.080854 -0.017262 0.023975 -0.035474 -0.000688 -0.014050 0.041037 0.025628 -0.039831 0.007204 -0.032946 -0.080355 0.017202 -0.063544 -0.021222 0.029900 0.009622 0.018234 -0.146812 -0.051056 0.002477 -0.017010 0.008595 -0.025880 -0.100468 -0.007114 -0.013554 0.010346 0.033695 0.005518 0.007702 -0.041265 0.011639 -0.014918 0.011390 0.032016 -0.004396 -0.006452 -0.063694 -0.011098 0.013447 0.006798 0.005300 0.015695 -0.026686 -0.031420 -0.052311 -0.073220 -0.007564 -0.015195 0.012434 0.008047 0.019963 -0.096649 -0.031912 -0.033486 -0.064594 0.008655 0.000637 -0.022129 0.027806 0.055366 0.013698 -0.020796 0.041114 -0.035658 -0.015878 -0.004372 -0.070422 0.023383 -0.015620 -0.027223 -0.016766 0.020370 -0.045527 -0.019830 0.033876 -0.021642 -0.007815 0.077375 0.025319 -0.042853 -0.023355 0.034828 -0.013653 0.020264 -0.009546 -0.005301 -0.006797 -0.025142 0.043619 0.014159 0.023280 -0.015347 0.011335 0.014574 -0.022862 -0.041237 0.003857 0.032734 0.012478 0.000996 0.031956 -0.003925 0.008131 -0.000072 -0.016453 -0.054341 -0.089197 0.034723 -0.017796 -0.007112 -0.000118 -0.081927 -0.014123 -0.064954 -0.010020 -0.006227 -0.005936 -0.045475 0.017333 -0.032805 0.052974 -0.014122 0.004671 0.033447 0.005852 0.014178 -0.050473 0.038170 -0.041601 0.005624 -0.018347 0.046001 -0.028331 -0.043212 0.008926 0.064385 0.032310 -0.036280 0.005989 -0.027678 -0.032150 0.008674 -0.010664 0.022341 0.016752 0.009433 -0.048472 0.044167 0.084484 -0.042980 0.047419 -0.011057 0.030335 0.015224 0.000101 0.025379 0.028881 -0.041265 0.018366 0.054966 -0.026679 -0.016070 -0.089777 0.016660 0.064498 0.070459 0.015945 -0.020474 -0.027874 -0.021997 0.049866 0.002466 -0.037188 0.004681 -0.017658 0.028307 0.033904 -0.040965 -0.085142 -0.032659 -0.012609 -0.030864 -0.077921 0.031042 -0.045849 -0.000014 -0.077147 -0.022172 0.014501 -0.044715 0.024128 0.062154 -0.037758 -0.022893 -0.026798 -0.074824 -0.026324 0.025933 -0.042447 -0.014745 0.067011 -0.008498 0.000875 0.015185 0.014324 -0.049586 0.016771 0.005494 0.021140 -0.030178 -0.047525 -0.064432 0.010395 0.007321 -0.021134 -0.013487 0.007857 0.015398 0.028750 -0.048079 -0.002222 -0.061430 0.033137 -0.023078 0.033654 -0.069187 0.004359 -0.045990 -0.093192 0.031892 -0.003024 -0.016253 -0.008462 -0.019175 -0.055796 -0.093688 0.024142 0.026577 -0.041390 0.027980 -0.012075 0.023520 -0.104198 -0.054412 -0.012398 -0.009238 -0.042446 0.017635 -0.030039 -0.004039 -0.086027 -0.029622 0.001059 0.009273 -0.006028 0.023103 0.024637 0.002957 0.011643 0.010427 0.020195 -0.041545 -0.011376 -0.043539 -0.015728 0.020447 0.034308 -0.112582 0.023692 0.013815 -0.033424 0.017011 0.051853 0.005556 -0.049965 -0.016067 -0.003583 -0.021896 -0.036794 0.070448 -0.013140 -0.036932 -0.001158 -0.065066 0.010736 0.045446 0.004701 0.010155 -0.022153 -0.040781 0.006344 -0.029065 0.017485 0.024718 0.049813 0.012058 -0.016567 -0.047754 0.001092 0.044690 0.006042 -0.085864 -0.001798 0.024262 0.017687 -0.026271 0.045647 -0.046591 -0.018823 -0.084273 0.036853 -0.026701 -0.034164 -0.013871 -0.061065 -0.001742 -0.033673 -0.015754 0.039512 -0.009022 0.051245 -0.036855 0.068552 -0.043366 0.089883 -0.029235 -0.039505 -0.023603 0.052673 -0.048222 -0.031726 0.022384 0.028329 0.026454 0.044372 -0.020775 -0.031979 -0.003326 -0.041856 0.029257 -0.061533 0.035951 -0.045560 -0.072370 -0.049545 0.038449 -0.003941 0.041358 0.013154 -0.015299 -0.028457 -0.055583 -0.021419 0.013233 -0.040426 0.019219 -0.068192 -0.090269 0.027175 -0.002511 0.018774 0.003581 0.033428 0.029997 -0.015224 -0.039137 0.018600 0.007948 -0.009851 -0.023824 0.021725 0.033411 -0.047073 -0.010747 -0.049704 -0.000632 -0.021354 0.067537 0.003426 -0.105605 -0.045713 -0.008763 0.034144 0.033407 -0.058875 -0.078909 -0.027531 0.009302 -0.037688 0.020511 -0.004363 0.014205 -0.046060 -0.017059 -0.006704 -0.008418 -0.019065 -0.021259 -0.027450 -0.078021 0.044441 -0.022483 0.022238 -0.020645 -0.029390 -0.085208 -0.042350 0.035694 0.054719 0.051608 -0.015510 0.036574 -0.023098 -0.067098 0.009455 0.020183 -0.000038 0.002051 -0.025215 0.006749 -0.063757 -0.035322 0.029967 -0.029710 -0.037865 -0.005344 -0.050401 -0.012204 -0.046256 -0.047387 -0.007279 -0.005927 0.007150 -0.009458 -0.026338 0.011677 0.030024 -0.050979 -0.004920 0.003251 0.007878 -0.027436 -0.005348 -0.088301 -0.049408 -0.007009 -0.036149 -0.005124 -0.032302 0.048409 -0.048305 0.007404 -0.031662 -0.038753 -0.003367 0.016773 -0.029388 0.002760 0.055996 -0.020869 -0.000480 -0.044697 -0.037238 0.010610 0.004863 0.022715 0.032147 -0.115589 -0.036308 0.031743 -0.029299 -0.009205 0.021909 0.004256 0.014255 -0.043829 0.016108 0.052437 0.040131 0.018572 0.032093 0.001899 0.014854 -0.012843 -0.027450 -0.040477 0.020856 -0.038462 -0.007738 -0.043767 0.073016 0.025933 0.003744 0.004428 0.026437 -0.022612 -0.024338 0.000944 -0.020006 0.018014 -0.021655 -0.004901 0.005780 0.040581 -0.015048 -0.023441 -0.042972 -0.064005 -0.065244 0.061539 0.005616 -0.066159 0.022055 0.021800 -0.010058 -0.023588 -0.024660 0.024786 0.049214 0.023324 -0.022426 0.035378 0.015296 0.002778 0.056012 -0.026034 -0.033381 -0.032337 0.018937 -0.003670 -0.007284 -0.005942 -0.044043 -0.083291 -0.013566 -0.009005 -0.022901 -0.001361 -0.072594 -0.021338 -0.035635 0.010033 0.047605 0.052759 -0.014653 -0.002698 0.000541 -0.003544 0.010820 0.006098 0.021958 0.049551 0.012959 0.036952 -0.012236 -0.018694 -0.029290 0.002425 -0.039628 0.039030 0.022439 -0.039973 -0.019354 -0.066288 -0.020594 -0.041339 0.007868 -0.004837 -0.071888 -0.062095 -0.080325 0.006254 -0.025329 0.001485 -0.013535 -0.004150 0.013416 -0.046409 0.003067 0.007848 -0.048597 -0.000397 0.022482 -0.034882 0.023646 -0.098765 0.004983 -0.043989 -0.005457 -0.034722 -0.021420 -0.034088 -0.042573 -0.024380 0.025576 0.026935 -0.070996 -0.028590 -0.003083 -0.082596 0.001093 0.024900 0.007062 0.039364 -0.009214 0.007583 -0.006427 -0.022914 -0.049045 0.002550 -0.044386 0.022715 -0.080278 -0.049927 0.007875 -0.036516 -0.045186 -0.012021 0.000843 -0.003819 -0.036111 -0.012857 0.039829 -0.027709 0.028323 -0.015282 -0.008206 0.037293 0.030115 -0.030552 -0.139681 0.007872 0.015303 0.003689 -0.034772 0.038769 -0.014171 -0.108625 -0.034140 0.004382 -0.021252 -0.018823 -0.010801 -0.014864 0.012226 0.007118 0.024903 0.008225 -0.028508 0.028414 -0.003529 0.027125 0.003730 -0.011542 0.028123 0.055887 0.024015 -0.003948 -0.008667 0.018068 -0.040657 -0.002166 -0.026487 -0.030641 -0.057951 -0.057289 0.008810 0.019579 -0.001146 0.030775 -0.118811 -0.002276 -0.034824 -0.058489 -0.070811 -0.000450 0.026011 -0.023250 -0.052253 0.010954 0.023681 0.017499 0.005948 -0.006811 0.014639 -0.119872 -0.008229 -0.045432 -0.001969 -0.003290 -0.001971 0.030755 0.046466 -0.026287 -0.008946 -0.034965 -0.005662 0.042114 -0.008674 0.038670 0.001940 0.022768 0.001510 0.014271 -0.049717 -0.039592 0.049557 0.053717 -0.006158 -0.024431 0.088380 -0.099606 0.000640 -0.015234 0.036154 0.005890 -0.016249 0.011847 -0.123171 0.007655 -0.002878 0.023746 -0.025574 -0.053573 -0.023589 0.013134 0.018398 -0.071996 -0.042631 -0.022519 -0.139142 -0.012796 0.039668 -0.018923 0.050402 -0.056939 -0.020184 0.008948 -0.037192 0.002610 0.015331 -0.089275 -0.047101 0.033352 -0.069582 0.255091 -0.021478 -0.076179 0.009383 0.048029 
WORST -0.054930 -0.031522 -0.010066 -0.010798 -0.001576 0.007013 -0.006100 -0.000544 0.010177 0.009254 0.009735 0.038223 0.000809 -0.111746 0.002886 -0.021066 0.051201 0.016496 -0.025105 -0.021674 0.026187 0.022283 -0.019723 0.005143 0.016909 -0.025112 -0.008295 -0.091519 0.023584 0.055602 -0.046288 0.027318 -0.051948 0.018719 -0.004091 -0.016300 -0.036752 -0.034553 -0.015402 -0.060083 0.023273 -0.091651 0.016016 -0.017742 0.030528 -0.023278 -0.007903 0.023624 0.007045 0.047922 -0.085341 -0.081344 -0.053295 -0.000945 -0.031482 -0.031881 -0.048927 -0.077089 0.003490 0.025744 -0.003265 -0.008110 -0.092205 -0.062981 0.036860 -0.051470 -0.013472 -0.033392 0.030036 0.019605 -0.010902 0.037102 0.003599 -0.124848 0.016541 -0.029844 -0.116286 -0.027061 -0.067978 -0.082848 -0.013813 0.013864 0.026741 0.004459 -0.009728 -0.064027 -0.033399 0.025645 0.019027 0.002336 -0.003677 -0.043979 0.013308 0.020978 -0.006474 0.024293 0.054449 -0.003295 -0.016642 -0.023687 0.110490 -0.027225 -0.062681 0.015718 -0.035687 -0.003299 0.020301 -0.021518 -0.005127 0.018632 0.051051 -0.063414 -0.066626 -0.046273 -0.055852 -0.034395 -0.021801 0.018294 -0.032731 -0.116065 0.017528 0.076312 -0.056043 0.045192 -0.033367 0.032988 0.001185 -0.006001 -0.078358 -0.140244 -0.101864 -0.011392 -0.000661 0.044840 0.019884 -0.076615 -0.059910 -0.002319 -0.037105 0.052871 -0.015054 -0.094897 -0.022424 0.037406 0.051439 0.062065 -0.037173 -0.028294 -0.151351 -0.010340 0.012363 0.033936 0.019543 0.015296 -0.036468 -0.046294 0.022049 -0.028424 0.000619 -0.023827 -0.141770 -0.009845 -0.014768 -0.051254 0.014256 0.023802 0.080696 -0.029356 0.036361 0.003721 0.016668 0.047784 -0.027821 -0.018751 -0.070477 -0.003300 -0.018062 -0.045897 -0.097817 -0.021477 -0.065591 0.007983 0.002648 0.019716 -0.027956 -0.008816 -0.078701 -0.016645 0.021548 0.031318 0.000990 -0.039565 -0.017633 -0.073640 0.020379 0.059321 -0.080284 -0.005696 0.045773 -0.070515 -0.041482 -0.018284 -0.042703 -0.091767 0.046147 0.093456 -0.008699 -0.035593 -0.086347 0.023805 0.001808 0.009463 -0.005758 -0.025983 0.074851 0.012561 0.028245 -0.027019 -0.156121 0.021385 0.015661 0.008413 -0.106293 0.014457 -0.053110 0.029592 -0.069702 -0.070381 0.003384 0.003567 0.025414 -0.071343 0.068035 -0.088688 0.010586 -0.007765 0.016070 0.041073 -0.037733 0.032363 -0.038778 0.010000 -0.046285 0.064992 -0.064248 -0.014463 -0.047923 0.007776 -0.092300 -0.017482 -0.061344 -0.047476 -0.133248 0.023890 0.048057 0.039358 -0.022849 -0.129942 0.000620 0.001170 0.031686 0.008565 -0.021771 -0.035463 -0.057017 -0.012070 -0.033797 -0.038753 -0.213253 0.007280 -0.007337 -0.041452 0.032350 -0.019322 -0.009069 -0.050587 -0.042186 -0.046428 -0.028415 -0.002530 0.017550 -0.007989 -0.004870 0.034289 -0.029957 0.071147 0.015984 -0.008801 -0.015240 0.064543 -0.002011 -0.087614 -0.045052 -0.046465 -0.025098 0.045179 0.031697 0.013481 -0.027826 0.010993 0.071344 -0.020919 -0.015192 0.016494 -0.026284 -0.017812 0.061761 -0.029533 0.037213 -0.006728 0.001934 -0.030184 -0.006030 -0.006235 -0.015692 0.003595 -0.009835 0.012884 -0.008717 -0.041134 -0.056640 -0.121359 -0.040326 0.020402 -0.027423 -0.027216 0.021015 -0.032040 -0.012065 -0.023397 0.028022 -0.032563 -0.082779 0.027041 0.047755 0.058838 0.048676 -0.048003 0.022443 0.036416 -0.037889 0.017037 -0.007753 0.005694 0.013152 -0.026272 -0.036262 -0.055937 -0.065906 0.076135 0.040735 0.001498 -0.040025 0.052684 0.047439 0.064227 -0.046399 0.052512 0.041178 0.004344 -0.000176 0.008254 -0.061309 -0.019447 -0.063674 -0.077133 0.010611 0.016769 -0.058942 0.031489 0.000487 -0.057625 -0.043828 0.046227 -0.003983 -0.053161 0.013401 -0.069755 -0.007219 -0.019174 0.048840 -0.006217 0.030032 0.039157 0.004751 0.010363 -0.073075 -0.011102 -0.016707 -0.002955 -0.005911 -0.002360 -0.028842 -0.019658 0.022258 0.005192 0.020047 -0.003428 -0.021300 -0.022371 -0.050967 -0.049772 -0.078893 -0.040701 0.018887 0.001072 -0.056418 -0.005686 -0.015874 -0.008304 -0.008965 -0.023013 -0.021223 0.032106 0.014976 0.003351 -0.019247 0.011897 -0.018413 -0.038709 0.038912 -0.038023 -0.056374 -0.039365 0.003353 -0.132526 0.012465 -0.050343 -0.067453 0.090444 -0.014104 0.021184 -0.073051 -0.035599 0.022921 0.002169 -0.017561 -0.037609 -0.026031 0.023285 -0.060644 -0.022430 -0.015632 -0.001042 0.021502 -0.092028 -0.053234 -0.048986 -0.044457 -0.013996 -0.057339 -0.030232 -0.029283 0.035736 0.047138 0.008233 -0.029160 -0.019818 0.059728 -0.014200 -0.008623 -0.011152 -0.008539 -0.001142 0.015568 0.018141 -0.034391 -0.010117 0.044407 -0.143324 -0.039897 0.005167 0.071592 0.002901 -0.029370 0.009646 -0.019862 -0.023213 -0.072281 0.029874 -0.013807 -0.013037 0.028751 0.045140 0.009801 0.000663 -0.038400 -0.024412 0.005127 -0.032918 0.009404 -0.107324 0.034825 0.020053 0.011255 -0.035982 0.004834 -0.067450 -0.047735 0.002853 -0.006049 -0.053097 -0.007729 -0.013615 0.008915 0.006808 0.020547 -0.044542 0.022086 -0.029778 -0.010296 -0.064459 -0.000483 0.002838 -0.005657 0.034221 -0.026895 0.021989 0.026231 -0.032735 0.008631 -0.025073 -0.049262 0.006727 -0.017968 0.009988 0.000371 -0.002010 -0.051318 -0.002536 -0.003894 -0.024095 0.012452 -0.002590 -0.008337 0.031397 -0.005955 -0.042105 0.027810 0.016360 0.090753 0.030295 0.012258 -0.054894 0.033428 -0.008377 0.013504 0.007672 -0.015549 0.016084 -0.052916 0.021009 -0.042460 -0.047932 -0.002586 0.004022 -0.038433 0.017663 -0.057588 -0.020344 -0.040313 -0.019220 0.016493 0.034774 -0.043442 -0.000905 0.016084 -0.004287 0.017577 -0.011295 0.011825 -0.002119 -0.044427 -0.034116 0.018033 -0.090685 -0.022509 0.017727 -0.044541 0.014792 0.130542 -0.023680 -0.023999 -0.004096 -0.006566 -0.039970 -0.011165 -0.061428 -0.077026 -0.018417 -0.003535 -0.015980 -0.026905 0.006566 -0.010400 -0.056063 -0.041390 0.005383 -0.081228 -0.056292 -0.035613 0.025984 0.036372 0.007887 -0.022292 0.017801 -0.003951 -0.075948 -0.041749 -0.082103 -0.012262 -0.011440 -0.086739 -0.028615 0.045812 -0.079199 0.001269 0.050461 -0.058374 0.014655 -0.050986 -0.074995 -0.070239 -0.037482 0.037629 -0.008838 0.019066 -0.002145 -0.047011 0.014908 -0.001437 0.006347 0.062478 -0.018664 -0.040518 -0.007955 0.044222 -0.034504 -0.038833 0.068551 -0.109495 -0.017224 0.021108 -0.009652 -0.030189 0.019877 -0.012463 -0.009685 -0.054811 0.029552 -0.004863 0.014747 0.015601 -0.040225 -0.057506 0.019116 -0.009570 0.028577 -0.049763 -0.037237 -0.021331 -0.016945 -0.025391 -0.007166 -0.036748 -0.008022 -0.070719 0.003858 -0.019034 0.006853 0.023662 -0.002235 0.004337 0.008343 -0.061939 -0.023384 -0.003836 -0.023035 -0.034459 -0.004003 -0.038056 -0.027254 0.006839 0.050600 0.000587 -0.005084 -0.035903 -0.030866 -0.051591 -0.131017 -0.062260 0.021832 0.004292 -0.010564 0.004215 -0.023906 -0.033675 0.004304 -0.016886 -0.035547 -0.020484 -0.028984 -0.009454 -0.059080 -0.021001 -0.060047 0.010091 0.054550 0.034080 0.031498 -0.002040 0.012824 -0.008130 0.005775 -0.021998 0.010083 -0.002946 -0.027539 -0.019649 -0.012282 -0.050573 -0.049704 -0.007118 0.039499 0.015253 -0.005342 0.027237 -0.006498 0.041870 -0.004205 0.001060 -0.041173 -0.025705 -0.017415 0.022319 -0.052404 -0.015631 -0.006207 -0.087848 -0.011452 0.032656 -0.023559 0.003533 -0.012234 -0.000916 -0.012896 -0.083880 0.025865 0.023267 -0.028431 -0.022067 0.006123 -0.035844 -0.043188 -0.030074 -0.029283 0.003687 0.002235 -0.033735 0.032224 0.016993 -0.021784 -0.034165 -0.007256 -0.022589 0.000937 -0.002401 -0.082320 -0.024742 -0.059163 -0.026614 0.005285 0.011785 -0.008196 -0.023693 0.036202 0.014728 -0.063563 0.016602 -0.028173 0.013892 0.002874 0.016445 -0.023349 -0.015539 -0.063804 0.003940 -0.051106 -0.004846 -0.006934 0.034302 0.030674 -0.036555 0.012167 -0.002400 0.020039 -0.002318 0.003315 -0.055422 -0.068986 0.189105 -0.092835 0.054232 -0.055596 0.001520 -0.016379 0.011447 -0.010269 0.000396 -0.042836 0.031294 0.014033 -0.023838 -0.026981 0.013912 -0.028860 -0.035627 0.014743 0.024959 0.017947 -0.000204 -0.037118 0.017580 0.021587 0.016177 0.009378 0.006741 -0.027155 -0.017848 0.049017 -0.017623 0.027865 0.049446 -0.026271 -0.010845 -0.006498 0.004135 0.004989 0.023810 -0.019856 0.008764 -0.041174 0.040717 0.055870 0.019026 -0.042652 0.016723 -0.004423 -0.040326 -0.031071 0.059661 -0.073846 -0.015283 0.003928 0.034915 -0.000734 -0.012569 0.032139 -0.031335 0.011272 0.014310 0.027596 -0.033898 -0.007797 -0.003674 0.027504 -0.142298 0.006534 0.006553 -0.046092 -0.024335 -0.046434 -0.081707 0.005473 0.063930 -0.010556 -0.057473 -0.078326 -0.030915 -0.003748 0.020489 -0.029637 0.030869 0.000147 0.042576 -0.006479 -0.038083 0.002778 0.015849 -0.001026 0.029199 -0.032813 -0.026527 -0.079586 -0.005554 -0.038710 0.015559 0.012825 -0.013272 -0.019867 0.014073 -0.104473 -0.078573 -0.015181 -0.019353 -0.018629 -0.052609 -0.072606 0.039039 0.026843 -0.031657 0.007384 0.018748 -0.004415 0.013151 0.014838 -0.024196 -0.034624 -0.007373 -0.050953 -0.025779 -0.021668 -0.033978 0.036088 -0.006825 -0.031636 -0.046482 0.050329 0.003000 -0.080096 -0.001134 0.010290 0.017742 0.055722 0.056705 -0.002059 -0.024172 -0.005811 0.029331 0.024108 -0.001232 -0.048945 0.011568 0.025789 0.021427 -0.039445 -0.007095 0.027964 0.000887 0.016604 0.032369 -0.040231 0.010103 -0.019360 -0.030380 0.054583 -0.051433 0.025311 -0.020357 0.002453 -0.019432 -0.047900 -0.012673 -0.028688 -0.001188 0.016994 -0.055925 -0.011080 0.017165 0.002907 -0.006792 -0.046646 -0.004510 0.002911 -0.001772 -0.019130 -0.006854 0.056810 0.020138 -0.001116 0.006160 0.033302 -0.029130 -0.009710 0.048689 0.004539 0.007531 -0.035767 -0.002557 -0.009118 -0.038640 -0.009491 0.040919 0.010228 -0.017638 -0.007369 -0.034148 0.031175 0.060260 0.005796 -0.001786 -0.053737 0.006205 0.034516 0.021725 -0.001273 0.042149 -0.084258 0.013452 -0.005689 -0.020575 -0.024576 -0.013536 0.000256 -0.064686 0.020169 0.021928 -0.007255 -0.063056 -0.042523 -0.005091 0.003887 -0.017949 -0.038989 -0.022922 0.012416 -0.005455 -0.005318 -0.030183 -0.023295 -0.000236 0.048905 -0.049064 -0.049387 -0.013223 0.009911 -0.003983 -0.044603 0.039631 0.025297 -0.014996 0.035272 0.001266 -0.031323 0.013497 -0.051423 -0.034870 -0.020487 -0.058180 -0.005759 0.081258 -0.006320 -0.015231 0.050600 0.025914 0.004575 0.009916 0.001615 0.013260 0.044959 -0.021815 -0.033123 -0.068074 0.039518 -0.014565 0.002530 -0.083519 0.041715 0.027975 -0.041552 -0.016089 -0.059916 -0.028693 0.004949 0.027569 0.016353 0.027343 -0.028628 -0.037576 0.053183 -0.041574 -0.015224 -0.008846 0.032641 -0.047355 -0.064321 0.004607 0.002907 -0.015882 0.000653 -0.002577 0.023471 -0.148167 -0.012623 0.003412 -0.003186 -0.022367 0.010506 -0.026490 0.024923 -0.078100 -0.068572 -0.009217 0.014852 0.047133 -0.040171 0.078115 -0.080486 -0.010530 -0.061212 -0.049322 -0.031662 -0.037295 -0.023755 -0.005582 -0.007235 0.040225 -0.046852 -0.011255 -0.041591 0.024112 0.025571 0.013571 -0.024979 -0.011375 -0.001701 0.013571 -0.028174 -0.066084 0.037300 -0.012804 -0.035774 0.004244 -0.051386 -0.018554 0.050802 -0.007869 -0.013946 0.010978 -0.052873 0.013297 -0.055578 -0.001854 0.010520 -0.045997 0.016531 -0.004110 -0.027874 -0.020251 0.023484 0.046601 -0.075304 -0.163652 0.016005 0.039910 0.021830 -0.013356 -0.040717 0.016767 -0.043192 0.002710 0.002354 -0.013911 0.020243 -0.005907 0.037840 -0.013055 0.003501 0.035093 -0.018010 0.022321 0.030204 0.105542 -0.046679 0.237483 -0.060233 -0.015760 -0.052137 -0.015785 0.011247 -0.057695 0.061639 0.026823 0.007749 -0.023528 0.017673 -0.054657 0.013141 -0.013481 0.020026 -0.017220 -0.007061 -0.039512 0.048971 0.003291 -0.011898 0.005341 0.029509 0.000881 0.022980 0.003798 -0.032661 -0.010383 -0.007440 -0.020717 -0.006153 0.006110 -0.045337 -0.038756 0.006488 -0.006867 0.010943 0.055933 0.004166 -0.015973 -0.026619 0.028410 0.002800 -0.010531 -0.041627 -0.050954 0.026923 -0.013380 -0.053555 0.005608 -0.027643 0.037860 0.054762 -0.016414 -0.067083 0.045369 -0.024500 0.041477 0.038399 -0.007462 -0.070263 -0.015485 -0.089180 -0.014187 0.020187 -0.022625 0.024717 0.003109 -0.001660 0.010829 0.033818 -0.066665 -0.018455 -0.012585 -0.060330 0.017399 0.000443 -0.056125 -0.048529 -0.024226 -0.039214 0.021399 0.053476 0.053151 0.082522 0.020075 0.024034 0.006459 -0.064344 0.046959 -0.024567 0.024722 0.003136 -0.034969 0.013962 0.007302 0.007934 -0.086683 0.058520 -0.025932 -0.017531 0.070710 0.007710 0.002585 0.031753 -0.001512 -0.045993 0.014818 0.010576 -0.024389 0.013724 -0.010874 -0.018051 -0.013625 -0.022329 -0.007827 0.004999 0.014113 -0.048490 -0.036572 0.022469 -0.007724 -0.013737 0.002023 0.039732 -0.008753 -0.014385 0.044003 0.015050 0.044576 0.020534 -0.057816 -0.011248 -0.031907 -0.029972 0.028347 -0.057201 0.002003 0.043684 -0.033116 0.013595 0.052384 -0.032272 -0.017686 0.129943 0.048748 -0.043704 0.061524 0.013589 -0.020136 0.016853 -0.014696 0.044145 0.033943 -0.024635 0.040476 -0.008941 0.015269 0.022771 -0.026331 -0.058702 -0.008136 0.004085 -0.023478 -0.004571 0.027528 0.063911 -0.031162 -0.017353 0.030450 -0.049984 -0.021015 -0.063235 0.001569 0.012453 0.018951 0.096555 -0.064058 -0.003808 -0.007102 -0.000439 -0.035388 0.171328 0.046684 -0.063788 0.002181 -0.015345 0.006904 0.018577 0.059413 -0.043726 -0.072274 -0.015696 0.086123 0.003984 0.061133 -0.007733 -0.000722 0.000970 0.054093 0.005021 0.003619 -0.042363 0.027494 0.052347 -0.037817 0.042677 -0.075348 -0.088464 -0.004021 0.045426 -0.021228 -0.015295 0.029525 -0.028911 -0.002427 0.012798 0.057267 0.022878 0.016752 -0.027069 0.014439 0.071171 -0.092988 -0.000111 -0.033452 0.038156 0.020814 -0.012721 -0.050934 0.021116 -0.011884 0.000983 0.001683 0.042415 0.023209 -0.053075 -0.003584 0.036801 -0.000413 -0.038420 -0.009570 -0.016454 -0.008757 -0.056626 -0.088346 0.030269 -0.021011 0.013596 -0.018141 -0.065625 0.029128 -0.003234 -0.001548 -0.014020 -0.015466 -0.021727 -0.028652 0.038766 -0.005457 0.000759 0.019297 0.057667 -0.017927 -0.037189 0.033199 -0.010221 -0.035040 -0.049325 -0.009987 0.016941 -0.029547 -0.019678 0.000830 -0.004184 -0.009593 0.011492 0.011985 0.021962 -0.015457 -0.061063 -0.041318 0.015751 -0.084606 -0.061040 0.000403 0.004746 -0.076521 -0.006942 -0.009233 0.030145 -0.033758 -0.115303 -0.049357 0.041494 -0.036177 -0.007943 0.004789 -0.012345 -0.029193 0.006265 -0.014266 0.021123 0.029921 0.014224 -0.000068 0.039292 -0.010164 0.000246 -0.009337 0.057177 0.034902 -0.094070 -0.033959 0.017401 -0.007080 0.044034 0.021954 -0.041983 0.097598 0.021864 0.001182 0.012040 -0.066845 0.009306 -0.043318 -0.016866 0.021437 0.006902 -0.038645 0.009985 0.009841 -0.072248 0.004989 -0.022969 0.011411 -0.051998 0.028459 -0.054524 -0.056221 -0.022599 0.040928 0.029056 0.032758 0.000633 -0.015595 -0.003171 -0.063495 -0.034737 -0.065908 -0.019040 -0.065863 -0.007450 -0.037872 0.015542 0.003132 -0.184101 0.013346 0.004924 -0.048593 -0.083236 -0.032230 -0.010701 -0.010162 -0.020373 0.000311 -0.023502 -0.005514 -0.014414 0.059477 -0.059712 -0.053702 0.003530 -0.039064 0.060488 -0.031796 0.049347 -0.003179 -0.037105 -0.046339 -0.034052 -0.041748 -0.035942 -0.027180 -0.074015 -0.014823 -0.084414 -0.015063 -0.016937 0.016446 0.020837 -0.017293 -0.013102 -0.072312 -0.024002 -0.000074 -0.061017 0.018575 -0.006872 0.086182 -0.051325 0.016620 -0.037936 0.002772 -0.035611 -0.047295 -0.001467 0.014690 0.028233 0.034964 -0.027149 -0.017318 -0.010402 -0.083429 0.004632 0.002514 -0.052808 -0.049938 -0.030590 0.050456 0.055409 0.019576 -0.101462 -0.004087 0.023447 
