5 1600
GOOD 0.049564 0.032388 -0.076615 -0.003567 -0.068531 0.085599 0.010761 -0.006858 -0.036591 -0.023299 -0.016945 -0.060867 -0.006234 -0.054625 0.022049 -0.004072 0.044393 -0.031283 -0.007400 -0.053959 -0.001918 0.021828 0.029858 0.046722 0.037014 -0.003578 -0.006530 -0.019283 0.009122 0.019445 -0.009699 -0.016093 0.015977 0.030577 0.064991 -0.045845 -0.109169 -0.102450 0.047488 0.009270 -0.001853 0.008538 0.059321 0.001245 -0.010066 -0.012187 -0.004600 0.006331 -0.041178 0.010322 0.002582 -0.022614 0.044611 0.037422 -0.084208 -0.014819 0.028176 -0.071720 0.005010 0.049407 -0.009520 -0.062419 0.017782 -0.048400 -0.047595 -0.016530 0.012672 0.015684 -0.042100 0.050177 -0.020011 0.010899 -0.062180 -0.069830 0.029611 -0.004205 -0.008620 -0.014561 0.031458 -0.110943 0.055543 0.034233 0.014939 0.086039 0.010010 -0.033315 -0.079081 0.019748 0.022078 0.027575 -0.099614 0.083291 0.008764 -0.005078 0.037353 -0.022375 -0.010677 0.010908 0.029481 -0.032408 0.006511 0.013434 -0.009392 0.013655 -0.018823 -0.155673 0.003291 -0.023682 -0.064662 0.018999 0.036202 -0.001867 -0.086142 0.018405 0.003375 0.013041 -0.006565 -0.002741 -0.001814 0.005282 0.055292 0.010363 -0.140977 0.005753 0.034216 0.007630 0.034928 -0.028698 -0.098225 -0.125110 -0.026547 -0.039393 -0.020415 0.007938 0.069092 -0.016076 0.003525 0.006498 -0.055551 -0.078491 0.009035 -0.007138 -0.094620 0.008879 0.050748 -0.016117 -0.010857 -0.059676 -0.144482 -0.002947 -0.092182 0.004644 0.037004 -0.081130 -0.022204 -0.002211 -0.001929 0.008169 -0.059892 -0.094993 -0.030115 -0.016947 0.052799 0.012181 -0.022418 -0.009245 -0.038794 -0.000083 -0.109076 0.019492 0.005831 0.016072 -0.012504 -0.099734 0.014212 -0.032295 -0.009876 0.080976 0.007227 -0.073302 -0.000627 0.013340 0.006611 -0.050648 -0.013775 0.008184 0.022201 0.074837 -0.042786 0.012812 -0.049231 -0.071763 -0.148320 0.026342 -0.067927 -0.054986 -0.005091 0.002914 -0.066340 0.008926 0.006129 -0.027341 0.045465 -0.026250 -0.069197 -0.005368 -0.000658 -0.027936 -0.024264 0.045660 0.014930 -0.037336 0.033274 -0.083497 0.000750 0.018070 -0.002945 -0.008523 -0.010296 0.006898 0.000393 -0.091327 0.014658 0.022391 -0.077613 0.009475 0.016783 0.031705 -0.041572 0.045547 0.005960 -0.033612 0.038063 -0.055695 0.019192 0.046844 0.020939 -0.010825 0.003880 -0.128585 -0.062769 -0.009947 -0.044653 0.043591 0.033881 -0.108706 -0.085053 0.018554 -0.003765 -0.085104 0.001154 0.028397 -0.052529 -0.008085 0.009281 0.012307 0.000836 -0.024911 -0.052608 -0.016317 -0.082929 0.127612 -0.135275 -0.042326 -0.063103 -0.102615 -0.007378 -0.009179 0.018952 -0.003017 -0.010272 0.046859 -0.063919 -0.027533 0.039085 -0.009627 -0.035050 -0.036284 -0.003447 -0.003375 0.057138 -0.000377 0.023589 0.004357 0.006195 0.015052 -0.002290 -0.013549 0.023827 0.032998 0.023652 -0.020643 0.001616 0.026634 0.040030 0.000457 -0.028137 -0.017694 0.018995 0.017379 -0.041276 -0.080497 -0.099600 -0.042939 -0.009741 -0.125293 0.016438 -0.060721 0.004708 0.010680 0.015657 -0.008654 0.001655 0.008960 0.001862 0.010111 0.024347 -0.018265 -0.098767 -0.096830 -0.047017 0.004375 0.003345 0.036252 0.005819 -0.057745 -0.014801 0.028734 0.001098 -0.117945 -0.017990 0.057081 0.007240 -0.027909 0.031292 0.008899 -0.064378 0.017535 -0.043834 0.003603 0.019860 0.068403 -0.012673 -0.004760 0.030986 0.032035 0.020875 0.041744 -0.108319 -0.066447 0.040704 -0.015222 0.012074 0.049775 -0.070975 -0.069201 -0.084743 0.016996 0.037581 0.106460 -0.005854 -0.008019 -0.114131 0.015144 -0.073572 -0.095154 0.009804 0.007241 0.038015 0.004924 -0.019842 0.021395 0.019467 0.003189 -0.057168 -0.022509 -0.004395 -0.005112 0.011386 -0.008271 0.024829 0.048943 -0.007664 0.012073 0.003816 -0.028120 -0.043884 -0.058486 -0.022497 0.006899 -0.000504 -0.036047 0.013473 -0.060210 0.013024 0.009390 0.002603 -0.026757 0.025700 -0.022303 0.018643 0.014056 0.022848 -0.097769 0.009981 -0.010624 -0.022764 -0.074903 0.026560 0.007397 -0.124055 -0.005233 -0.091833 0.032362 0.009393 0.004946 0.019434 0.006026 -0.014432 0.012616 0.021257 -0.120144 -0.017472 -0.080406 0.000871 0.039580 -0.021119 0.042943 -0.013109 0.046947 0.007498 0.025793 0.004417 -0.063963 -0.107578 0.011415 -0.054128 -0.023949 -0.009147 -0.001910 0.004343 -0.007971 -0.017025 -0.040731 -0.061060 0.007749 0.010397 -0.093761 0.033580 0.062222 -0.032159 0.009478 0.018814 0.044760 -0.025234 0.015241 -0.086245 -0.054212 0.036852 0.015775 -0.001957 -0.014357 -0.015783 -0.014022 0.018148 0.001449 0.027017 0.027878 0.010129 -0.004869 -0.012275 -0.093592 0.009270 0.042320 -0.101357 -0.003652 -0.008464 0.017195 0.010362 0.002822 0.016713 -0.015024 0.005557 -0.002674 -0.005314 0.124256 -0.023816 0.005601 -0.058201 -0.012012 0.011614 -0.011834 0.011759 -0.082107 -0.002791 -0.012724 0.011912 0.009544 -0.110063 0.024325 -0.014328 -0.004511 -0.046753 -0.002578 0.004039 -0.058154 -0.010207 -0.054877 -0.011717 0.047238 -0.013765 -0.055666 0.006025 -0.016446 -0.016444 -0.054604 -0.035525 -0.066026 -0.043990 -0.070154 -0.050556 -0.062134 0.011036 0.016633 -0.082993 0.002838 -0.048228 -0.002509 0.010234 0.004215 0.010420 -0.045098 0.033623 -0.018401 0.038134 0.011954 0.007559 -0.069057 -0.076405 -0.017779 0.026757 -0.006115 0.024444 -0.055977 0.017655 -0.003679 -0.013563 -0.069007 0.017897 -0.045623 -0.026712 0.006090 -0.047127 0.007405 0.021776 0.032329 -0.060113 -0.007930 -0.031228 0.057352 0.019283 0.035945 0.008058 -0.081249 -0.067968 0.009069 -0.020432 -0.035865 0.018978 0.018572 -0.002186 0.044854 -0.000885 0.002390 0.004405 -0.071483 -0.005485 0.000288 -0.083368 -0.001709 0.090065 -0.018027 0.007986 -0.020244 0.000617 0.018617 0.043690 -0.063065 -0.082552 0.026141 -0.054362 -0.029982 0.002118 0.007693 -0.054365 -0.010748 0.017211 -0.002433 -0.013837 -0.055622 -0.043167 0.005249 0.044958 0.000011 -0.002240 0.001423 -0.062737 -0.084717 0.020068 -0.014379 0.006298 -0.004869 -0.087123 -0.065809 0.018643 -0.080408 -0.019242 -0.008093 -0.025843 0.013732 0.012625 0.013099 -0.009171 0.007620 0.035116 0.008974 -0.044870 0.012998 -0.007591 -0.047362 -0.028587 -0.001550 0.011583 0.005671 -0.082854 0.001172 -0.009946 0.016845 -0.006858 0.000706 -0.052344 -0.010316 0.018796 -0.000633 0.009727 -0.022217 -0.025023 -0.085041 -0.040471 0.013181 -0.010496 -0.008125 0.008166 0.021212 -0.059404 -0.000067 -0.002946 0.007092 -0.004523 0.012184 0.000797 -0.051880 -0.065735 -0.009695 -0.060277 -0.073130 -0.044227 0.017341 -0.102071 -0.001322 0.039938 0.005220 0.012185 -0.008123 0.003144 0.029923 0.004588 -0.012228 0.007528 0.042272 -0.016159 0.020076 0.004049 0.033969 0.026294 -0.048554 0.004991 -0.065922 -0.086313 0.004493 -0.040056 -0.000900 0.012422 -0.089554 -0.058631 -0.090047 -0.001315 0.007445 0.016622 -0.006318 -0.007329 0.003440 0.002710 -0.053569 0.022863 0.003790 0.008840 0.015808 0.025751 0.016341 0.006298 0.014862 -0.007704 0.010086 -0.032624 -0.018802 -0.000401 -0.006734 0.020512 -0.037137 0.039175 0.004728 0.010112 -0.061727 0.006452 0.022277 0.020042 0.008095 0.023757 0.006264 -0.013336 0.004980 -0.084799 0.017871 0.014324 0.023668 -0.027903 0.006629 -0.074941 -0.003756 -0.073556 0.004892 -0.034097 0.015353 0.024993 0.013305 -0.007230 0.012598 0.012172 -0.007442 -0.089593 -0.075436 -0.042599 -0.010726 0.016881 -0.055671 0.011260 -0.004559 -0.010095 0.031841 -0.031293 0.018220 0.025199 -0.043639 0.019596 0.004872 -0.018393 0.023748 -0.023477 -0.074448 -0.015457 0.014840 -0.001683 -0.075926 -0.062326 0.007183 0.032296 -0.000021 0.001406 0.014432 0.009512 0.006263 -0.003756 0.054460 0.011963 -0.028178 0.043230 -0.059241 -0.003793 -0.047319 0.035233 -0.034418 -0.090268 0.009971 -0.016217 0.020539 0.024733 0.029514 -0.067762 -0.001892 -0.000691 0.014282 0.029410 -0.034322 0.036302 -0.054302 0.015391 -0.058980 -0.027946 -0.046900 -0.001155 -0.048541 -0.002500 -0.085456 -0.003923 -0.004579 0.048416 -0.020501 -0.055676 -0.009353 0.000225 -0.006969 -0.076466 -0.025937 0.033405 0.017932 0.002803 0.005219 0.014613 0.019770 0.006992 -0.001661 -0.006588 -0.013413 -0.090069 -0.007497 0.021298 0.005555 -0.030425 -0.058345 -0.078710 0.012401 0.017280 -0.009791 0.020173 -0.003066 0.008817 0.005764 0.013833 0.034966 -0.080787 0.004871 0.018200 -0.017125 0.024035 -0.012080 0.006879 -0.002464 -0.005406 -0.086210 -0.011168 0.007560 -0.002348 0.049498 -0.010154 0.010190 -0.139802 -0.068436 0.038616 0.005007 0.005295 -0.053282 -0.074179 -0.018704 0.032029 0.001944 0.023639 -0.024848 0.021548 0.006694 0.020684 0.013697 0.004905 0.018224 0.042909 0.025934 -0.049244 0.036196 -0.000406 -0.004407 0.014309 -0.041469 -0.056979 0.020829 0.017206 -0.004989 0.025638 0.000520 -0.047397 0.028844 -0.007320 -0.091033 -0.023290 -0.061077 -0.021372 -0.002644 -0.015407 -0.012466 0.007449 0.019094 0.005731 0.008209 0.001292 0.011787 -0.062252 0.017768 0.011132 -0.015415 0.008939 -0.067108 -0.038004 -0.041809 -0.075602 0.012333 0.016449 -0.001877 0.026622 0.078485 0.016301 0.031608 0.002966 0.019112 0.020266 -0.075019 0.031381 0.009572 -0.023001 -0.006997 -0.046827 0.020860 -0.005936 -0.005677 0.000465 0.000803 -0.030164 -0.038050 -0.046415 0.023478 0.019366 0.008157 0.022906 -0.015583 0.006251 -0.069208 0.028813 -0.016689 0.000022 0.018161 -0.051292 -0.004591 0.007099 -0.097418 -0.024765 -0.013819 0.042220 0.010639 0.015324 -0.059783 0.020202 0.012173 0.048623 0.022304 0.023489 0.006576 -0.023184 -0.019683 0.044443 -0.027319 -0.079113 -0.037179 -0.033752 0.050124 0.003616 -0.049221 0.031539 0.033837 0.012117 -0.006215 -0.003877 -0.019374 0.008374 -0.013858 0.028177 -0.003928 0.047542 0.027736 -0.008990 -0.033673 0.064071 0.026063 0.036973 -0.030942 -0.055019 0.015978 -0.024100 0.026165 0.016517 -0.042752 0.004723 -0.001192 -0.000998 -0.077630 -0.027202 -0.022863 0.028563 0.025347 -0.020879 -0.007546 -0.093944 -0.063340 0.017424 0.007888 -0.047583 0.000114 -0.041002 -0.089339 -0.034481 -0.039530 -0.003911 0.025166 0.083226 -0.029202 -0.089494 -0.083717 -0.087649 -0.060736 -0.026703 0.020837 0.058545 0.033963 0.030321 0.017294 -0.029362 -0.006761 0.006508 -0.042619 0.042257 0.039631 -0.013944 -0.017561 -0.059309 -0.046562 0.058606 -0.092369 0.008085 -0.046695 -0.027753 0.001985 0.014530 -0.057328 -0.014974 -0.001613 -0.049658 0.028697 0.027588 0.009957 -0.048567 0.004540 0.015709 0.009447 0.024203 -0.051696 0.039989 0.000616 0.047121 -0.078583 0.003467 0.020227 0.019722 0.042842 -0.110017 -0.002167 -0.100174 -0.022995 -0.006889 -0.070180 -0.002983 -0.009207 -0.077253 0.033116 0.008353 -0.028481 -0.020752 0.003303 -0.002374 0.005628 -0.020003 -0.035104 0.035567 0.007416 -0.008429 -0.079179 0.034881 0.018985 0.018368 -0.027589 0.026609 -0.010689 0.013660 0.018866 -0.003148 -0.073392 -0.073461 -0.011172 -0.080565 0.000965 0.013344 -0.064988 -0.106019 -0.044222 0.038532 0.019071 0.019302 -0.015614 0.030108 -0.069335 0.031210 0.029975 0.004121 0.014925 -0.010525 -0.064007 0.034058 0.009825 0.013719 -0.033219 0.000419 0.005073 -0.042347 -0.092883 0.015458 0.026733 -0.038522 0.012697 -0.005363 0.011714 0.049862 -0.043243 -0.076293 0.017550 0.027254 -0.050400 0.025673 -0.013775 0.004737 -0.003275 -0.017378 0.011590 -0.022999 -0.024025 -0.087747 -0.061454 -0.039620 0.017335 -0.091447 -0.030643 -0.008971 0.001351 -0.065251 -0.077389 0.033020 0.009392 0.018298 0.001718 0.027343 -0.002527 -0.002696 -0.089711 0.009068 -0.039517 -0.071058 -0.013482 -0.001035 -0.021896 0.024750 -0.068117 -0.098235 -0.008650 -0.068636 -0.105614 0.034264 -0.051145 0.018117 0.025045 0.016630 -0.036215 0.016264 0.007106 -0.030402 0.029487 -0.014348 0.010086 0.001440 0.000373 -0.001460 0.011038 -0.003808 -0.014637 0.006143 -0.046213 0.034703 -0.013935 0.039695 -0.054292 -0.018344 -0.020511 -0.111245 0.004270 -0.002700 -0.002127 0.016408 -0.011783 -0.009954 0.004582 0.001955 0.046377 0.016417 0.057955 0.015661 -0.047796 -0.062720 0.021200 0.045093 -0.092315 -0.106497 0.021068 -0.079786 0.040564 0.030816 0.015423 -0.009512 0.014956 -0.082019 0.003761 -0.002097 -0.041936 0.030471 -0.015191 0.006049 -0.090065 0.004864 -0.009444 -0.088281 -0.005966 0.012104 -0.017822 -0.036098 0.014602 0.032430 0.017929 -0.002787 0.011200 -0.016257 -0.074068 0.006327 0.021480 0.038306 -0.006791 0.011340 -0.069138 0.023232 0.017562 -0.008895 -0.000118 -0.020830 0.030601 -0.084348 -0.006130 0.003035 -0.060284 -0.009409 -0.074839 -0.064499 -0.006822 -0.091462 0.000099 0.011333 -0.021821 -0.014512 -0.001760 -0.017539 0.003919 0.010408 0.005832 0.015224 -0.001245 -0.017971 -0.017737 -0.039420 0.005217 -0.014763 0.008756 -0.077230 -0.060892 0.010271 -0.062072 -0.041818 -0.057972 -0.008718 -0.035211 0.053438 0.011332 0.006814 -0.027349 -0.033235 -0.007191 -0.049008 0.008337 0.006763 -0.042254 -0.039663 0.018122 0.012872 -0.047873 -0.070354 0.021340 -0.006754 0.032187 0.000145 -0.000067 0.011565 0.000794 0.000289 -0.051609 -0.049225 -0.046987 0.052120 -0.016497 0.008413 -0.015552 0.024122 0.023996 0.003974 -0.073975 0.003497 0.006766 -0.063302 -0.044158 0.002869 0.007512 -0.036450 -0.003226 -0.031280 0.011549 -0.036759 -0.021198 0.042931 0.126294 0.034496 0.017791 -0.004219 -0.096034 0.026749 0.017582 0.032350 -0.057814 0.010006 -0.042341 0.048424 -0.007391 0.022196 0.015455 -0.005957 0.020365 0.050297 -0.019577 0.008159 -0.036569 0.003176 0.009951 0.007526 -0.055130 -0.048838 -0.103335 0.011208 -0.040037 -0.047944 -0.020294 0.004965 -0.015652 0.008838 -0.019147 0.051243 0.023426 0.001028 0.035268 -0.006025 0.001134 0.007262 -0.021397 0.045000 0.038402 0.001117 -0.068075 -0.064459 -0.000907 0.013346 -0.011330 -0.043352 0.041487 0.022825 -0.123538 -0.013372 0.014241 -0.044814 -0.066187 -0.027514 0.050859 -0.052605 -0.062113 -0.095397 -0.072504 -0.006408 0.029973 -0.037499 0.038091 -0.063881 0.001564 0.015516 0.004000 -0.034434 -0.060706 0.015424 -0.089286 0.011424 0.002852 0.004736 -0.034336 -0.010474 -0.071216 0.019515 -0.073951 0.030820 -0.005521 0.034869 -0.028335 0.007026 0.024309 -0.003583 -0.003997 -0.052358 0.008608 0.006896 -0.082055 -0.011579 -0.040614 0.022255 0.004688 -0.029471 0.001037 -0.024387 0.008717 -0.023723 -0.000679 -0.070792 -0.067521 0.002790 -0.039323 0.007125 0.022735 -0.001173 -0.012301 -0.020829 -0.035316 -0.060315 -0.043101 0.036142 0.029079 0.023852 -0.006182 -0.008958 -0.031553 0.000187 -0.067693 -0.077438 -0.001999 0.042002 -0.031100 -0.009477 -0.022601 0.040845 -0.052985 0.007490 -0.043640 0.049518 0.002800 -0.053341 0.003188 -0.028694 -0.006720 -0.003898 -0.015519 0.009405 -0.037780 -0.013163 -0.040543 -0.021765 -0.007042 0.007405 0.024463 0.015594 0.004343 -0.006792 -0.069938 -0.002741 -0.062591 -0.004846 0.006717 0.027363 -0.045355 -0.118011 -0.018238 -0.031679 -0.004128 0.009663 -0.000557 0.003399 -0.039257 0.019961 0.013386 0.018268 -0.142770 0.021637 -0.035947 0.008141 -0.009166 0.001561 -0.041499 0.012002 0.016619 -0.072326 -0.042356 0.021057 -0.029884 0.048250 0.015525 -0.009749 0.017046 0.032845 -0.063240 -0.050140 0.018921 0.006256 0.032036 0.011606 -0.068819 0.041817 0.014975 0.039763 0.000825 -0.021771 -0.058562 -0.020067 0.007045 -0.012937 0.014023 0.013260 -0.006807 -0.008750 -0.044230 0.007061 0.015263 -0.081832 -0.070455 0.091995 -0.013008 0.016678 0.024346 -0.016166 -0.020809 -0.010413 -0.008905 -0.023047 -0.001369 -0.009490 -0.000718 -0.039887 -0.047538 -0.052009 -0.003047 0.005391 0.016095 -0.012473 0.047663 0.055127 -0.010493 0.016296 -0.079233 -0.057053 -0.035013 
AVERAGE -0.026262 0.078165 -0.027958 0.000381 0.043693 -0.020957 -0.094577 -0.146994 -0.028120 -0.051217 -0.028262 -0.075707 0.021019 -0.072822 0.013784 0.017063 0.045917 0.000559 -0.016424 -0.073661 -0.026313 0.020091 0.021873 0.054592 -0.032380 -0.152624 0.010900 -0.018413 -0.026545 0.022001 -0.025766 0.035344 0.009493 0.010980 -0.029130 -0.053593 -0.092163 -0.072172 -0.088692 -0.115585 -0.106267 -0.084633 -0.004888 -0.002877 -0.011761 -0.037568 0.024501 -0.043230 -0.069401 -0.087189 -0.098405 -0.106408 0.014916 -0.014044 0.007721 -0.009810 0.004123 -0.067921 -0.012578 0.031093 -0.002071 -0.065096 -0.066473 -0.054998 0.020393 -0.080439 -0.004837 0.051381 -0.048012 0.037146 -0.081291 -0.008160 0.013288 -0.129812 -0.071915 0.004683 -0.036293 -0.050039 0.017813 0.021400 0.004411 -0.054527 0.041130 0.023705 -0.055883 -0.035836 -0.009990 -0.018705 0.013863 -0.012366 -0.017914 -0.023319 -0.004408 0.007019 0.031712 0.017970 -0.013956 -0.047255 0.039168 -0.001394 0.014265 0.024402 0.025348 0.024526 0.012930 -0.009221 -0.073008 0.017334 -0.125900 -0.063366 -0.008840 0.004913 0.022817 -0.045446 -0.049810 -0.011861 -0.006812 0.022952 0.002980 -0.101983 0.028692 0.015835 -0.022224 0.061195 0.051732 0.040321 -0.021585 -0.044466 0.033442 0.019257 0.011270 -0.018055 -0.015755 -0.029128 -0.063928 0.022304 -0.090558 0.013093 -0.031735 -0.053561 -0.042862 -0.084806 -0.104131 0.007799 -0.047856 0.012263 0.006234 -0.043165 -0.074733 0.027154 0.024544 0.021582 -0.000020 -0.022280 -0.067013 0.024746 0.009761 -0.046171 0.029354 -0.051629 -0.037395 -0.005927 -0.018196 0.006648 0.000685 0.062496 0.000093 0.001922 0.027566 0.009559 -0.039480 0.023464 -0.028995 0.013382 0.034322 -0.037126 0.035163 -0.030159 -0.018050 -0.030092 -0.019412 0.041507 0.036027 0.042719 -0.074319 0.033826 0.047699 -0.039936 -0.002084 0.005293 -0.000414 -0.004056 -0.006806 -0.082266 -0.030635 0.064177 -0.090035 -0.007694 -0.027426 -0.074409 -0.047837 0.010521 0.049827 0.012695 0.013167 0.068913 -0.021000 -0.011624 0.015626 0.111967 -0.001248 -0.055359 -0.016534 -0.080249 -0.007409 0.047489 -0.071827 0.008419 0.027874 0.023270 -0.090331 0.068649 -0.072647 0.019790 0.013351 0.042880 -0.050355 -0.059484 0.036487 -0.009568 -0.002710 -0.008523 -0.002041 -0.068606 0.004414 -0.069549 0.042655 0.009008 -0.025461 0.001783 0.020465 -0.048827 -0.000662 -0.006401 0.002140 0.030295 0.024242 0.028976 -0.056699 -0.010885 -0.053511 0.023045 0.014096 0.037259 0.019693 0.010946 -0.023072 -0.003746 -0.006875 0.037347 -0.055330 -0.001216 -0.038095 -0.017471 0.031202 0.061079 -0.040796 -0.037397 -0.011854 -0.066670 -0.058511 -0.047400 -0.050948 -0.024237 -0.014656 -0.140032 -0.014218 0.020553 0.012091 -0.042603 0.007397 0.000874 -0.007285 0.019372 -0.050043 -0.012947 -0.098511 0.001047 0.017604 -0.107645 -0.066294 -0.028011 -0.059836 0.026444 0.026257 0.003950 0.001514 -0.038830 0.048719 -0.019269 -0.054718 -0.093447 -0.174209 -0.004754 -0.067027 0.052674 0.024942 -0.023882 -0.023649 -0.095279 -0.038451 0.026640 0.034110 -0.058168 -0.017266 0.014383 -0.055172 -0.025729 0.015369 0.018469 -0.046964 -0.027044 -0.012570 0.011792 0.007746 -0.033316 0.040737 -0.029816 0.030057 0.026739 -0.044916 -0.006273 -0.007677 0.018336 -0.046900 0.023971 -0.074281 -0.002858 -0.041009 0.003424 -0.105068 -0.025381 -0.024003 0.025345 -0.021761 -0.090103 0.012602 0.045304 -0.023150 -0.025299 -0.014777 -0.036971 -0.032148 0.033516 -0.001961 -0.007362 0.052728 0.012308 0.040814 0.001150 0.047676 0.000464 0.016621 0.013236 -0.094487 -0.148759 0.019666 -0.004019 0.028253 0.025274 -0.001258 -0.006936 -0.058399 0.038019 -0.051567 -0.013426 -0.012430 -0.054403 -0.027681 0.008095 0.018294 -0.007738 -0.051677 -0.001281 -0.092026 0.038834 -0.011408 0.004852 -0.022542 -0.013570 0.017444 0.076854 -0.025395 -0.028571 -0.025813 -0.032107 -0.067506 -0.009441 0.017639 0.036593 -0.047746 0.010679 -0.053112 -0.003069 0.048941 -0.010662 0.014801 -0.044417 -0.005425 -0.027810 -0.003157 -0.020236 0.035532 0.062342 -0.045098 -0.022633 -0.078991 -0.000263 -0.007201 -0.065849 -0.036217 -0.082939 -0.023995 -0.043999 0.009265 -0.078605 0.017028 0.021314 -0.058813 -0.066711 -0.022077 0.045916 0.012707 0.023099 0.012963 -0.049342 -0.038992 -0.069201 -0.013419 -0.024367 0.045950 -0.045887 -0.012040 -0.011521 0.031007 0.009359 0.063564 -0.057234 -0.096750 -0.006418 0.031980 -0.082451 -0.049640 0.008212 -0.052626 -0.019108 -0.060321 0.022464 -0.004937 0.021188 -0.077731 0.001961 -0.007758 0.024766 0.018679 0.027104 0.050840 0.051626 -0.000625 -0.014351 0.021543 -0.052470 0.006854 -0.043741 0.001994 -0.027972 -0.153526 -0.005352 -0.022837 -0.097917 -0.005506 -0.038135 -0.108953 -0.004330 -0.079368 -0.013755 -0.102892 -0.005384 -0.034836 0.006560 -0.001611 -0.004946 0.045031 0.001856 0.005648 0.001907 -0.011359 -0.064317 -0.084188 0.031901 -0.018069 -0.013393 -0.037874 0.009586 -0.070390 0.015195 -0.002780 -0.050714 -0.013650 -0.024814 -0.043656 -0.019473 -0.059762 -0.013307 0.009663 -0.020466 -0.013035 -0.001790 0.019507 0.018958 -0.059756 0.031703 -0.030628 0.010196 -0.100149 0.026152 -0.040071 -0.000146 0.018008 -0.028142 0.035056 0.007924 0.008366 -0.009827 -0.008724 0.013371 -0.055379 -0.008382 -0.006721 0.017951 0.012573 -0.027793 -0.024752 -0.009705 0.029058 -0.026350 0.017221 -0.018277 0.033347 -0.012866 0.016023 -0.032786 0.008508 -0.012102 0.024849 -0.005636 0.012558 -0.028016 0.012862 -0.038671 0.039729 -0.048256 -0.033684 -0.048687 0.003363 -0.036419 -0.091306 -0.021914 0.027915 0.043224 -0.075462 -0.021205 0.001731 0.007442 -0.041479 -0.045567 0.041521 -0.025127 0.010668 -0.054961 0.103686 0.014864 -0.019014 -0.013196 0.008236 0.013064 -0.021237 -0.013025 -0.099919 -0.040425 0.019324 0.022001 -0.075625 -0.052514 0.015408 0.016271 -0.054911 -0.010689 -0.014558 -0.063374 -0.049028 0.012312 -0.044645 0.008942 -0.026632 0.000321 0.021298 0.013701 -0.017637 -0.043255 -0.036879 0.020097 -0.070745 -0.065089 0.013537 0.006543 -0.005774 0.003352 -0.083969 0.015958 -0.057521 0.032195 0.010355 -0.037817 0.033627 -0.005451 -0.052038 -0.002139 -0.002201 -0.020911 0.007304 -0.063455 -0.047514 -0.007953 0.011856 -0.050564 0.025045 -0.028819 -0.012183 -0.032343 -0.090748 -0.006226 0.006139 0.025421 -0.060814 0.030543 -0.006842 -0.031995 -0.023133 -0.042688 -0.004517 0.002250 0.014806 -0.043354 -0.069494 0.005226 -0.009627 -0.013096 -0.043431 0.047233 -0.066922 -0.032473 0.013739 -0.066861 -0.023069 -0.039370 -0.091055 -0.029037 -0.072052 -0.000628 0.022039 0.023953 -0.049051 0.037116 0.006287 0.039723 0.006625 -0.054694 0.031475 -0.001545 -0.008787 -0.035452 -0.028698 0.030262 0.035816 -0.006607 0.009831 0.010180 -0.087259 -0.014100 -0.008900 0.023666 -0.024742 0.019983 0.000952 -0.023841 0.016897 0.021606 0.042099 0.015696 -0.058437 -0.005156 0.000637 0.035388 -0.055738 0.007349 0.009966 -0.021658 -0.014834 0.015063 -0.068719 0.004522 0.002408 0.033107 -0.044341 0.014720 0.016336 0.015645 -0.017248 0.065885 -0.034745 -0.038121 -0.004872 -0.008416 -0.097960 -0.011406 -0.045007 0.012859 0.043505 -0.020057 -0.025066 -0.004483 -0.106732 -0.007436 0.008167 -0.053151 -0.015997 -0.002331 -0.014175 -0.017989 0.025030 -0.026609 -0.063225 0.030065 -0.075271 0.015572 -0.047052 0.026495 -0.078563 -0.025474 -0.063249 -0.071663 0.005710 -0.022614 -0.036899 0.035186 0.019070 -0.023867 0.003878 0.026758 0.035951 0.029336 -0.034753 -0.017390 -0.005047 0.017789 -0.012319 -0.052913 0.077316 0.011954 -0.068543 -0.005641 -0.014968 -0.044347 -0.023309 -0.012470 -0.082636 -0.073879 0.008685 -0.037240 -0.040209 0.014999 -0.019985 -0.024415 -0.028121 0.008258 -0.014874 -0.051951 -0.010535 0.006728 -0.057768 0.037930 -0.024467 0.011229 -0.000558 0.012990 -0.089904 -0.020221 -0.001223 -0.031581 0.013949 -0.048919 -0.003296 -0.020859 0.023674 -0.013198 -0.041858 -0.020933 0.014681 0.019204 -0.000356 -0.040234 -0.002406 -0.018740 -0.015802 0.019885 -0.010474 0.022587 0.024821 -0.015103 -0.009495 -0.009785 -0.054588 0.002755 0.043798 -0.006577 -0.064268 0.076829 -0.008335 0.000096 -0.039961 0.030194 0.024899 -0.000850 -0.025625 -0.037988 -0.003408 0.005429 0.000484 0.029745 -0.003632 0.016352 -0.008340 -0.047140 -0.005063 -0.108147 0.012504 0.009564 -0.065722 0.008335 -0.027870 -0.015431 -0.048116 -0.071549 0.011265 -0.013127 -0.040861 -0.014262 -0.020949 -0.070772 0.017282 -0.079844 -0.019848 -0.077049 -0.058241 0.026305 -0.095550 0.031877 -0.034834 -0.003633 -0.003518 -0.060771 -0.025052 -0.015208 -0.002974 0.009270 -0.073115 -0.063345 -0.013470 -0.022209 -0.010608 -0.050288 0.012588 0.020130 -0.031388 -0.000365 -0.033882 0.016202 0.016423 -0.063771 0.001406 0.011015 -0.031615 0.026734 -0.072764 -0.052552 0.027351 0.014789 0.005683 -0.022781 0.006975 -0.055622 -0.074497 0.014629 -0.055645 -0.023351 -0.003953 0.002574 0.004368 -0.042170 -0.028929 0.014038 0.013233 -0.007006 -0.002942 -0.028907 0.020571 0.006379 -0.035018 -0.055568 0.021805 -0.010338 0.004906 0.032437 -0.007562 0.009500 -0.027680 -0.006532 -0.009578 -0.057409 -0.000343 0.029114 0.023809 -0.059867 -0.035598 -0.021183 0.022211 0.017686 -0.000584 -0.032368 0.021990 0.030928 0.005434 0.007261 -0.009375 0.017407 0.033309 0.040576 -0.056026 0.002933 -0.017930 -0.034354 0.018377 -0.088614 0.023827 0.012469 -0.000126 0.020553 -0.011758 -0.003541 0.009046 0.004271 -0.019138 0.082685 -0.018574 -0.037772 0.014171 -0.049863 0.012131 -0.055604 0.032802 -0.051313 0.043706 0.035112 -0.077757 -0.018629 -0.049665 0.000796 -0.055807 -0.008117 0.016562 -0.009584 0.012008 0.042411 0.041650 0.003065 0.004072 -0.005195 -0.020945 0.008426 0.003333 0.009416 -0.011727 -0.018389 -0.044796 -0.004913 0.024971 -0.014199 0.040664 -0.034773 0.025021 0.004861 0.001266 -0.044757 0.004672 -0.021747 0.016753 -0.018516 -0.078121 0.006333 0.001084 -0.050961 0.042922 -0.018187 0.021153 -0.012100 -0.082666 -0.019432 0.018255 -0.046424 -0.052676 -0.002613 -0.065051 -0.048306 -0.068345 -0.002874 -0.013965 -0.007031 -0.094766 -0.027890 -0.014401 -0.002307 -0.021450 -0.001791 -0.090179 0.028393 0.016577 0.020897 -0.059277 -0.005337 -0.053922 -0.002427 -0.020894 -0.070892 0.017585 -0.004001 -0.092244 -0.002558 -0.064316 -0.010563 0.009374 -0.040547 0.009940 -0.012977 0.016703 -0.025575 -0.036736 0.015912 -0.018123 0.013696 -0.040688 -0.055770 -0.012806 0.030697 -0.022108 -0.068877 -0.104396 -0.015164 0.001735 -0.026806 -0.015486 -0.062016 0.077496 0.019357 -0.011615 0.037433 0.000838 0.035998 -0.048676 0.024847 -0.102865 -0.007060 -0.070162 0.011047 -0.003414 -0.026264 0.005197 0.000513 -0.033580 -0.002765 0.023327 0.014865 0.016978 -0.027528 0.014416 -0.081192 -0.000916 0.010415 -0.016225 -0.020699 0.032994 0.003771 -0.035108 -0.002733 0.048257 -0.021836 0.025560 -0.044147 -0.014508 0.007247 0.024072 -0.059291 -0.024645 -0.090862 -0.042871 -0.013832 -0.019392 0.010252 -0.012639 -0.046730 0.011323 0.032782 0.023236 0.027892 -0.016992 0.002244 -0.019435 -0.056530 -0.077943 0.024893 0.013682 -0.002410 -0.018121 -0.055655 -0.056522 0.012520 -0.055159 -0.008758 -0.047939 -0.113505 0.025354 0.066934 0.026343 -0.000171 -0.097081 0.011048 -0.055768 0.024646 -0.028134 -0.068012 -0.027714 -0.045378 0.008051 -0.005887 -0.018736 -0.056306 0.001004 -0.042463 -0.039567 -0.006229 0.005887 0.020240 0.027980 -0.037213 -0.053603 -0.028241 -0.097107 0.032209 0.022050 -0.029865 0.008913 -0.035025 -0.013580 0.089213 0.018552 -0.029818 -0.022229 0.001904 -0.051699 -0.008319 -0.014069 -0.007522 -0.027551 -0.029581 0.072610 -0.020611 0.016174 -0.001839 -0.053537 -0.062124 0.022806 0.000318 -0.028530 0.030647 -0.015160 0.013542 -0.055569 -0.018549 0.025633 0.090059 0.027141 -0.026672 -0.043873 0.035950 -0.035721 0.009046 -0.041398 -0.127304 -0.067740 0.017952 -0.046313 -0.056584 0.018491 -0.093041 -0.030675 -0.007043 -0.041599 -0.028310 -0.071921 -0.046331 -0.070768 0.000112 -0.054838 -0.020973 -0.072061 -0.036680 0.019750 0.034652 -0.028185 0.016034 0.044774 -0.030073 -0.035324 -0.039965 -0.042979 0.025145 0.028468 0.006281 -0.042911 -0.008975 -0.036837 0.016975 -0.073896 -0.002187 -0.006783 -0.007588 -0.091970 -0.000136 0.005615 0.022988 -0.072048 0.031968 -0.017974 0.011711 -0.034611 -0.070735 -0.031757 0.033126 0.017445 0.025225 -0.002574 -0.048064 -0.017304 -0.035094 -0.015650 -0.070778 -0.093087 0.016723 -0.005162 -0.018830 0.036531 -0.047521 -0.059469 0.024477 0.042022 -0.017099 0.009571 -0.023680 0.019925 -0.077486 -0.007376 -0.022353 -0.016420 0.040939 -0.077914 0.032798 -0.004117 -0.004208 -0.084099 0.056451 -0.021981 0.045343 -0.064037 0.019609 -0.025442 0.001304 0.019570 -0.013407 0.014289 -0.008339 -0.066325 -0.010453 -0.058531 -0.019077 0.010388 -0.030571 -0.030944 -0.053713 -0.091685 -0.081188 0.045999 0.014968 0.003872 0.018669 -0.042230 -0.038394 -0.078513 0.006636 0.031049 0.065289 -0.002055 -0.039664 0.052568 -0.009819 0.020157 -0.075273 0.012248 0.036042 0.022042 0.017391 0.006249 -0.005898 0.003313 -0.039928 -0.043771 -0.008232 -0.006588 -0.012860 0.012914 -0.060674 0.010635 0.024804 -0.103570 -0.028717 -0.001558 -0.004289 -0.038544 -0.010358 -0.017317 0.022477 0.036467 0.025563 0.011995 -0.003161 -0.014122 0.002210 0.003261 -0.026757 -0.041299 0.091606 -0.000106 0.018128 -0.030689 -0.001388 0.034052 -0.051668 -0.008450 -0.032968 0.037703 -0.046275 0.018383 -0.011411 -0.028115 -0.059511 -0.043794 -0.014212 0.000282 -0.012287 -0.012081 0.023039 0.003168 -0.019699 -0.053343 -0.036918 0.040074 -0.037342 0.004013 -0.015588 0.014188 -0.075492 -0.055138 -0.084753 -0.038904 0.029136 -0.062922 0.005925 0.009194 -0.037893 -0.048779 -0.018856 0.044031 0.021728 0.008432 0.000703 -0.034714 -0.053902 0.002971 -0.018570 0.007179 -0.044866 -0.060087 -0.111686 0.002824 -0.025774 0.001854 -0.040694 0.047112 0.025465 -0.038254 0.010953 -0.079273 0.019257 0.029287 0.022892 -0.060394 -0.022412 -0.035804 0.007892 0.019111 0.027288 0.005208 -0.029031 -0.034384 -0.002749 -0.038693 -0.082011 0.008348 -0.048146 -0.016871 -0.031624 -0.003736 -0.041710 -0.057701 0.005074 0.029277 -0.007038 -0.004523 -0.026266 -0.048516 -0.088345 -0.031451 -0.015514 -0.019444 -0.010496 0.009018 -0.042401 0.046219 0.029144 -0.042111 -0.010216 0.016552 0.020513 -0.006413 0.008710 -0.028696 -0.068643 -0.027141 0.042853 -0.028148 -0.048126 -0.010985 -0.008964 -0.027658 0.017657 -0.028550 -0.006626 -0.045943 -0.005280 0.015758 -0.058994 -0.002972 0.038074 -0.006446 -0.020149 0.017380 -0.051288 0.018176 -0.075094 -0.043925 -0.004492 -0.040044 0.024716 0.023051 0.005958 -0.009261 -0.013082 0.032630 0.012914 -0.096605 0.022907 0.027423 0.001782 -0.053978 0.031267 -0.018119 0.032839 0.027506 -0.071303 0.044356 -0.004930 -0.035927 -0.037120 -0.052112 0.043938 0.020035 -0.071482 -0.034738 0.028633 -0.015824 0.038658 -0.065332 -0.011729 0.025785 -0.034121 -0.098450 -0.073821 0.019139 -0.083298 -0.052019 -0.012031 0.029945 0.009027 -0.055679 0.023367 -0.047059 -0.104728 0.071182 0.016369 0.042142 -0.016289 -0.063824 -0.019069 0.002187 -0.029048 0.051580 0.007552 -0.065078 0.001715 -0.038866 -0.001998 -0.037358 -0.052043 0.015110 -0.089942 -0.009497 -0.027857 0.015363 0.053241 -0.041821 -0.002017 -0.015139 0.038419 -0.045078 0.017807 0.029544 0.020186 -0.026473 0.000557 0.021519 -0.026143 -0.094705 0.003374 -0.003898 0.010878 0.036842 -0.006338 -0.057064 -0.035225 0.013015 -0.007698 0.004624 -0.019806 0.001584 -0.001060 0.028877 -0.062188 0.039118 0.004580 -0.093207 0.020582 -0.022000 -0.056971 -0.057949 0.004633 0.046959 0.040857 -0.104246 -0.015965 -0.007344 -0.052698 
EXCELLENT 0.113546 -0.007284 -0.013189 0.029906 -0.141302 -0.016785 -0.031995 0.029435 -0.115052 -0.052690 -0.002851 -0.116284 -0.014482 -0.053063 0.020187 0.008456 0.015259 -0.043115 -0.004529 0.015220 0.064773 0.040801 0.060602 -0.012801 0.013195 -0.049370 -0.005143 -0.024465 0.030437 0.049080 -0.055272 0.025932 -0.004553 0.017276 -0.010817 -0.038547 -0.129604 -0.082452 0.062469 0.055559 0.018012 0.013180 0.005517 -0.044854 -0.010311 0.012266 -0.026433 0.042339 -0.005919 -0.021963 -0.015898 -0.084159 0.048326 0.000732 0.041576 -0.004343 0.011005 -0.039895 0.038713 0.128661 0.018218 -0.030398 0.016247 -0.050306 -0.032927 0.014966 0.098805 -0.004898 -0.002055 0.064165 -0.020239 -0.011162 0.054110 -0.029543 -0.005957 -0.044453 -0.002660 0.008663 0.015388 -0.146027 0.003017 -0.027228 0.077068 -0.003997 -0.000618 -0.034203 -0.067095 -0.014250 0.043272 0.005346 -0.026946 0.110579 -0.011009 0.024453 0.007760 -0.033149 0.024496 0.100146 0.025264 -0.077669 0.077292 0.030312 -0.040846 0.037155 -0.026732 -0.004734 0.062651 -0.099758 -0.050177 -0.002609 0.108339 -0.020078 -0.061693 -0.066406 -0.017066 0.095434 -0.029395 -0.063455 -0.047428 0.055688 0.042816 -0.037188 -0.095279 0.034001 0.097486 0.045190 0.006708 -0.064731 0.011665 -0.143359 0.002896 -0.007761 -0.034231 0.030455 0.055827 -0.020902 0.004828 -0.035472 -0.081194 0.018071 -0.018480 -0.011562 -0.009564 0.004380 0.082152 -0.067114 -0.049058 -0.010333 -0.096085 0.016760 -0.022236 0.033789 0.013626 -0.063537 -0.007817 -0.002912 0.003048 -0.048234 -0.006641 -0.031764 -0.109024 0.037588 0.015820 -0.040900 0.011045 -0.067968 -0.029476 0.000650 -0.082020 0.052243 0.010026 0.047527 -0.031528 -0.022181 0.066113 -0.010882 -0.002645 0.002807 -0.027725 -0.015647 -0.036167 -0.016782 0.002513 0.004063 -0.022411 0.037821 0.045871 -0.008392 -0.007728 -0.012650 -0.019699 -0.045011 -0.075215 0.061254 -0.027640 -0.008791 -0.045561 -0.010613 -0.010660 -0.073012 0.017757 -0.027487 0.105293 -0.008739 -0.004993 -0.069233 0.077868 -0.031984 -0.041301 0.104599 0.068517 0.005904 0.025192 -0.063446 0.046684 0.050860 -0.029897 -0.064671 -0.080360 -0.009958 -0.093114 -0.025305 -0.007444 0.060069 -0.024296 -0.026266 -0.009874 0.071405 -0.034261 0.058043 -0.025944 -0.043723 0.019661 -0.010330 -0.013777 0.014232 0.055715 -0.003515 -0.027487 -0.023160 -0.001265 -0.082417 -0.024835 0.086253 0.008892 0.019712 -0.036592 0.016944 0.017017 0.007475 -0.059612 0.080010 -0.099715 0.021995 -0.007035 0.056856 -0.015063 0.001813 -0.001488 -0.007488 -0.007972 0.003184 -0.011026 0.019998 -0.028180 -0.022573 -0.018349 0.033136 0.026975 -0.059407 -0.020200 0.000507 -0.051341 -0.007920 0.001532 0.001320 -0.004509 -0.010204 -0.050378 -0.026066 -0.016042 0.007371 0.061942 0.006754 -0.001033 0.080115 0.026627 -0.000378 0.065285 0.079518 -0.020787 -0.014670 -0.054150 -0.026147 0.011352 0.011482 -0.011671 -0.090775 -0.050549 0.071399 -0.010066 -0.028882 -0.137447 -0.050853 0.023050 -0.026990 0.059898 -0.034388 0.031829 -0.009919 0.055590 -0.000232 -0.038047 -0.027653 -0.039907 0.055831 0.011758 -0.017058 -0.025564 -0.031992 -0.010393 0.024926 0.051180 0.040444 0.040507 -0.004963 -0.017329 -0.008927 -0.027174 -0.005070 -0.012873 0.032137 0.065978 0.033743 -0.009911 -0.043127 -0.016303 0.050909 0.035624 -0.006043 0.080478 0.121247 -0.060718 0.033200 -0.009979 0.086788 -0.015791 -0.008586 0.009774 0.039817 -0.058808 -0.059974 -0.000282 0.103208 -0.007189 0.024002 -0.015738 0.012724 0.070369 -0.000449 -0.053366 0.024966 -0.077287 0.038905 -0.052040 -0.023224 0.063883 -0.013209 0.085080 0.015384 -0.030156 0.040737 -0.017027 0.045240 -0.016950 -0.039585 0.001526 0.019131 -0.008985 0.020819 0.072914 -0.008483 -0.074989 0.021459 0.023344 -0.005979 -0.144979 -0.001451 -0.043611 0.028111 0.015978 0.012204 -0.020483 -0.025610 0.022213 -0.024204 -0.020334 0.034599 -0.047543 0.002946 -0.026306 -0.045351 0.045024 -0.024358 0.053018 -0.010505 -0.027111 -0.003037 0.004356 0.046208 -0.001554 -0.010574 0.015796 0.066401 -0.079692 0.037438 0.031582 0.013974 -0.000596 0.003279 0.001824 -0.125953 -0.031215 -0.013627 -0.021936 0.023117 0.013034 0.028346 0.005738 0.087229 0.014214 -0.010038 -0.023435 0.000693 -0.058399 0.050104 -0.002857 0.006945 0.014831 0.005272 -0.019492 -0.029377 -0.015944 -0.008771 -0.043551 0.047767 -0.023323 -0.006291 -0.019915 -0.008502 -0.045960 0.011370 -0.011649 0.020929 -0.009631 0.045393 -0.050379 -0.066949 -0.034127 0.049046 0.032022 -0.055973 -0.077527 0.012627 0.044615 -0.018539 -0.029437 -0.019718 -0.039927 -0.051096 -0.067938 -0.030593 0.039293 0.059998 -0.060953 -0.027221 -0.092510 0.044242 0.010452 -0.025174 -0.028337 0.002564 0.002552 -0.034403 -0.010679 0.006297 -0.027217 0.034855 -0.046314 -0.029779 0.004731 -0.008606 0.034071 -0.049307 -0.043571 -0.000850 0.036972 -0.029736 -0.115212 0.062912 -0.029215 0.008934 0.001233 0.003839 -0.034779 -0.054304 -0.030442 -0.007496 0.028124 0.003655 0.020809 -0.032256 0.002584 0.010437 -0.016664 -0.002537 -0.020412 0.025800 -0.019686 -0.005254 -0.007331 -0.015637 -0.001229 0.028341 0.003370 0.017839 0.041487 -0.022000 0.030173 0.019098 -0.002290 -0.033779 0.013474 0.000815 -0.009336 -0.066419 0.038728 -0.028186 -0.036317 -0.024437 0.024815 0.008427 0.042426 0.014666 0.014186 -0.007199 -0.024199 0.010896 0.011770 -0.000939 -0.032449 -0.019495 -0.009357 0.005571 -0.018465 0.028303 -0.045071 -0.023705 -0.018592 0.091294 0.013647 -0.038003 0.026536 -0.020203 -0.005219 0.046958 -0.059504 -0.025940 0.051671 -0.015196 -0.007142 0.001270 -0.014228 0.011846 0.024233 -0.049677 -0.019756 -0.031831 -0.015089 -0.041227 0.169020 -0.006846 -0.008201 -0.045152 -0.048688 0.006859 0.021522 -0.061646 0.009126 0.042016 -0.044454 -0.091198 0.012877 -0.032240 -0.021778 0.014497 -0.014336 -0.019370 -0.003994 0.001768 0.006766 0.027038 0.042639 -0.027381 -0.022026 -0.041555 -0.064720 -0.099764 0.031838 -0.076458 -0.003932 -0.020449 -0.063427 0.020901 -0.020425 -0.091639 -0.066661 -0.026270 -0.023161 0.024591 -0.000052 -0.026001 -0.023131 -0.009466 0.061297 0.030817 0.035291 -0.019951 -0.065228 0.041157 -0.010552 0.009651 0.021029 -0.031275 -0.001487 -0.015098 -0.046438 0.015358 0.011038 0.009734 -0.074422 -0.040499 0.027460 0.014744 0.000579 0.004163 0.006141 -0.011879 -0.019425 0.022698 0.004576 -0.023041 -0.002411 0.003745 -0.023920 -0.030579 -0.042709 0.015047 -0.020065 -0.014631 0.024278 -0.018002 -0.035144 0.002535 -0.056866 -0.052958 -0.021164 -0.027480 -0.036874 -0.035646 0.089578 0.025900 0.024893 -0.085042 0.016718 0.052103 -0.019861 -0.032451 -0.005255 0.038766 -0.001237 0.028389 -0.000269 0.057868 0.021564 -0.002545 0.029728 -0.017556 -0.078552 -0.001630 -0.042435 -0.012637 -0.025216 -0.084968 -0.028438 -0.071499 0.012518 0.010411 0.003116 -0.034197 -0.024831 0.002473 -0.056865 -0.054268 -0.012237 -0.022644 0.012074 -0.033683 0.030356 0.040302 0.001788 0.017872 -0.050209 0.031474 -0.010912 -0.061757 0.021621 -0.030348 0.017000 -0.015405 0.048988 -0.007510 0.029101 -0.010556 -0.003977 0.005519 0.015231 0.023236 0.060418 0.001640 -0.009179 0.031876 0.011941 0.054269 -0.000399 0.004119 -0.018937 -0.004853 -0.060627 0.000334 -0.022451 0.014391 -0.044097 0.042864 0.019605 -0.014317 0.033505 0.034801 -0.002690 0.016796 -0.041351 0.004129 -0.008152 0.015685 0.024235 0.023396 0.036126 -0.001571 0.015096 0.034595 -0.065525 0.018873 0.006850 0.023871 0.063656 -0.022137 0.004820 0.040468 -0.004628 0.001454 -0.039637 -0.011217 0.004751 -0.039968 0.001695 0.012863 0.043289 -0.077700 -0.007213 0.010217 0.031256 0.016586 0.006962 0.015094 -0.047492 -0.037013 0.003866 -0.067133 -0.010512 -0.010203 0.065566 -0.027091 -0.046413 -0.040355 -0.005193 0.036829 0.004930 0.062204 -0.051334 -0.016238 0.022206 -0.005566 0.069355 -0.056946 0.068852 0.016152 0.060657 0.000502 -0.055846 -0.006810 0.002927 0.015384 0.014311 -0.025294 -0.018511 -0.024598 -0.018487 -0.051912 -0.047286 -0.002939 0.020934 0.011017 -0.043131 -0.026720 0.073158 0.042519 -0.039201 -0.019247 0.016996 0.043881 0.019048 -0.005349 -0.007954 -0.013227 -0.070714 -0.006797 0.004530 0.023766 -0.005956 -0.038158 0.002013 0.007263 0.025615 -0.011599 -0.004606 0.000220 0.014125 0.012212 0.024992 -0.010167 -0.057793 0.042516 0.016046 -0.043019 0.045624 -0.008365 0.001986 -0.026995 0.014083 -0.034806 -0.018246 -0.019574 -0.021917 0.091872 -0.059142 0.029714 -0.215923 -0.037054 -0.030303 0.020873 -0.017455 -0.056971 -0.065039 -0.048022 0.004231 0.007458 0.028206 -0.036404 0.023650 0.012347 0.030756 -0.004203 -0.022610 -0.020798 0.074776 -0.015043 -0.029921 0.047589 0.017583 -0.000141 0.043962 -0.017228 -0.009125 0.026022 0.017850 -0.030838 0.038639 0.007788 -0.035650 -0.012225 -0.015202 -0.124695 -0.026532 -0.035354 -0.066617 -0.036784 0.016868 -0.007275 -0.011294 -0.002272 0.014431 -0.000083 -0.029783 0.011123 -0.068773 0.028478 -0.032063 -0.051897 -0.007720 -0.040144 -0.022172 -0.051340 0.003367 0.025616 0.009468 0.004368 0.055658 0.115863 -0.050779 -0.000885 -0.022114 0.047390 0.036001 -0.026259 -0.024448 -0.063365 -0.011733 0.078062 0.028546 -0.020830 -0.026016 -0.020761 0.023165 -0.004276 0.003741 0.041016 -0.060714 0.000839 -0.020779 0.021778 0.022498 -0.053324 0.014882 -0.064410 -0.011625 -0.020679 0.008548 -0.008503 -0.007228 -0.018516 -0.050054 -0.073800 0.016630 -0.025033 -0.008642 0.038790 0.023770 -0.050830 0.043589 0.032266 0.054339 -0.005025 0.055591 0.038761 -0.014306 -0.035739 0.016880 -0.009820 -0.048171 0.003566 -0.045319 -0.013807 0.007612 -0.009130 0.017581 0.037600 0.014388 -0.035814 0.010365 -0.013418 0.036762 0.035025 0.005799 -0.043765 0.067005 0.038026 -0.018307 -0.031233 0.121895 0.070893 0.050341 -0.036551 -0.047934 0.044845 -0.023535 0.041964 0.020835 -0.015959 -0.004251 -0.020668 0.024962 -0.012487 -0.063773 -0.002627 -0.021653 -0.054822 -0.030401 -0.011119 -0.028367 -0.026277 0.018585 0.021102 0.040513 -0.064461 -0.002532 -0.029843 -0.030935 -0.014604 0.019932 0.003557 -0.009252 -0.027831 -0.011344 -0.041256 -0.079643 -0.055173 -0.052050 -0.017120 0.054113 0.067745 0.000532 -0.019791 -0.004102 -0.005660 0.009247 -0.066622 -0.002703 0.004300 0.031843 -0.053975 -0.062223 0.011185 0.026625 -0.022771 0.021818 -0.018847 0.034714 0.032766 -0.013644 0.033289 -0.011781 -0.051501 -0.054839 0.067180 -0.026093 -0.000280 0.027091 0.043367 -0.003495 -0.001389 -0.044832 -0.003041 0.099442 -0.030280 0.067925 -0.094818 0.010795 0.020626 0.009009 0.079296 0.025352 -0.011815 -0.045440 -0.002524 -0.003178 -0.084878 -0.013192 0.008195 -0.018067 0.073361 0.028836 -0.033515 -0.071036 -0.030859 -0.019221 -0.030875 0.007335 -0.068774 0.077163 0.017649 0.017361 -0.071467 0.028695 0.029181 -0.007828 -0.037967 0.056324 -0.011192 0.006415 0.039248 -0.054378 -0.002900 -0.062656 -0.022735 -0.011336 0.006626 0.052879 -0.043667 0.024276 -0.018895 -0.012752 0.036106 0.050654 -0.048828 0.046261 -0.008719 0.000583 0.072711 0.009297 0.040793 0.011355 -0.019022 -0.010821 0.028910 -0.025154 0.004756 -0.022983 -0.004547 -0.039320 0.021381 0.021486 -0.029849 -0.041561 0.015877 -0.001563 -0.010797 -0.008741 -0.049651 0.012215 0.004145 -0.001720 -0.026457 0.020692 -0.009615 -0.042998 -0.038030 -0.020305 -0.039810 0.013744 -0.047066 -0.069833 -0.012934 -0.005560 0.086004 -0.044839 -0.013161 0.007013 0.016022 -0.055184 0.002585 0.043172 0.003519 0.001901 0.042487 0.036501 0.029595 -0.010441 -0.030896 -0.028814 -0.021371 -0.003877 0.009019 -0.021099 0.005453 0.059948 -0.009580 -0.013056 0.013098 0.022529 -0.092390 0.035044 -0.000676 0.037372 0.064635 -0.030410 0.062474 -0.032716 -0.015376 -0.041766 0.047728 -0.079780 -0.008057 0.009282 -0.023446 -0.001142 0.002952 0.006077 -0.070231 -0.013000 0.035848 0.065666 -0.033795 0.045882 -0.086163 -0.024086 -0.030908 -0.062056 0.002976 0.004012 0.041075 0.037530 -0.033496 0.003189 0.024269 0.010038 0.071167 0.046748 -0.004199 -0.034563 -0.039147 -0.015642 -0.026919 0.078745 0.003453 -0.014363 -0.000062 -0.044509 0.029474 0.051648 0.036172 -0.005136 0.014487 0.015610 -0.057552 0.026595 -0.019012 0.009197 -0.017570 -0.007735 -0.056422 -0.022748 -0.037065 -0.009848 -0.026518 0.021915 0.017627 -0.003729 0.038946 0.055087 0.006347 0.007693 0.032952 0.060679 0.008411 -0.018760 0.031644 0.013127 0.008683 -0.031092 0.005139 0.029271 -0.038462 0.007989 -0.033781 -0.018142 -0.010545 -0.005848 -0.053045 0.010269 0.021663 -0.012909 -0.027401 0.041564 -0.073359 -0.077718 0.008069 -0.025609 -0.000751 -0.001557 -0.018430 -0.043136 -0.015001 0.027958 -0.054862 -0.011545 0.005503 -0.030948 -0.060351 -0.039229 -0.008565 0.005011 0.014706 0.009899 0.032094 0.017304 -0.034160 -0.053216 -0.000548 -0.023886 -0.020138 -0.034891 0.021761 -0.010024 -0.017814 -0.018276 -0.043212 -0.001005 -0.018377 -0.011265 -0.029511 -0.025690 0.009154 0.023763 -0.010706 0.009629 0.008150 -0.008653 0.037179 -0.052559 0.037545 0.029791 0.022910 -0.032761 -0.013941 0.000033 -0.023024 0.048418 -0.006444 -0.017384 -0.026568 0.066883 0.036845 -0.042574 0.004627 0.024313 0.017451 -0.062335 -0.019331 -0.022815 -0.010438 -0.027979 0.036742 0.002328 0.009960 -0.062209 -0.004706 0.062657 0.250424 0.051957 0.020190 0.007764 -0.045580 0.043237 0.068357 -0.011974 -0.013828 0.008165 -0.021262 0.074071 -0.013065 0.070461 -0.011613 -0.025446 0.033520 0.014870 0.022527 0.004580 -0.017411 -0.029652 0.050850 0.005420 -0.025669 -0.018916 -0.018823 -0.021999 0.032194 0.013206 -0.034919 -0.030039 -0.090282 0.007979 0.056398 0.004294 0.056205 -0.020074 0.056264 0.013282 -0.027190 -0.002781 -0.010461 0.082749 0.029134 0.022287 -0.034661 -0.027066 0.019360 0.032903 -0.015284 -0.054628 0.078137 -0.043471 -0.120616 -0.000640 -0.018877 -0.003150 -0.032284 0.015074 -0.008483 0.015487 -0.006081 -0.061954 -0.008464 0.026433 -0.018862 -0.011581 0.029212 -0.016192 0.017171 0.033682 -0.014923 -0.048799 -0.008623 0.038022 -0.012771 0.035223 -0.043578 0.019587 -0.042141 -0.000437 0.000490 0.014231 0.006902 0.043671 -0.003380 -0.009647 -0.018738 0.049409 0.015788 -0.021237 0.011760 -0.005723 0.024324 0.024783 0.004994 -0.004315 0.006076 0.005426 -0.006683 -0.050844 0.008313 -0.033905 0.042759 -0.039281 -0.044098 0.003420 -0.009753 0.018402 -0.047927 -0.015481 0.016811 -0.023662 -0.000017 -0.020102 -0.037825 -0.039807 0.001783 0.031380 0.026007 0.062419 -0.014652 0.004492 -0.023394 0.017869 -0.037362 -0.024526 -0.037054 0.041361 0.045021 -0.041152 0.020374 -0.021204 0.002584 0.023651 0.001887 0.118223 -0.020471 -0.042283 -0.003382 -0.046858 -0.063910 -0.001375 -0.004308 0.027307 -0.022519 -0.045409 -0.018682 -0.034134 -0.036689 0.016085 0.065254 -0.018642 0.007440 0.009986 -0.056563 -0.013485 -0.039272 -0.019445 0.017900 0.049328 -0.004739 -0.110699 -0.014015 -0.064119 -0.108211 0.035134 -0.001315 -0.002128 -0.003132 -0.027610 -0.021619 0.008333 -0.295906 0.044620 -0.022904 -0.043320 -0.072838 -0.016317 -0.027322 0.053454 0.007903 -0.048063 -0.007689 0.004935 -0.008461 0.095343 0.062094 -0.022011 0.008085 0.021116 -0.044923 -0.029334 0.014094 0.029642 -0.008924 -0.031221 -0.028356 0.086304 -0.030464 -0.000354 -0.087975 -0.004423 -0.053188 -0.005099 -0.010991 -0.015631 0.039274 0.029382 0.014843 -0.057007 -0.032146 -0.018398 -0.005233 -0.037867 -0.038695 0.137813 -0.040808 0.031053 0.007681 -0.020794 0.025761 -0.022364 -0.001611 0.009731 -0.013890 -0.023519 0.017782 0.015175 -0.031162 -0.036458 0.031090 -0.011427 -0.015958 -0.063229 0.080112 0.084220 0.021061 -0.018659 -0.033471 -0.021795 0.005511 
BETTER 0.020725 -0.043807 -0.017826 -0.026262 -0.079607 -0.016097 0.008476 -0.026825 -0.126076 0.001539 0.010543 -0.101820 -0.019402 -0.114946 0.011653 -0.007063 0.017113 0.011275 -0.009386 0.092553 -0.007034 0.022886 0.026606 0.001254 0.001758 0.000885 0.021036 -0.106884 -0.010206 0.006751 0.021882 0.029362 -0.001778 0.035407 0.024547 -0.085843 -0.107089 -0.074484 0.014083 -0.069450 0.028441 0.010825 0.037736 0.013696 -0.019158 -0.054424 -0.024749 0.013523 0.013902 0.022141 -0.007390 -0.113280 0.016987 -0.020051 -0.030986 -0.011886 0.005266 -0.003571 -0.047687 0.027966 -0.003353 0.010344 0.017249 -0.044363 -0.141015 -0.016158 0.033516 0.000360 -0.009468 0.042588 0.070355 -0.027617 0.036905 -0.096848 0.022811 0.006437 -0.001028 -0.012893 0.012610 -0.029024 -0.019151 0.027053 -0.031140 -0.015432 -0.024017 -0.048923 -0.036199 0.009216 -0.006174 -0.008070 -0.087943 -0.076890 0.025690 0.030224 0.010636 -0.017582 0.015940 -0.040414 0.042429 -0.062088 -0.023307 0.019208 -0.033031 0.012168 -0.011036 0.005966 0.002699 -0.053597 -0.029256 0.009390 0.041080 0.021923 -0.026207 -0.024601 -0.057226 -0.004118 0.047668 -0.011083 -0.071895 -0.112793 -0.005720 0.018348 -0.006906 0.026870 0.024475 0.019223 0.062456 0.009645 -0.031663 -0.131603 -0.117172 -0.040988 -0.048549 -0.001883 0.052696 -0.016331 -0.089938 0.017572 -0.010922 -0.103413 0.028907 0.037375 -0.047837 0.015847 0.029996 -0.002585 -0.104118 -0.010095 -0.162133 0.021331 -0.031995 0.009592 0.051725 -0.072289 0.010919 -0.024572 -0.007107 -0.015477 -0.028694 -0.088605 -0.014938 -0.025115 0.038618 -0.001088 0.022172 -0.093417 0.054418 -0.004739 -0.077024 0.004019 0.054552 0.009660 0.012012 -0.037128 -0.026072 0.000506 0.017823 0.010878 -0.045683 -0.004379 -0.096632 -0.005676 -0.025208 0.007448 -0.051268 0.016486 -0.097677 -0.052709 -0.048435 0.012800 -0.053773 -0.048519 -0.043475 0.007449 -0.093071 -0.089915 -0.006828 -0.011039 0.055304 -0.011756 -0.003981 -0.001662 -0.048271 0.001535 -0.005569 -0.028806 0.016738 0.008510 -0.004102 0.042267 0.030906 0.026716 0.020214 0.042898 0.064268 0.027995 -0.062833 -0.018775 -0.026024 0.004755 -0.008715 0.027248 -0.012172 0.014201 -0.027952 -0.062501 0.009480 0.027513 0.037860 0.039094 -0.005887 -0.013281 0.019264 -0.071789 0.001592 0.010561 0.043975 0.054697 -0.062886 -0.049309 -0.056034 -0.019933 -0.028620 0.033080 0.025565 -0.058490 -0.076968 -0.033770 -0.087228 -0.012470 -0.060937 0.031102 -0.189838 -0.011052 0.030038 -0.023956 -0.018272 -0.080874 -0.008791 -0.010756 -0.061267 -0.006657 -0.003583 0.022639 -0.033294 -0.047394 0.035236 -0.001816 -0.001709 -0.009213 -0.011947 0.010421 -0.062208 0.034005 0.004598 -0.004850 0.010720 -0.045722 -0.005182 -0.000417 -0.059970 0.013392 0.005647 -0.048306 -0.027629 -0.025570 -0.018870 0.003958 0.023695 0.018604 0.008439 -0.002293 -0.062995 -0.101670 0.020943 0.036896 -0.120611 -0.032661 0.005740 0.020688 -0.038233 -0.018081 -0.105997 0.000118 -0.004912 0.010111 0.034925 -0.119828 0.014814 -0.048152 0.011669 -0.002597 -0.003625 -0.026571 0.001145 0.003333 0.030940 -0.009125 0.027590 -0.065864 -0.044855 -0.064765 -0.002651 0.039387 0.005193 0.023216 -0.010413 0.011921 0.011094 0.060581 -0.071050 0.036925 0.013829 0.007639 -0.038598 -0.005424 -0.049191 0.019087 0.021449 -0.008087 0.024626 0.054250 -0.005264 0.012148 -0.000486 0.043937 0.012882 0.048870 -0.028800 -0.005606 -0.012290 -0.017661 -0.053742 0.051248 0.011657 0.030829 -0.052533 0.007771 0.018285 -0.003848 -0.006313 -0.050193 -0.107683 -0.008857 -0.076488 -0.061507 0.009368 0.004154 0.022180 0.006422 -0.004888 0.036880 -0.043583 -0.061266 -0.031053 -0.016856 0.000877 0.005447 -0.011923 0.000062 0.029152 -0.010836 -0.039546 0.028275 0.006037 -0.342763 -0.033214 0.001779 -0.031274 0.005862 -0.002199 -0.002760 0.013591 -0.027426 0.000284 0.025770 0.005655 0.000784 -0.074280 0.008756 0.014248 -0.024535 0.012962 -0.050729 0.013062 0.003640 -0.002522 -0.010525 0.045849 -0.027506 0.020324 0.028399 0.009282 0.033186 -0.009913 0.007979 0.016619 0.004098 -0.045614 0.006129 -0.015324 -0.136926 0.003255 -0.048490 -0.090530 0.007657 -0.014081 -0.010559 0.004724 0.041595 -0.025447 0.015781 0.016679 -0.030226 -0.096890 0.017708 0.006079 -0.077197 -0.058837 0.000712 0.026306 -0.005319 0.049017 -0.012104 0.002201 0.070803 -0.030025 -0.058979 -0.005997 0.008481 -0.052839 -0.077006 0.004959 0.044809 0.011858 -0.017240 -0.044908 -0.072915 0.029136 -0.000572 -0.069213 0.013381 -0.052259 0.012922 0.007039 -0.008164 -0.046044 0.022624 -0.007804 -0.007763 -0.026349 -0.039886 0.033669 -0.005496 -0.022648 -0.019604 -0.135067 0.008692 0.002052 0.002852 -0.028353 0.048323 0.000351 -0.017356 -0.007851 0.024920 -0.021965 -0.000194 0.028017 -0.013986 0.007308 -0.002111 0.022683 -0.010261 -0.039562 -0.108592 0.012468 -0.080595 -0.081828 -0.040868 0.002510 -0.055752 0.003320 0.006353 -0.014275 -0.082484 -0.076878 0.005478 -0.065948 0.013948 -0.000487 -0.034055 -0.068398 -0.012066 -0.099683 -0.001174 -0.017059 -0.045956 -0.008760 -0.070013 0.007685 -0.031763 0.028845 -0.044829 0.015192 0.010588 0.004995 -0.057359 0.001087 0.000327 0.014287 0.005034 0.049534 -0.005251 -0.008675 -0.095619 -0.003833 -0.075206 -0.056570 -0.025422 0.055423 -0.005882 0.005491 -0.003131 0.007183 -0.070385 -0.027420 0.011970 -0.044825 0.014353 0.004623 0.020597 0.032191 -0.037687 0.010756 0.050371 0.010667 -0.056739 -0.020890 0.023694 0.028640 0.020655 0.007701 -0.049427 -0.072739 0.006277 -0.096822 -0.065771 0.016330 -0.027355 -0.002265 -0.019106 0.010813 -0.024473 -0.037622 -0.080354 0.004159 0.019629 0.028245 0.015292 0.095209 -0.001837 -0.021824 -0.020654 -0.052319 0.004615 0.038199 -0.046640 0.022975 0.009537 -0.056060 -0.014229 -0.047231 0.005703 -0.064641 -0.065572 0.003021 -0.012855 -0.042372 -0.077372 0.030968 0.013607 0.007043 -0.008124 -0.005675 -0.017299 -0.008514 -0.081890 0.027436 -0.068811 -0.026088 -0.023191 -0.024254 -0.035520 -0.001471 -0.020529 -0.065708 0.003824 -0.073732 0.012772 0.009302 0.020720 -0.096725 0.006093 0.027992 -0.008625 0.027481 -0.012915 -0.074570 -0.040418 -0.019155 0.028914 0.008642 -0.013836 -0.084060 0.000781 0.011539 -0.022783 -0.060187 -0.053966 -0.018659 -0.053318 0.010052 0.000305 -0.042180 0.000069 -0.031731 -0.015745 -0.033438 0.002920 0.001480 -0.049031 -0.001689 -0.003438 -0.002280 0.012170 -0.003848 0.004628 -0.079424 -0.002317 -0.016563 -0.005731 -0.000327 -0.060023 -0.056806 -0.053072 -0.088429 -0.034492 -0.073541 -0.019834 0.057583 0.003227 0.017247 0.003455 -0.009852 0.023715 -0.063976 0.017440 -0.050922 0.028953 0.013772 0.009927 0.001941 -0.000747 0.017252 -0.006577 -0.064284 0.002271 -0.079599 0.001385 0.011905 0.009299 -0.057185 -0.073579 -0.022049 -0.081812 -0.007995 0.010872 0.024859 -0.009727 0.004149 -0.056026 0.001051 0.023191 0.010558 -0.004791 0.019611 0.013530 0.009628 0.010546 -0.056318 0.008750 -0.000631 0.027648 -0.016747 -0.005775 0.005669 0.029568 -0.035781 0.013822 0.017196 -0.052546 0.008732 0.019486 -0.002556 -0.012723 0.044143 0.000026 0.000829 -0.001699 -0.004616 0.013812 -0.088836 0.016284 0.025897 -0.049362 -0.040189 -0.002507 -0.029613 0.052638 -0.009783 -0.023460 -0.046369 0.016082 0.011289 0.015494 -0.058906 0.011482 -0.010171 -0.002995 0.010642 -0.024719 -0.040638 -0.019151 0.010234 -0.008029 0.010161 0.016504 0.013977 0.044759 -0.042467 0.033742 -0.050268 0.004020 0.023042 -0.019087 0.006269 0.011656 0.027900 -0.018283 -0.013666 -0.024951 -0.011804 -0.023841 -0.053629 -0.023692 0.019846 -0.074126 0.017470 0.007347 0.028919 0.004949 -0.003105 -0.047493 0.033297 -0.072460 0.001817 -0.078077 0.000202 0.017737 0.037239 -0.001733 -0.007888 0.009501 0.007357 0.016700 0.043624 0.023281 -0.068888 -0.006840 0.010921 -0.013967 0.022090 -0.054227 0.019229 -0.018746 -0.077431 -0.041835 0.011641 0.034424 0.009246 0.011414 0.003375 -0.014620 -0.022232 -0.019214 0.009954 0.014235 -0.034136 0.028087 0.000432 -0.032243 -0.035448 0.010777 0.038316 0.011663 -0.012561 -0.045308 0.017105 0.038968 -0.035745 0.057026 -0.020222 -0.036844 -0.072743 -0.068712 0.018692 0.014697 -0.016639 -0.051432 -0.012669 0.008680 0.001324 0.026314 0.016996 -0.000860 0.005032 0.008186 -0.021430 0.026682 -0.031701 -0.004107 0.022030 -0.002804 0.026548 -0.017573 -0.020250 0.012101 -0.048184 -0.074931 0.005596 -0.000498 -0.040072 0.036774 -0.084237 -0.000576 -0.113077 -0.056904 0.011951 0.013290 -0.032935 -0.030017 -0.108014 -0.007972 0.004003 0.000505 0.027121 0.000195 0.013390 0.002701 0.002484 -0.014335 0.009855 -0.021219 0.007457 0.026216 -0.061440 0.028224 0.006960 -0.007682 0.020069 -0.005828 -0.039603 -0.002538 0.005315 0.002725 -0.037771 -0.002915 0.001373 0.019167 -0.000506 -0.074772 -0.059976 -0.067010 -0.039293 0.000004 -0.000161 0.003341 0.006543 -0.003392 -0.000295 0.001804 -0.000951 0.009106 -0.068358 0.002547 -0.075245 -0.060860 0.027696 -0.043089 -0.052930 0.003779 -0.070199 0.003548 0.014780 -0.088216 -0.009632 0.051577 0.010784 -0.078902 -0.018182 0.027668 0.010829 0.001765 0.027168 -0.006496 -0.051436 0.017867 0.028936 0.023692 -0.000526 -0.012173 -0.003101 0.001895 -0.042430 -0.021046 -0.058593 0.021670 0.036977 0.012421 0.000177 -0.062472 0.002201 -0.013458 -0.060487 -0.083851 -0.079727 0.021688 -0.048209 0.005272 -0.035169 -0.112866 -0.030907 0.037842 0.010120 0.009126 0.017451 -0.028014 0.016337 -0.013014 0.034797 0.042103 0.006880 0.037084 -0.014902 -0.005845 0.010602 0.038682 -0.055396 0.080383 -0.010274 0.024311 -0.015335 -0.053817 0.024614 0.031464 0.028805 -0.027773 0.004901 -0.043850 0.001684 0.033172 -0.015696 -0.015924 -0.017262 0.023903 -0.045874 0.016026 0.069935 0.001175 0.048336 -0.003335 -0.002878 0.012433 0.003725 0.006492 0.004266 -0.067479 0.012420 0.010865 0.045178 0.004018 -0.107261 0.039537 0.022181 -0.070760 0.028401 -0.023981 -0.083399 0.009581 0.006508 0.007388 -0.084067 0.007085 0.024264 -0.048384 0.039473 -0.042274 -0.103788 -0.054386 -0.022717 -0.058553 -0.017765 0.017591 -0.068020 -0.007077 -0.106065 -0.051532 0.029194 0.016797 0.022411 0.015137 0.010216 -0.033993 0.014439 -0.065039 0.032063 0.025210 -0.053210 -0.007673 -0.057302 -0.030978 0.044609 -0.056772 0.010295 -0.063038 -0.018659 0.011561 0.017930 -0.068708 -0.042940 -0.053856 -0.070752 0.026568 -0.024296 -0.018142 -0.066766 0.011601 0.011022 -0.064030 -0.049360 -0.063712 0.011370 -0.014109 0.019801 -0.069132 0.081765 0.039889 -0.081344 0.021478 -0.002356 -0.037343 -0.012125 0.003819 -0.079816 -0.103137 0.000405 0.009758 -0.044550 0.032127 0.002509 -0.001459 -0.092043 -0.064947 0.011287 0.001727 0.012954 -0.011026 0.015947 0.000128 -0.086806 -0.049796 -0.043141 0.004339 0.023286 -0.046242 -0.027430 -0.026613 -0.019955 0.008257 -0.021436 -0.057832 -0.096369 -0.001581 -0.009771 -0.007313 0.029167 -0.114360 0.014828 -0.041338 -0.079964 0.015091 0.033692 -0.050107 -0.025086 -0.004372 0.012182 0.034255 -0.001945 0.002471 -0.013322 -0.038705 -0.067514 0.006648 -0.016792 0.012835 -0.081024 0.050642 -0.027595 0.005068 0.002058 -0.015989 0.027482 0.022762 0.015384 0.005765 -0.022305 -0.070995 0.032606 0.021395 0.008473 -0.081466 0.026212 -0.010057 -0.003982 -0.005114 -0.023424 -0.050240 -0.004865 -0.039850 -0.001041 -0.040383 -0.045250 0.017769 -0.082402 0.032020 0.003866 0.088874 0.013511 0.026340 0.043616 -0.015102 0.027503 -0.020214 0.046202 0.007067 -0.053746 0.017505 -0.008364 -0.036550 0.000611 -0.004213 0.009108 -0.016323 0.053191 0.016701 -0.063857 0.047329 -0.047012 -0.063159 0.016301 0.046671 0.029967 0.003005 0.025155 0.032815 -0.025523 0.026585 -0.053890 0.018387 -0.000296 -0.055449 0.005506 0.004689 -0.010402 0.014211 0.002228 -0.066296 0.016853 0.036664 0.077358 -0.018868 0.011592 0.002925 -0.012880 -0.085885 -0.071536 0.006426 -0.054272 -0.029529 0.017867 0.008360 -0.072774 0.002422 -0.041252 0.022691 0.007436 0.021808 0.043139 -0.089501 -0.063854 0.001671 0.025697 -0.051958 -0.055209 -0.032433 0.017131 -0.019990 -0.027271 -0.011230 -0.004518 0.007946 -0.068022 -0.024338 0.003894 -0.046080 0.021040 -0.031958 0.000261 -0.098547 -0.069650 -0.001562 0.038176 -0.002024 -0.084933 -0.057991 0.004994 0.012986 0.034447 0.018357 -0.023967 -0.027776 -0.018041 -0.089947 0.003819 0.020189 0.032313 -0.001633 -0.022343 0.008802 0.015295 0.007886 -0.016081 -0.038891 -0.086781 -0.043800 0.003546 0.006287 -0.011733 -0.020987 -0.001733 -0.077617 -0.035754 0.015088 -0.001690 -0.011727 -0.000849 -0.058526 -0.010449 0.000283 -0.054142 0.001777 0.001913 -0.010956 -0.054983 0.004167 -0.042567 -0.037103 -0.046394 -0.001338 -0.063261 -0.005052 -0.079458 -0.049888 0.028557 -0.005545 -0.000332 -0.008898 0.018816 -0.016500 0.015802 -0.045974 -0.000541 -0.025061 -0.024452 -0.041118 0.012311 -0.045097 -0.004108 -0.003702 0.007371 0.009602 0.019105 0.001064 -0.016661 0.027203 0.012418 0.053961 0.006173 0.010929 0.023283 0.002311 0.003998 0.054632 -0.056321 -0.061265 0.057183 0.002703 0.013664 -0.052371 0.013523 0.017557 -0.002215 0.008184 -0.003434 0.011707 -0.055049 -0.073369 0.019294 -0.000400 -0.012691 -0.030370 -0.023653 0.021951 -0.032328 -0.033186 0.007687 -0.058943 0.016642 0.054527 0.002978 -0.058233 0.029863 0.037426 0.019572 -0.064848 -0.057374 0.013203 0.036286 0.011645 0.015647 0.023656 -0.013120 0.028111 0.066589 -0.050706 0.012015 -0.006354 0.008336 0.024455 -0.011593 -0.005504 0.007412 -0.112560 -0.020675 -0.052562 -0.010702 -0.043700 -0.066076 -0.005233 -0.053305 0.005216 0.029990 0.034123 -0.006110 -0.026513 -0.002779 -0.008385 0.015649 0.005274 0.027132 0.034446 0.007548 0.007564 -0.029376 0.020388 0.003748 -0.023973 0.005759 0.030874 0.026162 -0.042615 -0.030502 -0.034496 -0.054064 -0.011718 0.064927 -0.007368 -0.082321 -0.074817 -0.002473 0.040547 -0.084213 0.009297 -0.038243 0.018532 -0.014232 0.008266 0.014791 0.020286 -0.059394 0.026944 0.014674 -0.056067 0.001160 0.003923 0.023916 -0.036402 -0.014844 0.020626 0.032473 -0.029947 -0.067524 -0.046271 0.029842 -0.012323 0.007356 0.017251 0.015291 -0.007319 -0.037481 0.027119 0.006369 -0.031338 -0.033020 0.031411 0.010822 -0.028887 -0.057396 0.003054 -0.005698 0.011670 -0.028760 0.001625 -0.024136 -0.016059 0.001217 0.005117 0.011338 0.025460 -0.027677 0.005029 0.017080 -0.005883 0.028655 -0.014502 -0.016632 0.024106 0.010680 -0.017936 -0.036664 0.010726 0.014837 -0.007429 -0.058732 0.015425 -0.004620 -0.085034 -0.007793 -0.083420 0.032924 -0.051906 -0.005853 -0.040953 0.023707 -0.011372 0.018107 0.001466 -0.107634 0.001614 0.006348 -0.011584 0.004187 0.008972 0.018173 0.029977 0.007957 0.011498 -0.010090 0.014855 0.012526 -0.058698 -0.074454 -0.066914 0.016095 -0.085425 -0.012405 0.004637 -0.049866 -0.029080 -0.119028 -0.025934 -0.026620 -0.072036 -0.035851 0.003721 0.012672 -0.046546 -0.006859 0.002850 -0.003293 0.006563 -0.034377 -0.025837 0.002857 -0.081252 -0.063103 -0.077831 0.028128 -0.040325 -0.050168 -0.072503 0.003709 -0.031531 -0.005686 -0.074154 -0.003636 0.019788 0.021790 0.012972 -0.010560 0.028110 0.006277 0.037493 -0.046274 0.023847 0.047069 0.038938 -0.049519 -0.032758 0.073790 -0.050646 -0.049779 -0.040517 -0.011977 0.016883 -0.012694 0.009432 -0.098924 0.003385 -0.054885 0.017156 -0.010265 -0.052135 0.025775 0.006997 -0.020040 -0.081451 -0.033225 0.017367 -0.098135 -0.018041 -0.015718 0.003051 0.023914 -0.011531 -0.047189 -0.022574 -0.037141 -0.010455 0.005879 -0.036580 -0.049765 0.035740 0.026836 0.199152 0.003412 -0.098261 -0.015467 -0.084515 
BEST 0.029890 -0.050278 0.009680 0.019196 0.013958 0.052708 0.005345 -0.024416 -0.042906 0.012484 -0.019114 -0.069024 0.049317 -0.033323 0.025096 -0.073555 0.050576 -0.003645 -0.008319 0.050114 -0.059291 0.025315 0.027590 -0.025490 0.016939 -0.102735 -0.024119 -0.030694 -0.003820 -0.002793 -0.072711 0.057292 -0.007017 0.034005 0.061348 0.006724 -0.128855 -0.009918 0.015449 0.011698 0.018685 0.015934 -0.016437 -0.001121 -0.010837 -0.038820 -0.035227 0.024366 0.033155 -0.007952 0.010896 -0.071105 0.000127 -0.019537 -0.045224 -0.033575 0.020499 -0.055340 -0.058660 0.023717 -0.028193 -0.010651 0.004631 -0.064195 -0.024563 -0.056765 0.014701 -0.035007 0.042004 0.015693 0.042607 0.030909 0.048872 -0.123710 -0.030743 -0.065096 -0.133350 -0.070247 -0.016253 -0.065288 -0.023033 0.019075 0.009678 0.037620 -0.036754 -0.087351 0.075882 0.011457 0.037076 -0.001262 -0.104678 -0.049455 0.023701 0.022296 -0.060262 -0.037030 0.018788 0.038657 0.009849 -0.003644 0.001271 -0.016425 0.002420 0.016779 -0.022876 -0.048364 0.013975 -0.104791 -0.010695 -0.012931 0.022479 0.004368 0.001765 -0.041403 -0.034833 -0.016138 0.022029 0.010353 -0.039244 -0.025716 -0.004164 -0.011356 -0.072681 -0.027151 0.038847 0.017714 0.062822 -0.020445 -0.030787 -0.142358 -0.101970 0.015094 -0.048607 0.013265 -0.022236 -0.118452 -0.047261 0.054997 -0.023827 -0.063117 -0.034451 -0.069085 -0.064948 0.009574 0.029406 0.048919 0.000058 -0.028666 -0.163860 -0.004024 -0.054210 0.005091 0.001309 -0.030895 -0.050331 0.016910 0.013836 -0.006674 -0.052782 0.013670 -0.021585 -0.039138 0.011854 -0.013861 0.014750 -0.051487 0.038719 0.029909 0.004015 -0.024796 0.054717 0.013060 -0.066421 -0.132083 -0.010874 -0.007980 -0.049961 -0.004773 -0.085090 -0.058866 0.028412 -0.032500 0.023411 0.005495 -0.049596 0.006862 -0.021577 -0.029746 -0.068999 0.008396 -0.026826 -0.079140 -0.039372 -0.038160 -0.065153 -0.009612 -0.118306 0.014314 0.038806 -0.028971 -0.031428 -0.010709 -0.009810 -0.011171 0.009483 -0.033450 0.020269 -0.041314 -0.040075 0.034327 -0.080254 -0.019290 0.024910 0.043878 0.052998 0.029023 -0.084798 -0.019977 -0.045257 0.025260 0.031015 0.043284 -0.044475 0.020070 -0.045409 -0.015926 -0.075454 -0.066498 0.036242 0.065630 -0.007626 -0.084481 0.024358 -0.086446 -0.008369 0.027670 0.006997 0.050830 -0.034882 -0.058798 0.069944 0.011645 -0.050745 0.060641 -0.005691 -0.017831 -0.086585 -0.084465 -0.090609 -0.063875 0.002907 0.015380 -0.159182 0.028265 -0.074938 0.016448 -0.047067 -0.084503 -0.055422 0.002650 -0.008945 -0.007425 -0.021331 0.012215 0.009614 -0.053276 -0.000784 -0.000123 -0.215990 0.010290 0.012712 0.028252 -0.096017 0.018153 0.012815 -0.062999 -0.069183 -0.003629 0.007944 0.023113 0.023602 0.004043 0.048970 -0.005476 -0.007680 0.053059 0.000410 -0.007845 0.010541 0.045510 -0.059937 -0.125021 -0.080510 -0.012326 0.014805 0.025443 -0.069440 -0.031405 0.003521 0.016812 -0.037719 -0.077106 -0.095642 -0.009766 -0.047367 -0.082273 0.010193 -0.016826 0.004525 0.009070 0.004573 -0.039750 0.003580 0.013903 -0.019661 0.021517 -0.005435 0.004339 0.008963 -0.050900 0.016806 -0.030688 -0.015484 0.039318 -0.020168 -0.032858 0.038762 -0.015963 -0.051254 0.020504 -0.013194 0.065128 0.012265 -0.007474 0.050965 0.001628 -0.025410 0.021524 0.021395 0.014545 0.013716 0.053085 -0.014746 0.010489 0.026276 0.000205 0.026684 -0.037937 -0.070313 0.047298 0.056457 0.003416 -0.024921 0.050671 0.000322 -0.032324 -0.037360 0.016806 0.053167 0.028161 -0.038890 0.029004 -0.107989 -0.013493 -0.079464 0.001267 0.009367 -0.035276 -0.033370 -0.004146 -0.005844 -0.023079 -0.070027 0.002914 0.022534 -0.026213 -0.007342 -0.097414 0.006997 0.011309 0.038093 -0.022453 -0.021279 0.008756 0.029045 -0.082931 -0.009757 -0.036125 0.005843 0.008086 0.013817 -0.049357 -0.010355 -0.042405 0.014101 0.011274 0.000388 -0.061747 -0.030597 -0.081247 -0.035713 -0.025810 -0.023724 -0.050465 0.015085 -0.011751 -0.052413 -0.030428 0.017116 -0.038096 0.015133 0.011616 -0.059090 0.023434 -0.023511 0.008052 -0.005186 0.001703 -0.040631 0.032428 0.030653 -0.080934 -0.031208 -0.097037 -0.036266 -0.112678 0.008967 0.005787 -0.003463 0.098908 -0.041645 0.005233 -0.003893 -0.025379 0.012980 0.023465 0.004416 0.005204 -0.068772 -0.013904 -0.070084 0.005653 0.018702 -0.032714 0.005184 -0.100651 0.005513 -0.037654 -0.019293 -0.051695 -0.121343 -0.057878 -0.022767 0.058590 0.017259 0.021166 0.004950 0.013310 -0.022711 0.024930 -0.005686 0.042391 -0.025130 -0.017583 0.025047 0.021014 0.024547 -0.006587 -0.019611 -0.002571 -0.007212 -0.071602 0.045705 0.102225 -0.011858 0.003895 -0.103812 0.017901 0.002483 0.008294 -0.019881 -0.002288 -0.084328 -0.002684 0.001579 0.072996 -0.036060 0.010535 0.029125 -0.049439 -0.032229 -0.008344 -0.058508 -0.070016 -0.062450 -0.017881 0.016285 -0.007078 -0.080728 -0.004052 -0.010418 -0.016974 0.018532 0.005626 -0.067850 -0.001584 -0.053033 -0.018952 0.037986 0.000808 -0.014450 -0.051566 -0.068831 0.001458 -0.007478 -0.013834 -0.004908 -0.052398 0.050625 -0.034439 -0.070044 -0.059245 -0.026986 0.010620 -0.031262 0.009840 -0.076296 -0.017998 0.001379 0.000238 0.009330 -0.044605 0.041683 -0.008445 -0.042690 -0.099856 0.004874 -0.047263 0.003155 -0.014437 0.059874 -0.067810 0.024845 -0.041369 -0.001733 -0.003549 -0.000250 -0.040746 0.034790 -0.061950 -0.054185 0.028467 -0.009589 -0.010976 0.012316 0.043239 0.044267 -0.027619 -0.053400 -0.005007 -0.018472 0.052905 0.010826 -0.043375 0.004798 0.013884 0.009705 -0.003238 0.029229 -0.020943 -0.001385 -0.007745 -0.002407 -0.070587 0.008338 -0.097650 -0.017864 -0.004284 -0.001452 -0.007791 0.082837 0.016301 -0.018142 -0.000366 -0.004806 -0.035046 -0.020919 -0.091855 0.020074 -0.027660 -0.051633 -0.011378 -0.061145 -0.013359 -0.017251 -0.038929 -0.012285 -0.019442 0.011801 -0.046757 -0.046898 0.005488 -0.001051 0.001308 -0.000765 -0.008536 -0.041318 -0.097265 -0.036637 -0.098707 -0.038023 0.017855 0.008633 -0.042661 0.003480 -0.108515 -0.033762 0.014188 -0.027932 0.014107 -0.002197 0.015615 -0.068054 0.003618 0.026059 0.006912 0.026877 -0.042704 -0.020591 -0.044596 -0.017433 0.008383 -0.051132 -0.012646 -0.099175 0.022800 -0.026512 -0.017892 0.026606 -0.027927 -0.018616 -0.015052 -0.037483 -0.008203 0.011083 -0.005185 -0.024882 0.017495 -0.035352 0.013040 -0.009672 0.016101 0.008019 -0.043927 -0.068376 0.019645 -0.020249 -0.003070 -0.075594 0.018885 0.018689 -0.051286 0.002524 -0.056907 0.005042 -0.061959 -0.055094 -0.010298 0.002909 -0.063475 0.032066 0.001238 0.014410 -0.003105 -0.005592 -0.009358 -0.007105 -0.012058 -0.067805 0.023669 0.037936 0.020950 -0.000152 0.027108 0.034424 -0.016859 -0.000499 0.032002 -0.087033 -0.142006 -0.014424 -0.000072 0.000271 -0.073098 -0.001169 -0.027378 -0.004745 0.013244 0.008836 -0.041569 -0.094190 -0.021087 -0.050160 0.018502 0.003095 -0.009225 -0.000283 -0.037581 0.059439 -0.002438 0.000142 -0.050108 -0.048447 0.002413 -0.038406 0.018539 0.018006 -0.006968 -0.042890 -0.007700 -0.006262 -0.043499 -0.008919 -0.026914 0.005969 0.010013 0.056729 0.007692 0.030103 0.005805 -0.007368 0.019926 -0.044843 0.010998 0.001572 0.000314 -0.002690 -0.036516 -0.016317 0.029667 -0.020349 0.002603 -0.030664 0.008153 -0.007502 -0.034379 -0.016129 0.020712 0.029994 0.022147 -0.021466 -0.060411 -0.012917 -0.055849 0.014496 0.000141 0.008440 0.000330 -0.002646 0.032918 -0.047684 0.036728 -0.050500 -0.048244 0.043235 0.005265 -0.087851 -0.000840 -0.020222 -0.000980 -0.005519 -0.090072 0.001224 -0.070141 0.019477 -0.045528 0.027273 -0.018798 0.023766 -0.004325 0.005154 0.003361 -0.000192 0.023085 0.033438 -0.053645 -0.038614 0.007277 0.007634 -0.047913 0.032543 -0.022092 -0.076259 -0.005802 -0.001327 0.014086 0.001418 0.010950 -0.086406 -0.010433 0.101102 -0.014983 0.037995 -0.110261 0.020548 0.012235 0.025314 -0.019753 0.020532 -0.032360 -0.006850 0.027768 0.005022 -0.013432 -0.029227 -0.008801 0.005127 0.013642 -0.016175 0.004149 -0.003596 -0.006578 -0.035819 0.014437 -0.021228 0.014090 -0.015570 0.027789 0.011868 0.003023 0.004506 -0.006230 0.015728 -0.054237 -0.013229 -0.007822 -0.008091 -0.009611 -0.013608 -0.002022 0.009239 0.036466 0.010583 -0.022210 0.014756 -0.073671 0.019102 0.020745 0.005939 -0.051228 0.019166 0.003563 -0.019733 0.005813 0.020391 -0.003174 0.005244 0.023727 -0.044366 -0.081188 -0.007652 0.022821 0.031305 0.027745 -0.026350 0.010143 -0.107545 0.018548 0.001143 0.016006 0.001977 -0.094830 -0.076779 -0.016300 0.036069 0.002045 0.019290 -0.068511 0.014591 0.016658 0.018321 -0.039070 0.013876 0.029955 0.033428 0.032232 0.019329 0.023477 0.007410 -0.006664 0.027470 -0.061480 -0.040828 -0.034638 -0.055389 0.021364 -0.077383 -0.003471 -0.034718 0.028473 -0.006648 -0.042412 -0.040365 -0.071071 -0.063375 0.016531 -0.023125 0.016183 0.003030 0.017178 0.004241 0.015188 -0.011544 0.018032 -0.035070 0.024709 0.029910 -0.052622 -0.019074 -0.013658 -0.010071 0.003572 -0.053778 -0.048596 -0.001203 -0.087655 -0.047655 0.059955 0.006185 0.005834 -0.002112 0.022299 0.023455 -0.006814 -0.000766 -0.001837 -0.022163 0.036550 0.026952 -0.062131 -0.003571 -0.056499 0.020291 0.002335 -0.031694 -0.083599 -0.003668 0.009042 0.010850 0.016468 0.017739 -0.011770 0.001342 -0.005911 -0.064920 0.044948 -0.076971 -0.025538 -0.071124 -0.008615 -0.015098 -0.098273 -0.073882 0.042949 -0.036446 -0.011250 0.008595 -0.037564 0.021347 0.025315 0.012090 0.048623 0.021509 0.024628 -0.017397 -0.016272 0.017864 0.049882 -0.027059 0.029630 0.003726 -0.031322 0.015832 -0.040901 0.045249 -0.011169 0.005001 -0.036712 0.068336 0.019739 0.012052 0.007605 0.020228 -0.025569 -0.033675 0.013879 -0.034473 -0.034837 0.010938 0.029246 -0.034280 -0.050088 -0.028215 0.016687 0.044052 0.003130 0.030653 -0.100701 0.007806 -0.005088 -0.024535 -0.075196 -0.056420 -0.028662 -0.038630 -0.056151 0.008982 -0.009196 -0.086456 -0.037303 0.029761 0.008667 -0.057236 0.002650 -0.043949 -0.015297 0.008164 -0.043776 -0.021513 -0.050096 -0.032039 -0.048021 -0.036214 -0.018748 -0.097085 -0.009258 -0.057059 -0.044556 -0.055015 0.015900 -0.009937 0.042204 0.047083 -0.027765 0.009405 -0.115804 0.010651 0.009109 -0.049127 -0.014951 -0.085653 -0.005190 -0.029623 0.017424 0.006849 0.012552 -0.040109 0.013073 0.014751 0.012827 -0.019133 0.013980 -0.088635 0.040827 -0.030085 0.004706 0.004525 0.038736 -0.003837 -0.050246 -0.002393 -0.085660 0.030515 -0.048149 0.029561 -0.016597 -0.017519 -0.020937 -0.049196 -0.016780 -0.019143 -0.001087 -0.030027 -0.006137 -0.069712 -0.012546 -0.026056 0.002990 -0.010233 -0.006477 0.003484 -0.033375 -0.030430 0.008425 0.014334 0.001353 -0.046388 -0.004584 -0.021931 0.022403 -0.041639 -0.010507 -0.010198 0.005418 0.035057 -0.041016 0.034770 -0.058695 -0.020140 0.005212 -0.127636 0.012012 -0.075861 -0.021820 -0.006466 0.028380 0.012940 -0.079147 -0.018883 0.005511 -0.081916 0.018864 0.036189 0.014669 0.010180 -0.021678 0.033573 0.039599 0.012457 0.002266 -0.035413 -0.066248 0.052480 0.014219 -0.027496 -0.003732 -0.106381 0.089993 0.011524 0.006459 -0.018316 0.016650 0.023210 0.011835 0.007330 -0.016152 -0.057080 -0.069172 0.014384 0.022732 0.012195 -0.037818 -0.150761 0.009389 0.016653 -0.043188 -0.057871 -0.015861 0.000140 -0.051852 -0.041939 0.039263 -0.063064 -0.020047 -0.089347 0.022515 0.019900 0.010198 0.016841 -0.014469 0.018149 -0.001825 0.051869 0.015224 0.120341 0.002408 -0.039826 -0.001288 -0.000212 0.056498 -0.067856 0.017700 0.004206 -0.011078 0.002500 0.035471 -0.059210 -0.031883 -0.045737 -0.069656 0.013680 -0.015314 -0.010986 0.042645 0.012521 0.011515 0.021235 0.013849 -0.070514 0.012013 -0.067025 -0.051758 -0.062173 -0.004366 -0.003364 -0.000619 -0.037921 -0.068879 0.016203 -0.024225 0.082763 -0.014162 0.001790 -0.001733 -0.073374 -0.073522 -0.056067 0.009145 -0.044912 -0.077667 -0.038255 -0.047156 -0.026494 -0.060515 0.011436 -0.011829 0.035881 0.054642 0.002742 -0.095267 0.033006 -0.005824 0.034459 0.045564 0.017822 -0.044919 0.032713 -0.092705 -0.026275 -0.009433 0.012205 0.013180 -0.038967 -0.006133 0.022881 -0.051037 -0.031633 -0.045458 -0.006292 -0.085150 -0.037967 0.008908 -0.021556 -0.015355 0.028620 0.010718 -0.010824 0.011371 0.021373 0.033841 -0.044381 0.020513 -0.009471 -0.057103 0.018194 -0.008846 0.003896 0.007117 -0.074255 -0.063194 0.025712 -0.002460 -0.005676 0.046452 -0.035077 -0.040309 -0.066298 0.001898 -0.093273 -0.028695 -0.010470 -0.019591 -0.080229 0.010186 -0.103311 -0.033489 0.005482 0.004930 -0.092893 -0.035271 -0.009478 -0.028279 0.002315 -0.022593 -0.056755 -0.011313 0.003312 -0.025644 -0.069363 0.017861 0.016118 0.006808 -0.021672 0.005649 0.034956 0.011588 -0.042782 -0.012719 0.002476 0.002684 0.023488 -0.018421 -0.015679 0.038209 -0.012054 -0.066604 0.061981 -0.017817 0.025069 0.017890 -0.018110 -0.016635 -0.069102 0.007127 -0.061513 0.031952 -0.014323 0.049461 0.008222 0.004828 0.004447 0.009965 -0.000056 0.018279 0.024762 -0.076537 0.066746 -0.004245 0.011630 -0.018839 -0.021042 0.040090 -0.017627 0.013963 0.005693 0.005945 -0.029659 -0.030920 -0.051474 -0.005214 0.012290 0.026373 -0.063096 0.013861 -0.038049 0.009135 -0.069113 0.126488 0.025485 0.021531 -0.004481 0.007553 0.008527 0.003380 0.024208 0.022686 -0.040782 0.003127 0.074242 -0.008353 -0.007361 -0.051002 -0.066772 -0.011300 0.033699 -0.056510 0.011836 0.033376 0.004889 0.024290 -0.020909 0.018290 -0.047017 -0.093835 -0.035475 -0.028007 -0.001389 0.008507 -0.044039 0.006311 0.034925 -0.065701 0.020248 0.022316 0.019141 -0.007908 -0.033343 -0.004097 -0.043410 -0.019748 -0.009108 0.034669 0.005457 -0.013646 -0.066569 0.017549 0.001248 0.001763 -0.026407 0.007576 -0.056107 -0.005229 -0.054404 0.029301 -0.004915 -0.008501 -0.034049 -0.007222 -0.017065 -0.000451 -0.104409 -0.049824 -0.102436 -0.015961 -0.031855 0.006283 -0.054642 0.012031 0.011074 0.029355 -0.012363 0.055975 0.003727 0.002950 0.010150 -0.039929 0.028607 -0.009322 -0.032885 -0.038534 0.021602 -0.049301 0.040354 -0.058787 0.029701 -0.001378 0.011025 0.008343 -0.021897 -0.001064 -0.036331 0.020201 0.011060 -0.040579 -0.036393 -0.000355 -0.059609 0.053526 -0.057181 -0.022660 -0.034524 0.009880 -0.020976 0.017175 -0.027880 -0.006367 -0.025677 -0.024242 0.019014 0.036380 0.029253 0.065196 0.000449 0.014160 0.019126 -0.036969 0.006906 0.015195 0.006227 0.011981 -0.047001 0.005510 -0.006821 0.007422 -0.039936 0.061210 0.034171 -0.011475 -0.056623 -0.067287 -0.008803 0.004019 0.001447 -0.074545 0.057938 -0.009161 -0.004786 0.007135 -0.073289 -0.007289 0.026203 -0.048992 0.005783 0.015529 0.010435 -0.067408 -0.023081 -0.057846 0.002740 0.005593 0.007890 -0.013640 0.039828 -0.094817 -0.071695 0.002595 -0.051440 0.011774 0.041382 -0.017672 -0.021794 -0.001484 -0.079317 -0.101606 0.008098 -0.003299 0.039092 -0.065015 0.008582 0.013317 0.014848 -0.117982 -0.007112 -0.023571 -0.003270 -0.020817 0.029550 -0.067430 -0.018432 -0.054316 -0.064775 -0.068632 -0.053249 -0.009482 0.011127 -0.032352 -0.090541 0.002132 0.006098 -0.005823 -0.000176 0.029229 0.007726 -0.044754 0.005426 -0.026846 -0.112647 0.046324 0.017505 -0.079175 -0.029733 -0.025696 -0.018639 -0.036739 -0.010712 0.009936 -0.013809 -0.007181 -0.009499 0.001881 0.002041 -0.009540 -0.018971 -0.097897 -0.056209 0.021509 0.001046 -0.054826 -0.014047 -0.008854 -0.021711 -0.017724 0.013416 0.004211 0.004917 0.001802 -0.044333 -0.008344 -0.090744 -0.046671 -0.000502 0.004659 -0.038187 0.041005 0.071071 -0.035274 0.026988 -0.047714 -0.024298 -0.095474 
